3
30
90
180
 -0.116466 0.174437 -0.007665 -0.071783 0.439809 -0.398827 -0.168238 -0.178049 -0.238957 0.369695 0.268490 0.228678 -0.319627 0.039257 0.078028 0.309703 0.151781 -0.135493 -0.086522 0.396287 -0.056870 -0.070534 0.200503 -0.215409 0.323874 0.067914 0.224599 0.408036 0.217397 -0.430750
 -0.032693 -0.082822 -0.075625 -0.032370 0.189683 -0.143081 -0.165598 0.110772 -0.159753 -0.055526 -0.195649 0.136172 -0.046051 -0.183864 -0.204097 -0.176882 -0.140739 -0.004046 0.081130 -0.098666 0.067765 0.194614 0.016475 -0.063911 -0.011886 0.145808 -0.210304 -0.035206 -0.163984 -0.115019 -0.056924 -0.057785 -0.158173 0.182639 -0.109843 0.222953 0.094849 0.038552 -0.187482 -0.058758 -0.089180 0.218256 -0.006472 0.155592 -0.078883 -0.046486 -0.107688 -0.087008 -0.086513 -0.041094 -0.021802 0.001313 -0.000308 0.198292 0.129091 -0.018045 -0.181909 -0.209221 0.017734 0.092722 0.113382 -0.035156 0.104824 0.107844 0.034250 0.098572 -0.110884 -0.048791 -0.192321 -0.101566 -0.047394 -0.025007 0.164276 0.223481 -0.213330 -0.099763 -0.169318 -0.100276 0.072194 0.188299 0.162051 0.091241 -0.194512 -0.213244 0.201943 0.098573 0.060088 -0.156643 0.112762 -0.056121
 -0.105603 0.122162 -0.050117 0.089473 -0.009901 0.033029 -0.104756 -0.056499 -0.113833 0.054368 0.167075 -0.136452 0.003421 0.105020 0.074240 -0.062808 -0.074503 0.024289 -0.065179 -0.063991 -0.009054 0.143457 0.140196 0.013897 -0.021952 -0.080501 0.026378 0.038088 -0.018718 -0.047563 0.070708 0.114528 0.109459 -0.033306 0.070767 0.111448 0.102525 0.071389 -0.079330 -0.074978 0.042053 0.003246 -0.018137 0.049175 0.118095 -0.064869 0.064524 0.074372 0.006889 0.019104 0.105385 -0.039222 0.048431 -0.078782 0.004225 0.087993 -0.042439 0.109349 0.030644 0.053414 0.085623 0.060685 -0.078336 -0.001266 -0.093734 -0.068869 -0.058834 0.099499 0.022757 -0.043940 -0.078761 -0.000410 0.012226 -0.107576 -0.033303 -0.072075 -0.068754 -0.078314 -0.111287 -0.034700 0.083583 -0.092410 0.035870 0.001461 0.086650 0.011655 -0.103181 0.001580 0.075270 0.026478 -0.064773 -0.037513 -0.089483 0.087192 -0.087713 -0.098410 0.033992 -0.100940 -0.049266 0.041066 0.050026 0.054460 0.150224 0.034390 0.040896 0.035772 0.014781 0.022725 0.082465 0.018431 -0.078216 0.041021 -0.061344 0.033903 -0.067681 -0.047598 0.074226 0.045352 -0.030731 -0.031679 0.133270 -0.118590 -0.030455 0.076709 0.138227 0.076707 -0.051741 -0.004624 0.083032 0.115619 0.033899 -0.094969 -0.111869 -0.084416 -0.007400 0.067169 0.084383 -0.052079 -0.033188 0.079233 0.144851 -0.044003 0.076149 -0.044275 0.030325 0.089490 -0.093470 0.105799 -0.012370 -0.006062 -0.103907 -0.133398 -0.025587 0.098374 0.046407 -0.062595 0.015772 0.014328 0.058772 -0.114017 0.040279 0.064099 -0.125531 0.050855 -0.035148 -0.099833 0.142064 0.049809 -0.031068 -0.089679 0.033382 0.074948 0.037580 -0.120095 0.117963 0.009345 -0.090764 0.034505 -0.088071 -0.004169
