3
30 2
90 30
180 90
 -0.133403 -0.008692
 -0.099116 -0.283044
 -0.097908 0.227039
 0.181010 0.393405
 0.152527 -0.406274
 -0.025178 0.280876
 -0.388591 -0.353123
 -0.156344 0.190732
 -0.137327 -0.213873
 -0.281095 -0.268200
 0.372653 0.123559
 -0.385881 0.303306
 -0.309905 -0.145669
 -0.163918 -0.150798
 -0.321194 0.350867
 -0.064083 0.331010
 -0.363705 -0.232918
 0.374110 0.145042
 -0.174218 -0.425783
 -0.085744 0.099187
 -0.133824 -0.030806
 0.241233 -0.359813
 0.161203 -0.290293
 -0.234639 -0.301995
 -0.298080 -0.387864
 -0.361145 -0.411178
 -0.059281 0.236636
 0.119670 0.084158
 0.312143 0.394546
 -0.308028 -0.329828
 0.068220 -0.136570 0.050456 -0.044624 -0.209235 0.138054 -0.029930 0.131681 0.212693 0.032211 -0.071266 -0.010221 0.050966 -0.092612 0.102369 0.153241 -0.038877 0.108180 0.065111 -0.138160 0.182195 0.172902 0.015974 0.028680 -0.001253 0.035887 -0.009711 -0.027841 0.044403 -0.196976
 -0.024343 -0.080623 0.147621 -0.048099 0.041337 -0.015792 -0.220513 0.064026 -0.165782 0.214912 0.123784 0.212847 0.047414 0.018820 0.142966 -0.232549 -0.237610 0.033643 -0.083255 0.170675 -0.120070 0.149298 0.133510 -0.145332 -0.161904 0.111212 -0.232829 0.092722 -0.198830 -0.123711
 -0.011669 -0.023678 0.101615 0.042828 -0.052769 0.176373 0.124142 -0.042080 0.126822 0.171812 -0.147570 0.073378 -0.030079 0.047024 -0.099777 0.199981 0.183498 0.191722 0.192061 -0.213937 0.007899 -0.210717 0.217842 0.088547 -0.142355 0.204346 -0.193328 0.192109 -0.059226 -0.095087
 0.092021 -0.000648 -0.012654 -0.090169 0.183220 -0.115215 0.040731 0.079895 -0.029008 0.004257 -0.089071 0.192752 -0.102760 -0.034961 -0.077487 0.201642 -0.130118 -0.155396 0.117800 0.091554 0.140261 0.158858 -0.039770 0.057685 -0.016002 -0.118485 -0.116491 -0.156074 0.137658 0.064504
 0.105824 -0.086099 -0.018875 -0.117827 0.187107 -0.130814 -0.219107 -0.087630 -0.110593 0.131896 0.063556 -0.102528 0.153010 -0.138420 0.230525 0.040311 -0.194713 -0.050909 -0.031701 -0.124717 0.128685 0.196856 0.213902 -0.059000 -0.201617 0.222471 -0.155685 0.153873 -0.105470 -0.193650
 0.015526 0.115950 0.086041 0.053648 -0.054107 -0.065317 -0.155406 -0.026449 -0.100117 0.035247 -0.047787 -0.092862 0.214291 0.164511 -0.170080 0.171349 -0.071759 0.084691 0.086365 0.025273 0.177699 0.200907 -0.218721 0.191937 -0.075265 -0.003867 0.129649 -0.090967 0.163111 -0.093647
 0.197215 0.028479 0.073245 -0.010750 -0.166420 -0.131884 -0.078543 0.028656 0.115201 0.195034 -0.133279 -0.014875 0.149422 -0.038233 -0.140751 -0.117205 -0.160025 -0.151306 0.071507 -0.070750 0.087411 0.030663 0.150255 0.018599 0.026420 0.065183 0.173585 -0.006829 -0.049984 0.016950
 0.140002 -0.175099 0.044072 0.081535 0.166816 -0.135374 -0.001153 -0.222622 0.134469 0.137282 0.185416 -0.071466 -0.038659 -0.208271 0.082060 -0.028145 -0.173972 0.105410 0.093694 -0.201166 -0.075645 -0.016554 -0.173014 -0.084392 -0.025345 0.021349 0.164558 -0.211996 -0.002761 -0.076268
 -0.031007 -0.004040 -0.199871 0.136432 0.055552 -0.160539 0.222888 -0.028114 0.208209 -0.039666 0.007765 0.006943 0.065349 -0.162874 -0.077972 -0.122700 0.029883 -0.068904 0.218019 -0.199675 0.021146 -0.049329 -0.073400 -0.194870 0.009440 0.096577 0.125441 0.128099 -0.056683 0.099351
 0.125891 0.198847 -0.036185 0.146495 -0.213674 0.003967 -0.069367 0.198090 0.138788 0.092815 0.116090 0.034630 -0.094686 -0.096738 0.018640 0.067006 0.185824 -0.220852 -0.033443 0.148831 -0.158341 -0.033276 0.184375 -0.100865 0.200907 -0.250473 0.103005 -0.033356 -0.182509 0.182726
 0.045612 -0.060914 -0.071743 0.141685 0.062741 -0.160620 -0.033405 -0.209548 -0.167757 0.084193 -0.093378 0.190584 -0.001972 0.001416 0.067827 -0.055038 -0.180465 0.047682 -0.029148 0.064623 -0.035374 -0.189171 -0.217110 0.075883 0.063268 -0.121384 0.134106 0.069578 0.037767 0.076635
 0.036229 -0.021050 -0.216058 0.133348 0.085765 -0.165099 -0.058356 -0.216021 -0.016566 -0.060654 -0.186228 -0.209388 0.215703 0.120524 -0.143225 0.154941 -0.088591 0.174513 0.051019 -0.041438 -0.018030 -0.009132 0.001108 -0.051331 0.110944 0.024047 0.140703 0.179117 0.087669 -0.070797
 0.195700 0.126964 -0.135048 0.150610 0.124928 0.180366 0.221432 0.119169 -0.170713 -0.156492 -0.044086 -0.146108 0.059291 0.156035 0.155600 -0.145447 -0.114583 -0.036241 0.123930 -0.035025 0.019852 0.197779 0.231843 0.142224 0.042768 0.086008 0.049348 0.065602 0.244713 0.024769
 -0.153959 -0.005424 -0.162211 -0.187828 0.023164 0.028494 0.124997 0.195430 0.042086 -0.207975 -0.090312 0.137530 -0.020148 -0.065493 0.166460 -0.152070 0.110175 0.090230 0.033138 -0.003273 0.033363 -0.114632 -0.004620 0.014922 0.113287 -0.144751 -0.152839 -0.114477 -0.005061 -0.044147
 0.081836 0.227229 -0.169538 -0.180529 -0.124996 0.044203 0.195446 0.165067 -0.000803 -0.244394 0.148709 -0.069958 -0.204324 -0.193722 -0.104346 -0.111559 -0.020456 0.139559 0.349546 -0.155975 -0.130040 -0.004781 0.253283 -0.166564 -0.038969 0.241349 -0.284085 -0.019026 0.260104 -0.148455
 0.187126 -0.222746 -0.111670 0.109666 -0.165766 0.042068 0.217027 -0.161972 -0.188702 0.123588 -0.222052 0.001603 0.049031 -0.104762 0.139108 -0.013926 0.203413 0.210306 0.102023 0.031571 -0.073357 0.043453 0.107107 0.160728 -0.023938 0.205436 0.201973 0.056186 -0.055565 0.117746
 -0.209518 0.030350 -0.105965 0.121773 -0.035151 0.155047 0.100888 -0.175137 0.033326 0.096566 0.003605 -0.168314 -0.220997 -0.124147 -0.190683 -0.006341 -0.169559 -0.189523 -0.112206 0.107411 -0.184813 -0.050191 -0.208436 -0.038863 -0.009955 0.122570 0.044015 0.169072 0.129853 0.002161
 0.201702 -0.062783 0.187302 -0.134488 -0.100265 0.056301 -0.017888 0.112248 -0.042163 -0.046472 0.144051 0.100898 -0.080041 -0.018810 0.145764 0.134149 -0.029724 -0.120635 0.053181 0.035016 0.113893 0.063099 0.032615 0.095958 -0.164982 0.135374 0.091363 0.221784 0.205406 -0.177194
 0.089392 0.057585 0.232547 0.140544 0.062975 0.019006 0.130096 0.066437 0.176478 0.078550 0.094725 0.074653 0.185468 -0.046458 0.219767 -0.170573 -0.164442 0.203549 -0.165250 -0.086081 0.034890 -0.012373 -0.095026 0.054253 -0.130898 0.061025 0.132804 0.185142 0.122835 -0.212787
 0.134069 0.052757 0.212832 -0.015427 -0.065967 -0.119860 -0.192008 -0.207838 0.220410 0.046131 0.025240 0.054285 -0.074761 0.096103 0.195649 0.212642 0.120216 -0.151582 -0.089022 0.177875 -0.177318 -0.002403 -0.035905 0.060114 -0.125897 0.017849 0.130181 0.004810 0.031942 0.127197
 -0.154912 -0.073933 -0.106840 -0.094553 0.179082 -0.171753 0.059242 0.000513 0.079705 -0.179944 0.077872 -0.192091 -0.096082 -0.201170 -0.192977 -0.110597 -0.050385 -0.132858 0.020383 -0.237597 0.082022 0.057832 0.193515 -0.174724 -0.198221 -0.107059 -0.211172 -0.025552 -0.218902 0.023103
 0.031003 -0.054685 -0.035410 0.047358 -0.052700 0.043897 0.120640 0.182283 -0.023300 0.185914 0.098607 0.080674 -0.093409 0.118060 0.198260 -0.229865 0.144382 -0.060476 0.134436 0.111006 -0.016166 0.165928 0.103047 0.162294 -0.142748 -0.207531 0.116028 0.026954 -0.195272 0.007495
 0.110029 0.078380 0.190541 -0.205518 0.084506 -0.197477 0.028846 0.203377 0.187516 -0.166901 0.066317 0.132579 -0.048233 0.107022 0.088456 0.144300 0.203110 0.088206 0.226145 -0.023229 -0.095832 -0.049541 0.149061 0.082068 0.017715 0.086788 0.036759 -0.219556 0.122753 0.185278
 -0.057534 0.055157 0.104887 0.119047 0.122530 0.003566 -0.048442 -0.187031 0.159002 -0.208788 0.003733 0.054233 0.100412 -0.037619 -0.130144 -0.069338 -0.058572 -0.217084 0.002545 0.091871 -0.150422 0.196988 0.097860 0.134794 -0.018398 -0.077499 0.185851 0.193211 -0.075956 -0.007119
 0.007240 0.047372 0.031601 -0.204086 0.209603 0.005768 -0.164095 -0.196826 -0.175590 -0.120929 0.083015 -0.002454 0.207171 0.192136 -0.031652 0.084872 0.029307 0.197587 0.021331 -0.148878 -0.116933 -0.079015 -0.108010 0.000252 0.061092 0.021793 0.168137 0.036890 0.039589 -0.082884
 0.067157 0.225380 0.155144 0.011109 0.081779 -0.210627 0.102215 0.182447 -0.219381 0.077948 0.087512 0.071974 0.021234 0.219240 -0.012971 -0.138930 0.168275 -0.238678 -0.204542 0.083193 -0.093714 0.004658 -0.006490 -0.041904 -0.202931 -0.104284 -0.065999 -0.131699 0.110142 -0.171305
 0.123910 0.184960 -0.059217 0.189309 0.167792 -0.059524 -0.048884 0.147685 -0.054497 -0.116834 -0.125926 0.083448 -0.170340 -0.144510 0.151579 -0.160951 -0.037011 -0.160265 0.044735 0.008902 0.006458 0.045695 -0.219710 0.060657 0.050305 0.140443 0.175609 -0.128555 -0.183353 -0.142568
 0.093105 -0.147311 -0.077959 -0.128166 -0.219270 0.185853 -0.210934 -0.164027 0.136437 0.015620 0.106978 0.203896 -0.036876 -0.133013 0.209164 -0.038670 -0.049990 0.093136 -0.117289 0.178678 0.066601 -0.026514 -0.041249 -0.165380 -0.147191 -0.041623 0.028757 -0.090714 -0.029506 0.206021
 0.199697 0.229734 0.039426 -0.181603 0.208639 -0.046074 -0.215348 -0.101866 -0.191388 0.106652 -0.159256 0.179840 0.144882 0.028206 -0.130553 -0.007207 -0.083878 0.142807 0.069922 0.172973 -0.155991 0.208830 0.111216 -0.059713 0.235106 0.186041 0.081762 0.037223 -0.045670 0.114537
 0.038334 -0.149926 -0.205149 -0.010979 -0.103877 0.040047 -0.161439 0.069924 0.071387 0.219489 0.041187 -0.053629 0.070105 -0.026794 0.067495 -0.167772 -0.058809 0.017444 0.185453 0.067008 -0.121536 -0.037260 -0.019165 -0.070119 0.210374 0.220073 -0.208144 -0.061053 0.040469 0.153075
 -0.218416 0.088992 0.023208 0.082058 -0.000293 0.075533 0.132457 0.137162 -0.046931 0.031124 -0.020747 0.053101 -0.136273 -0.016281 -0.052910 0.017151 -0.018605 0.139356 -0.141315 0.085870 -0.214896 -0.163440 0.158254 -0.154127 -0.005376 0.216455 0.181607 -0.182671 -0.070683 -0.061416
 0.199550 0.204052 0.168825 -0.065840 -0.095128 0.127390 0.004614 -0.053262 0.011216 -0.159826 -0.035483 0.201472 -0.149589 -0.222820 -0.006494 0.021590 0.137995 -0.180673 0.012780 0.084167 -0.183141 0.125167 -0.198628 0.008859 0.154181 0.021855 0.167385 -0.087408 -0.021657 -0.043388
 -0.082125 0.127712 -0.159299 -0.067159 -0.109119 -0.080889 0.073022 -0.144596 -0.110313 -0.144123 0.100955 0.076854 0.083168 0.049831 -0.085172 0.017319 0.063101 0.054104 0.209171 -0.141533 0.066333 0.187797 0.221381 -0.169517 0.198020 0.083543 -0.090364 0.172325 -0.113663 -0.188599
 -0.099972 -0.174716 0.161616 -0.000898 -0.009822 0.024033 -0.042749 0.070923 0.065790 0.064754 -0.137580 -0.079603 0.155369 0.190141 -0.195609 -0.046341 0.205531 -0.023403 -0.078247 0.133219 -0.033549 -0.174748 -0.064796 0.165182 -0.142992 0.056400 -0.023786 0.190811 0.208849 -0.052152
 0.098253 0.003844 0.059780 0.189801 0.062111 0.095658 -0.105401 -0.030890 0.019294 0.073229 0.112495 -0.197348 0.077454 -0.012454 0.019357 -0.079635 0.086523 0.174255 0.042406 -0.135928 0.222259 -0.024598 -0.187572 -0.126680 -0.080769 -0.166302 -0.103433 0.145817 0.090080 -0.023370
 -0.104336 0.249424 -0.080807 -0.098837 -0.046930 -0.164394 -0.197610 -0.026770 -0.108249 -0.098585 -0.090825 -0.186857 0.094967 -0.054647 0.026905 -0.163388 0.267325 0.074453 0.118497 0.161848 -0.221526 0.134908 -0.038751 0.221832 -0.033060 -0.137150 0.138421 0.102128 -0.128537 -0.059211
 -0.163949 -0.205588 -0.049022 -0.107188 -0.231975 0.093240 -0.013609 -0.021424 -0.130183 0.177013 0.157621 0.175691 -0.086881 -0.109543 -0.019983 0.049494 0.033378 -0.170693 -0.049467 0.086705 -0.210548 0.210666 -0.168122 0.008584 0.125163 0.209283 0.209081 -0.154401 0.015627 -0.105755
 -0.017519 -0.141132 -0.158137 -0.220430 0.153317 -0.002801 0.188152 0.157942 0.149947 -0.006749 -0.153271 0.201492 -0.197204 0.181200 0.181549 -0.055130 0.047920 -0.118451 0.114878 0.008787 0.015807 -0.117310 0.099915 -0.194592 -0.078643 0.156228 -0.031452 -0.090744 -0.051548 -0.108636
 -0.213943 -0.018402 -0.181042 0.092103 0.104121 0.018480 0.080916 -0.125679 -0.018512 -0.106699 -0.210273 0.184077 -0.046529 -0.075143 0.073572 -0.155220 -0.089158 0.004139 0.015488 -0.174966 0.102919 -0.024389 0.047513 0.217625 -0.072504 0.191636 0.102464 0.051932 0.054259 -0.221418
 0.047660 -0.207258 0.037487 -0.084956 -0.198040 0.056314 0.038494 -0.024130 0.219920 0.105047 -0.002137 -0.107380 -0.011864 0.087599 -0.154399 0.096256 -0.126122 -0.069176 0.156728 0.006096 -0.045394 -0.115143 -0.106315 0.121377 -0.198653 0.037443 -0.144638 -0.195233 -0.105643 0.196942
 0.043514 0.010978 -0.192637 -0.032317 0.133968 0.070675 -0.012564 -0.020391 0.194052 0.174132 0.249921 0.036840 -0.019513 -0.115513 0.103322 0.238912 -0.179766 -0.130266 -0.069991 0.224636 0.182941 -0.123024 0.136039 -0.087502 -0.102685 0.063404 -0.070616 0.102408 -0.163039 0.033021
 0.182631 0.247095 -0.033938 -0.231762 0.069241 0.065070 0.088416 0.057039 -0.018120 -0.185694 -0.138359 -0.016973 0.181345 0.201026 0.138559 0.191560 -0.007357 0.217547 -0.245024 0.036223 -0.073639 -0.127453 -0.160546 -0.039101 0.203895 0.062034 0.203317 0.128002 0.152675 -0.104127
 -0.218134 -0.219234 -0.058115 0.146325 -0.016070 0.098640 -0.095119 0.207756 0.088639 0.190956 0.071898 0.078803 -0.165043 0.218568 0.075265 0.234486 0.164889 0.155267 -0.266359 -0.004381 0.106043 0.079671 -0.187543 -0.217163 0.049832 0.066186 0.003275 0.233872 -0.072612 0.104765
 -0.185387 -0.135784 0.063407 0.092672 0.137385 -0.205661 0.076930 -0.119925 -0.178495 -0.009752 -0.179460 -0.039834 0.185881 0.097843 0.000589 -0.204698 0.086245 -0.159664 0.132905 0.083954 -0.061267 0.056882 -0.063673 0.015127 0.237881 0.091207 0.081432 0.093317 -0.023186 0.188019
 -0.159933 -0.095822 0.078251 -0.244051 -0.006792 0.120013 -0.221239 -0.100132 0.136078 0.224268 -0.077148 -0.162646 0.014512 0.031404 0.023751 -0.242517 -0.147993 0.210794 0.024824 0.054566 -0.004454 0.114184 0.076865 0.061673 0.182363 0.037390 -0.066367 -0.093693 0.197299 -0.131440
 0.017444 -0.057806 -0.047061 0.159190 0.222608 0.025993 0.187298 -0.044790 0.011922 -0.071737 0.051632 0.211315 -0.194815 -0.072012 0.040302 -0.089789 0.013315 -0.151087 0.131625 0.179542 -0.191276 0.051773 0.045215 0.168538 -0.111133 -0.194100 0.139641 -0.189663 0.161781 0.212519
 0.143773 0.201571 0.114273 0.183465 -0.193543 0.142975 -0.213011 0.091739 0.176727 0.040993 -0.193525 0.116537 -0.145255 -0.120745 -0.009703 -0.148003 -0.006703 -0.047278 0.146826 -0.219433 -0.138574 -0.103655 0.099748 0.017890 0.118070 -0.218668 0.176192 0.091654 0.060337 0.092188
 -0.018268 -0.084562 -0.136241 0.111157 0.214755 0.140249 -0.134007 -0.045776 -0.099699 -0.122859 -0.129787 0.025815 0.047645 -0.017206 0.167463 -0.044606 -0.269765 0.085379 0.103017 -0.246035 0.097805 0.124582 0.243674 -0.210259 0.046938 0.207314 -0.382642 -0.158970 0.088692 -0.137114
 0.170594 0.213666 0.058001 -0.028319 0.187664 0.038701 -0.002517 0.166745 -0.095767 0.218351 -0.157298 0.057340 0.089602 0.175445 -0.094760 0.115151 -0.081844 0.102996 -0.143599 0.106703 -0.067340 -0.180060 0.225383 0.209677 0.227668 0.011767 -0.010305 -0.047047 -0.066376 0.192643
 -0.051386 0.111428 0.008797 -0.010339 -0.167605 -0.131006 0.148692 -0.132235 -0.061857 0.093757 -0.033219 0.201477 0.143739 0.153164 0.136583 0.064984 0.190501 0.199647 -0.105324 -0.017657 -0.016664 0.190892 -0.181191 -0.024847 0.101703 -0.123642 0.016708 0.180096 -0.104534 -0.101883
 -0.093251 0.182106 -0.161091 0.092364 -0.218872 0.077926 0.011886 0.169776 -0.067861 -0.074959 0.091977 0.044911 -0.002087 -0.107540 -0.099805 -0.203526 -0.223151 -0.198637 0.086054 -0.104290 0.133786 -0.061649 -0.046868 -0.043661 -0.191996 -0.025334 0.110201 0.200294 -0.093864 -0.140853
 0.111120 -0.142047 0.161272 -0.155641 -0.059743 0.199927 0.173301 -0.014678 0.196243 -0.043041 0.182199 -0.130062 0.010081 0.033702 -0.149488 -0.193991 -0.024510 0.013457 0.019039 -0.097671 0.104185 0.103744 0.145821 0.043519 -0.060113 0.164921 -0.155509 0.235786 -0.080396 -0.066916
 -0.044471 -0.200461 -0.103405 -0.166697 -0.218350 0.174722 -0.078492 0.200984 -0.129901 -0.074632 -0.201239 0.000772 -0.035722 -0.118221 -0.174423 0.056836 -0.151196 -0.010876 0.063008 0.101661 0.076231 0.145431 0.202226 0.190574 -0.156422 0.085117 -0.214462 -0.220648 0.202191 -0.144446
 -0.013066 0.098552 -0.118579 -0.207562 -0.219031 -0.120416 0.014342 0.013607 0.010644 0.021778 -0.045740 -0.125688 0.114546 0.166819 -0.178080 -0.197088 0.017182 0.118019 0.028980 -0.201567 -0.015018 -0.096362 -0.187535 -0.164762 0.183805 0.087312 -0.083481 0.002549 0.084492 -0.221095
 0.094760 0.139628 -0.131063 -0.194378 -0.085964 -0.109340 0.138563 0.188334 -0.191796 0.201825 0.086265 -0.095755 0.193341 -0.033123 0.043371 0.116888 -0.216191 0.083681 0.117498 -0.226000 0.204009 0.127489 0.176895 -0.071747 -0.040097 0.029844 0.023323 0.133654 -0.033453 0.056860
 0.054691 -0.108859 -0.150179 0.201030 0.109063 0.036641 0.158535 -0.050447 0.177910 -0.178545 0.151861 0.213479 0.054935 -0.111032 -0.049473 -0.026551 -0.125324 -0.189909 -0.161050 -0.135431 -0.059272 0.100822 0.136462 -0.102927 -0.076248 0.153540 -0.148048 0.199702 -0.148307 0.171334
 -0.073548 0.054384 -0.078096 0.172917 -0.112327 0.176132 0.016210 -0.144865 -0.028654 -0.131101 -0.091779 -0.193079 0.094363 0.217194 0.221060 -0.102806 -0.006091 -0.073396 -0.064846 -0.046379 -0.161783 0.153899 0.084874 -0.112644 -0.108386 -0.061641 -0.192082 0.115656 -0.157770 -0.149357
 0.082775 -0.170146 -0.031999 0.007526 0.087399 -0.085674 0.045104 0.194632 -0.183486 -0.174099 0.125434 -0.153977 0.135513 -0.119327 0.090794 0.179476 -0.003260 -0.137164 -0.160730 -0.053100 0.112340 0.040359 -0.098497 -0.160291 0.055646 -0.157654 0.038144 0.184341 0.223374 -0.082796
 0.197552 0.154032 0.005658 0.001041 -0.058929 -0.205126 0.221888 0.032644 0.190414 0.052998 0.109591 -0.048635 0.081588 -0.021553 -0.092738 0.051227 0.076860 0.188565 -0.075710 0.107364 0.008524 0.200889 0.159858 -0.186127 0.178383 0.081735 0.187248 -0.142696 -0.087309 -0.055956
 -0.192490 0.022580 0.042220 -0.114124 0.049438 0.035367 -0.207488 0.213893 -0.044859 0.074502 0.209691 0.185267 -0.223418 -0.197696 -0.135659 0.057790 -0.205948 0.003458 0.032290 0.137496 0.060660 -0.029501 -0.060249 0.103948 0.068832 0.183515 0.163700 0.179052 0.194752 -0.026739
 0.192197 0.080847 -0.171424 -0.071532 0.090797 0.155067 0.006006 -0.201794 -0.117181 -0.044290 -0.211266 -0.031167 0.208404 -0.040300 -0.178936 0.220733 -0.056691 -0.051403 -0.095044 0.141454 0.039327 0.087567 -0.027865 0.164092 0.105114 0.107409 0.063264 0.170441 -0.068067 -0.101032
 0.013838 -0.150598 0.020592 0.075946 0.098878 -0.038467 0.079981 0.066811 0.066677 -0.023674 0.135169 0.010567 0.195586 -0.131110 -0.123130 -0.100456 0.127696 0.092501 0.183909 -0.080466 0.052749 -0.186826 0.164318 0.109656 -0.120929 -0.133510 0.054864 0.215190 -0.190018 0.002241
 0.156949 -0.054038 0.062799 -0.046717 0.151958 -0.011992 0.002086 0.205611 0.014898 0.048863 -0.093493 0.074613 0.193828 -0.032862 -0.202817 -0.007214 0.149194 0.148366 -0.141810 -0.006398 0.216405 -0.139385 -0.030502 0.220052 0.098743 0.025571 -0.117240 0.208727 0.114122 0.074994
 -0.145870 0.190407 0.050209 -0.237877 -0.166042 -0.171891 -0.112436 0.114633 0.130848 0.125965 0.194730 -0.191141 0.156649 -0.097056 0.048242 -0.058806 0.040277 0.006104 0.099877 0.110072 -0.135394 0.035384 -0.224498 0.195617 0.115985 0.073309 -0.057330 0.167617 -0.017729 -0.003111
 -0.003222 0.095049 -0.056983 0.112461 -0.105042 -0.003853 -0.084466 -0.055315 0.021270 0.194991 0.054880 0.122251 -0.047253 0.149298 0.150253 -0.194938 -0.179362 -0.050073 -0.082765 -0.152150 -0.031141 0.094773 -0.019791 -0.045034 -0.174598 0.028563 0.218310 -0.136556 0.021348 0.082382
 0.106207 0.182531 -0.139117 0.001317 0.068392 0.118231 0.038026 -0.086045 0.124412 0.005237 0.153600 0.005612 -0.081336 -0.177983 -0.170525 -0.088819 -0.202105 0.030480 -0.034182 -0.157387 -0.128180 0.148936 -0.109153 -0.166418 0.129333 -0.165408 -0.031565 0.079538 -0.011135 0.151081
 0.042957 0.170443 -0.115626 -0.184419 -0.109032 0.211360 0.208439 0.091964 0.191685 0.190904 0.121578 -0.137620 0.148625 0.033683 -0.073075 0.115991 -0.145191 0.084209 -0.220503 0.123945 0.124322 -0.039021 -0.223239 0.060676 -0.162861 -0.159114 0.204446 -0.202573 -0.136322 0.183121
 -0.020052 0.185292 0.117346 0.162974 0.238489 -0.014870 0.088775 0.168327 0.212773 0.155407 -0.069537 0.088162 -0.122213 -0.069039 0.011195 0.219746 -0.148406 -0.098448 -0.121644 -0.136807 0.123814 -0.090133 -0.127636 -0.011929 0.240267 0.080870 -0.047394 -0.018664 -0.203502 0.071531
 0.065036 -0.075670 -0.102155 0.201118 0.087272 -0.043458 -0.090622 0.010667 0.014598 0.145090 0.179017 -0.103986 0.066569 0.104383 -0.229037 -0.065843 0.131978 -0.043413 0.028408 0.031701 -0.019540 -0.069458 0.030600 0.116761 0.005172 -0.089400 0.045423 -0.081534 0.176405 0.104965
 -0.191866 0.211484 0.033950 0.013749 -0.067674 0.100264 -0.135095 0.131409 -0.161239 0.056289 0.201063 -0.141749 0.140463 -0.193212 0.209446 -0.124155 0.176374 0.145290 0.165783 -0.101040 -0.136324 0.050980 0.042099 0.172294 -0.097870 0.109536 0.080564 0.095997 0.050437 0.078948
 -0.035430 -0.199523 -0.026656 0.099807 0.102763 0.100409 0.023979 0.120491 -0.134246 -0.211551 -0.028380 -0.033821 -0.128210 0.157999 -0.232307 0.031064 -0.124816 0.188230 -0.126090 0.113821 0.092562 0.122780 -0.100358 -0.152152 0.105128 -0.285981 0.127513 0.092056 0.207813 0.177702
 -0.063209 0.070364 0.085354 0.110396 0.214232 0.211622 0.172784 -0.045208 0.149718 0.003440 0.011723 0.080389 -0.112747 0.037656 0.043641 0.039449 -0.100219 0.166938 -0.174571 0.117292 -0.018913 0.076530 0.037983 0.096608 -0.189177 0.005278 0.081809 0.088519 -0.046587 -0.071251
 0.197495 0.096700 -0.059252 0.107192 0.141207 0.015707 0.095036 -0.043799 -0.062922 -0.167495 0.018629 0.105703 0.144279 -0.220019 -0.210383 0.118033 0.129341 -0.037938 0.080776 0.050627 -0.187804 -0.072809 0.000554 -0.106721 0.023565 -0.016438 0.101695 -0.068291 -0.098255 0.126605
 -0.222145 -0.158030 0.038603 -0.213128 0.022640 0.056026 -0.059171 -0.110199 -0.208186 0.150324 0.061994 -0.062133 0.158767 0.190148 -0.048296 -0.098473 0.001713 -0.017502 0.099841 0.179891 0.194595 0.065043 0.091510 0.027543 -0.158031 -0.074468 0.067849 0.190161 -0.140482 -0.172628
 0.211330 -0.027694 0.150834 0.020388 0.053630 -0.064807 0.106427 -0.137414 0.069105 0.109675 -0.051009 0.053716 0.173508 0.076860 -0.081437 0.022833 -0.195215 0.156451 0.204478 -0.141450 -0.126857 0.015192 0.102386 -0.103501 0.201536 -0.094784 -0.124819 -0.181144 -0.182169 0.186152
 -0.180776 0.168286 0.021729 -0.188491 0.153537 0.111347 0.039201 -0.183401 0.036472 -0.191399 -0.026353 -0.107631 -0.206475 -0.056008 0.071552 -0.170080 -0.083727 0.124095 0.183050 0.023374 -0.122058 -0.192469 -0.098473 -0.222753 -0.049213 0.008232 0.157827 0.008445 -0.070700 0.050587
 -0.070661 0.135577 -0.173724 0.141222 0.100401 0.108296 -0.147596 0.080054 -0.056992 -0.073770 -0.160552 -0.019520 0.058036 0.081262 -0.093591 -0.067113 0.090759 -0.214754 -0.046158 -0.077386 0.012590 0.047769 -0.177049 0.011325 0.220915 -0.020001 0.112702 -0.025625 -0.172742 -0.196152
 -0.101132 -0.020948 -0.193379 -0.111582 -0.011156 0.097398 -0.123412 0.161036 -0.214583 -0.037410 0.095857 -0.045780 -0.132719 -0.154526 0.185856 0.200991 0.045901 0.007277 0.074767 0.155520 0.171667 -0.149240 0.090220 -0.169245 -0.116500 -0.147366 0.060110 -0.161313 -0.101062 0.002459
 -0.208895 0.058996 0.173190 -0.121019 0.059457 0.006662 0.081955 0.167021 -0.114102 -0.082388 -0.050207 -0.173017 0.172883 0.038097 -0.009192 0.153436 -0.207290 -0.107060 0.049273 -0.002597 0.141476 -0.064049 0.136608 0.157836 -0.042203 -0.009614 0.225542 0.070936 0.207488 0.105972
 -0.101294 0.182695 -0.059418 -0.159511 0.079502 -0.166165 -0.203155 -0.209785 0.144975 0.159071 -0.090230 0.201904 0.017247 0.026157 -0.062090 0.054222 0.196941 0.053100 0.016101 -0.118093 0.163161 0.188247 -0.206821 0.038488 -0.145517 0.074062 0.017509 0.056695 -0.006730 -0.209286
 -0.079210 -0.043276 0.071450 -0.024374 -0.135574 -0.092355 0.145343 -0.047692 0.031524 0.064440 -0.212961 -0.196540 -0.078469 -0.004552 -0.052335 -0.148154 0.026064 0.034101 0.110579 0.169332 0.162515 0.046331 -0.194685 0.016187 0.119686 0.058868 -0.153806 0.087828 -0.196968 0.145607
 -0.135462 0.252842 -0.030762 -0.165771 0.141723 -0.150925 -0.147892 -0.097054 0.013136 0.140356 -0.182306 -0.162984 0.137996 -0.149599 0.159449 0.110594 0.226958 0.041623 -0.171391 0.144827 -0.192775 -0.112337 -0.030516 0.074992 0.002051 0.167620 -0.110170 0.250930 -0.094546 -0.039343
 -0.148891 0.197519 -0.172313 0.191503 0.227860 0.019113 -0.075027 0.219447 0.023331 0.195745 -0.065523 -0.209901 -0.016170 -0.092005 0.178524 0.057557 -0.158889 0.183566 -0.087948 -0.071972 -0.045139 0.197726 0.078689 0.149555 -0.042583 0.020424 0.057281 0.226729 0.062621 0.066381
 0.103603 -0.160377 -0.121869 -0.139746 -0.118096 -0.075824 0.035793 0.095161 0.186402 0.012643 0.124095 -0.105810 -0.044991 0.168365 0.214559 -0.117491 0.017577 -0.013745 -0.103596 0.071550 -0.084472 -0.220034 0.199602 0.074867 -0.190083 0.028711 0.060928 0.155762 0.026558 0.138838
 -0.082204 -0.163964 0.032126 -0.212760 -0.018451 -0.169026 -0.211904 -0.103700 -0.211010 0.207450 -0.063322 -0.212423 -0.004720 0.035754 0.075817 -0.037758 0.003233 -0.081026 0.023878 0.154272 0.075748 0.131318 0.189097 -0.085938 0.072064 -0.079594 0.024760 -0.170750 -0.065704 0.025541
 0.197873 0.260500 0.001264 0.134072 0.197806 0.020347 0.066250 -0.013166 -0.182069 0.000954 -0.064962 -0.078728 0.196382 0.207949 0.057345 -0.022415 0.154088 -0.084512 -0.031245 0.119724 -0.083793 0.078490 0.041259 -0.021209 0.026302 0.263133 0.104707 -0.170169 -0.064160 -0.081356
 -0.152467 0.126548 -0.157699 -0.076863 0.145347 0.025040 -0.069386 -0.032217 0.166785 -0.164784 0.026773 0.103735 -0.074179 -0.155780 -0.038903 0.093031 -0.095140 0.177166 -0.073177 -0.059243 -0.221421 -0.182360 -0.026581 -0.145412 0.132094 0.171268 -0.092586 0.071561 0.171090 0.184820
 0.124104 -0.033257 0.114032 0.195031 0.138837 -0.192336 -0.044521 -0.014382 -0.195768 -0.148913 0.230594 -0.059011 0.077925 0.188924 -0.011526 0.190437 0.070026 0.086235 -0.089805 0.055841 -0.164063 -0.065632 0.009489 -0.150216 -0.084362 0.117639 0.029762 -0.100001 0.002615 -0.114263
 -0.059569 -0.156941 -0.215255 -0.137039 -0.116957 -0.038201 0.199553 -0.101774 -0.076180 -0.061061 -0.155616 0.078413 -0.055199 0.113166 -0.169496 0.032170 -0.082891 0.229018 -0.073282 0.074614 0.116455 0.004375 -0.081761 0.123927 -0.143620 -0.119751 0.152925 0.074851 0.207241 -0.160522
 -0.180638 -0.122660 0.009407 -0.075976 -0.168253 0.151448 -0.222194 -0.097722 0.085740 -0.016746 0.046960 -0.120633 -0.160899 -0.174860 -0.152061 -0.193457 0.041288 0.193304 0.103749 0.067153 0.195344 -0.167178 0.030328 -0.191404 0.064188 -0.113924 -0.122440 0.176780 -0.135659 0.109494
 0.029084 0.000035 0.029573 -0.093827 0.099966 -0.012092 -0.065070 0.118063 0.077974 -0.090023 0.046404 0.115799 0.041324 0.117122 -0.024299 -0.052483 0.010531 -0.108054 0.093674 0.018077 0.059668 -0.014245 -0.066943 -0.084380 0.064962 0.092695 0.071560 -0.110121 0.027811 -0.101771 -0.126132 -0.133070 0.035719 0.095933 0.157807 0.158462 0.016955 -0.097807 -0.073506 0.011112 0.113316 0.006935 0.110119 -0.092795 -0.143542 0.108236 0.146509 0.017617 -0.087375 -0.081846 0.064564 0.096796 -0.109661 -0.122258 0.107369 0.086842 -0.045718 0.109683 0.058664 0.005405 -0.041589 0.146223 -0.108402 0.170633 0.120165 -0.009955 0.046721 -0.098454 0.085913 -0.064785 0.015397 0.054959 0.141460 0.003059 0.010687 -0.028535 -0.085738 -0.096126 0.037390 0.086367 -0.109225 0.056875 -0.007095 -0.028043 0.024099 -0.073215 -0.092492 -0.092503 -0.052104 0.147984
 0.047568 -0.054319 -0.106077 -0.133822 0.118311 0.073915 0.144673 -0.029803 0.024448 0.056789 0.071550 -0.141833 0.050780 0.079499 -0.049095 0.133649 -0.066128 0.078486 -0.128467 0.021712 -0.127057 -0.076432 -0.098440 0.118654 0.096326 -0.143577 0.087161 -0.090877 -0.116419 -0.026873 0.107479 0.130789 0.044055 0.083958 0.074032 0.082012 -0.138302 -0.139941 0.137289 -0.069609 -0.091783 0.127824 -0.085156 -0.019256 -0.022289 0.050215 0.135228 -0.145162 -0.010589 -0.076565 0.062071 -0.007079 -0.026714 0.066225 0.043916 -0.161762 -0.029096 -0.113796 0.064696 -0.080735 0.070958 -0.120270 -0.138880 0.109792 -0.074955 -0.006287 0.028604 -0.039770 0.102130 -0.155406 0.078887 -0.106759 0.010191 0.142217 0.092026 0.101695 -0.138667 0.131974 -0.128588 0.077141 -0.136095 0.076891 -0.147815 0.041896 0.077517 -0.098766 -0.096815 -0.013234 -0.057679 0.089759
 -0.019172 0.068805 -0.028230 -0.082007 0.064370 0.021142 -0.095234 -0.123438 0.113994 -0.057641 0.121994 0.008790 0.090485 0.078265 -0.090920 -0.113827 -0.041717 0.072340 -0.034695 -0.065083 -0.071817 -0.013399 -0.067642 0.060323 0.052158 -0.127097 0.087740 -0.024476 0.142824 -0.005745 0.146221 -0.021767 -0.158803 0.116987 -0.093554 0.142945 -0.111136 -0.069301 -0.105349 -0.009480 -0.052248 -0.042151 -0.138975 0.073052 -0.088016 0.161283 -0.113614 0.045542 0.083334 0.006488 0.032596 0.000192 0.110246 -0.069826 0.070071 0.106733 0.059216 0.015277 0.050304 0.139807 -0.091320 0.074929 -0.033350 0.021399 0.045323 0.094112 -0.111887 -0.120847 0.011508 0.072059 0.004405 -0.050380 0.122032 0.144302 0.043204 -0.018395 0.116367 0.001247 -0.012112 -0.021140 0.009353 0.174969 0.067987 -0.138907 -0.057365 -0.067955 0.124202 0.110308 0.066061 -0.051902
 0.124839 0.095049 -0.118018 0.020217 -0.000514 0.005538 -0.078836 0.081526 0.020941 0.000465 0.136396 -0.073364 -0.052658 0.027043 -0.270460 0.063988 -0.000426 0.025737 -0.140238 -0.134915 -0.097625 0.159579 0.125849 -0.082534 -0.027184 -0.077625 0.011146 0.000391 0.037472 -0.135489 -0.065128 0.047174 0.137398 0.074697 0.008138 -0.041536 -0.128772 0.011003 0.128276 -0.102698 -0.013710 -0.070155 -0.011343 0.061063 0.135654 0.092171 -0.104176 0.178901 0.049157 0.015985 0.056611 0.047599 0.131396 0.026493 -0.104267 0.094890 -0.064048 0.041823 -0.042309 0.085261 0.169574 -0.031941 -0.100934 -0.040475 -0.063867 -0.050270 -0.009181 0.111034 0.012759 -0.062765 -0.123559 0.008605 0.003421 -0.013309 0.135487 -0.057096 -0.138416 -0.001526 0.142541 0.179161 -0.029984 0.050768 -0.018127 -0.145725 0.195619 0.066138 -0.044975 0.078500 0.082671 -0.076961
 -0.069477 -0.023745 -0.142092 0.006507 -0.047783 0.099482 -0.136784 0.035663 -0.045597 -0.083274 -0.103470 -0.114994 -0.080077 0.051433 0.010196 0.140917 -0.038149 -0.060346 0.079356 -0.087413 0.050457 0.116375 0.135590 0.075202 0.063409 -0.046448 -0.079404 0.076222 -0.045353 -0.146543 0.043028 0.032820 -0.245083 0.088506 -0.035259 0.037975 0.062366 0.072378 0.041634 0.062708 0.091058 0.169682 0.002098 0.011659 0.016932 0.088570 0.020851 -0.142655 -0.053916 -0.067035 -0.139059 -0.022008 -0.098697 0.014182 0.056050 -0.013251 0.003150 0.143074 0.055826 0.020573 0.124563 0.098909 0.100150 0.144002 -0.085867 0.030567 -0.031727 0.046786 0.081517 -0.121406 0.075504 0.037695 0.024467 0.057007 -0.048764 0.057998 0.030671 0.018478 -0.034073 0.076379 0.142875 -0.046866 -0.075389 -0.101358 -0.029689 -0.158405 -0.126531 0.039947 0.180754 -0.003361
 -0.120465 -0.092080 -0.044035 -0.082186 -0.005444 -0.008396 -0.059227 -0.082205 -0.037270 0.011143 0.108016 0.096647 0.069717 -0.007178 0.132772 0.087993 0.006998 -0.085939 -0.012046 -0.005550 0.110571 0.051320 -0.039885 0.034721 0.003390 -0.069291 0.144851 -0.046409 -0.172154 -0.058031 -0.107903 -0.069776 -0.030914 -0.089683 -0.039619 -0.033514 -0.068225 -0.088757 0.128150 -0.126247 -0.156761 -0.004718 0.147363 0.006934 -0.136603 0.119210 -0.118219 -0.137881 0.042745 -0.129540 -0.047315 0.118569 -0.088912 0.043129 0.003838 0.023815 -0.079851 -0.094659 -0.045782 0.051543 0.068531 0.030966 -0.007247 -0.122789 -0.054618 -0.016802 -0.119309 -0.131681 -0.033360 -0.133873 0.092697 -0.016892 0.075084 -0.019443 -0.085934 -0.117485 0.070713 0.031387 -0.059464 -0.068735 0.145650 0.063329 -0.007894 -0.107630 -0.182264 -0.182252 0.057382 -0.030727 -0.032076 -0.037623
 0.127506 -0.095300 -0.117906 0.133032 0.022353 -0.066336 0.113860 0.148774 0.110789 -0.079656 -0.052005 0.121859 0.122246 -0.142422 -0.115105 -0.117867 -0.111448 0.148465 0.126300 0.004006 -0.135231 -0.061355 0.071231 0.118089 -0.093569 -0.098147 -0.081628 0.051020 0.068706 -0.108096 -0.127023 0.087866 -0.157508 -0.116693 0.037114 0.118393 -0.108520 0.128211 -0.024120 0.134524 0.090817 -0.086244 -0.008000 -0.028647 -0.031785 0.179742 -0.129890 -0.055527 0.046144 -0.031362 -0.075437 0.139175 -0.005896 -0.027570 -0.043567 0.056742 0.079143 -0.103650 0.151236 -0.003205 -0.033436 0.005813 0.052796 -0.094818 0.051702 0.115457 -0.065880 -0.135098 0.162143 0.063892 -0.059527 -0.086368 -0.043951 0.076081 0.058079 -0.134869 0.122475 -0.049302 0.163359 -0.094229 -0.080253 -0.008121 0.115167 0.134588 -0.011455 0.024658 0.069920 0.042688 -0.124368 -0.078420
 -0.073916 -0.122926 0.091536 0.093889 0.007450 -0.021418 0.009897 -0.051474 -0.065648 0.114252 -0.091651 -0.091076 -0.020016 -0.147743 -0.213208 0.039011 0.113034 0.021032 -0.036648 0.013174 -0.028208 -0.128314 -0.039908 -0.131187 -0.086668 0.086205 -0.094250 -0.021025 0.015769 0.012878 -0.156876 0.008393 -0.087104 -0.067084 0.079003 0.090372 -0.139745 -0.128957 -0.117783 0.038606 0.153134 0.061334 0.088845 0.042669 -0.104449 0.048085 0.045523 -0.032659 0.126095 -0.062126 0.008636 0.006901 -0.015537 -0.036480 0.037693 -0.038991 0.101688 -0.032404 -0.113630 0.136534 0.033140 0.105144 0.065387 -0.101149 0.027013 -0.112693 0.032884 -0.103097 -0.011393 -0.056837 -0.072712 0.098457 -0.013273 0.036721 -0.141926 0.033883 -0.031390 0.079484 0.045117 -0.124809 0.122879 0.024272 -0.058754 -0.080569 0.077098 -0.013292 0.062838 -0.125318 -0.114396 -0.029500
 0.020066 -0.009953 0.099232 0.001406 0.176362 -0.105334 0.019542 0.119280 0.143938 -0.109235 -0.054164 -0.002149 -0.032228 0.081055 -0.153704 0.144824 0.088398 0.090081 -0.059376 0.117602 0.077023 -0.008280 0.053197 0.042918 -0.029540 -0.086203 -0.114967 -0.059876 0.131173 -0.028256 -0.022482 -0.071341 -0.046863 0.097443 -0.136597 -0.053688 -0.121094 -0.053540 -0.046547 0.011160 0.046014 0.027656 0.008222 -0.066588 0.050546 -0.047084 -0.076260 -0.086025 0.061313 -0.035181 0.095431 -0.034773 0.055162 0.083518 0.154614 -0.066416 0.028006 -0.123755 -0.107530 0.141633 0.047861 0.016568 0.004338 0.054808 0.145230 0.085382 0.097549 0.026821 -0.071126 0.137681 0.169966 0.156340 -0.042537 -0.047619 -0.051092 -0.065302 0.000666 -0.066971 0.065983 -0.029776 -0.064088 0.133807 0.137182 0.104792 0.128709 -0.014982 0.103399 0.019853 0.139685 0.033029
 -0.108917 0.031569 -0.145319 0.119381 -0.032729 0.021951 0.023976 -0.050617 -0.022737 0.139212 0.107468 0.020942 0.114408 -0.125723 -0.122162 0.011275 0.086782 -0.154799 0.104967 0.071770 -0.001082 0.060224 -0.105812 0.000497 -0.032439 0.119270 0.123553 0.045645 0.006946 0.011565 -0.054584 -0.072337 0.078481 -0.113408 -0.113428 0.056893 0.153803 -0.038007 -0.092906 0.025948 0.097973 -0.050327 0.064082 0.151947 -0.043983 0.035665 0.128819 -0.036416 0.014939 -0.035508 -0.082628 0.026263 0.117809 -0.026117 0.075452 0.117407 0.051544 -0.128740 0.010171 0.035443 0.169369 -0.148823 0.083520 0.003239 0.006504 -0.114642 0.013642 -0.100415 0.003700 0.017553 -0.038916 -0.028773 0.159687 0.028235 0.148977 -0.107392 -0.043365 -0.022247 -0.081051 -0.042045 0.017584 0.008974 0.000950 0.120370 0.036596 -0.037856 -0.015966 -0.023570 -0.126959 -0.123685
 0.129032 0.022817 0.088015 -0.058173 -0.104079 0.018321 0.083020 0.108369 -0.085689 0.084392 -0.083082 -0.047902 -0.128394 0.137696 0.001077 0.036722 -0.039090 0.036557 0.027630 -0.024682 -0.033408 0.045627 0.119419 0.153667 -0.025214 -0.014349 0.113671 -0.133772 0.000025 -0.050145 0.083394 0.028340 -0.060419 -0.000520 0.140956 0.129947 0.038012 0.004844 -0.144625 -0.044550 0.037250 -0.012306 0.050501 0.016597 0.033784 0.031595 0.079378 -0.132124 -0.048261 0.149276 -0.059133 -0.067941 0.059244 0.073877 -0.109243 0.064882 0.098392 0.176699 -0.089746 -0.114914 0.063990 0.037481 0.036629 0.028884 0.093157 -0.069577 -0.106554 -0.050024 0.136019 -0.001646 0.097133 0.037059 0.107194 0.155471 -0.118306 0.036204 -0.005972 -0.012783 0.115330 0.100478 -0.072333 -0.097780 -0.090120 0.023676 -0.124301 0.035105 -0.104061 -0.086718 0.143077 -0.082029
 0.008063 0.155261 -0.082910 0.053588 -0.116011 -0.108810 -0.126109 0.005352 -0.031285 0.064401 0.067374 0.124206 -0.087981 0.042669 -0.008162 -0.073238 0.089827 0.098614 0.065190 -0.107792 0.058819 0.071847 0.130764 0.078088 -0.132546 -0.063995 -0.126451 0.102961 0.002000 -0.054337 -0.055322 -0.077547 0.004788 0.125261 0.019395 -0.025040 -0.017414 -0.026130 -0.086245 -0.032862 -0.116972 0.104522 0.006162 0.010825 -0.041936 0.136486 -0.135603 -0.129260 0.065466 -0.060092 0.107383 -0.112029 -0.021028 -0.146218 -0.094307 0.073218 -0.083422 0.151402 -0.059429 -0.102464 -0.095069 0.068229 0.111857 -0.107404 0.073781 -0.049115 0.015542 -0.045762 -0.007167 -0.097949 -0.014133 0.062373 0.164989 0.034924 -0.034126 0.037585 0.110155 -0.120395 0.164601 -0.041417 0.125399 0.064904 0.023191 -0.027986 -0.012661 -0.124007 -0.027857 0.159746 0.100357 0.027729
 0.047451 0.154870 -0.012003 -0.100964 -0.019890 -0.137089 -0.148376 0.025626 -0.009609 -0.057906 0.065403 -0.079948 0.169607 0.148258 0.184048 0.072629 -0.089930 0.024457 0.004748 0.152523 -0.020314 -0.098441 -0.016091 -0.080292 -0.020973 0.066408 -0.085998 -0.108689 0.037612 -0.039722 0.149737 0.002134 0.001675 0.068423 -0.037630 0.011542 -0.019544 -0.080832 0.096523 0.093221 0.034236 -0.044441 0.054988 0.129342 0.067785 -0.077763 -0.079832 -0.076675 -0.007114 0.056462 0.147406 0.118262 0.079193 0.128429 -0.074356 0.019103 0.088838 0.009426 0.006761 0.046643 -0.017870 -0.083408 0.102622 0.061875 -0.069044 0.059104 -0.130663 -0.022606 0.020194 0.122690 -0.044061 -0.015043 0.159499 -0.077326 -0.153043 -0.048073 0.033443 0.064237 0.149450 -0.027391 -0.022229 0.095801 0.150094 -0.022484 -0.049934 0.079716 0.006011 0.147217 -0.067442 0.055538
 -0.024705 0.068812 -0.136948 -0.075794 -0.051018 0.005096 0.033384 0.107400 0.134319 0.062291 -0.045703 0.058223 0.064945 -0.058055 -0.091379 -0.125021 0.029967 -0.059605 -0.141113 0.030927 -0.161289 -0.069844 -0.111596 0.071912 -0.108388 -0.112027 -0.089585 0.128236 -0.173609 -0.079229 -0.123365 0.049240 0.054951 -0.046164 -0.051351 0.039668 0.054901 -0.132402 -0.133190 -0.007662 0.065990 0.000537 -0.047504 0.040717 -0.172254 -0.032741 0.089637 -0.072258 -0.157876 0.080914 -0.011751 -0.164211 0.041682 -0.037006 -0.052964 -0.031561 -0.023684 -0.135979 0.041766 -0.008120 -0.054659 0.090384 -0.022510 -0.059235 0.085887 -0.120088 0.006489 0.033303 0.054281 -0.056630 -0.021874 0.072394 0.143103 -0.018881 0.133554 -0.029148 -0.079461 -0.047545 0.047387 0.085951 -0.032386 0.154329 0.050256 0.098672 0.069076 0.045615 -0.135889 0.005484 0.033311 0.069742
 -0.012305 -0.101789 0.024177 -0.116753 -0.037942 -0.119427 0.120220 -0.110257 0.118155 0.115016 0.145917 -0.021057 -0.071076 0.048621 0.123343 0.037140 -0.007272 -0.001000 -0.012232 0.035208 0.094652 0.135279 -0.008074 0.065868 0.142033 0.116429 0.100757 0.065941 -0.046114 0.043814 -0.000701 -0.108147 -0.085736 0.053864 -0.007809 0.003807 0.015072 0.106423 0.067728 0.073350 0.062738 0.100140 0.130732 -0.051812 0.111785 0.132754 0.055349 0.123254 0.049696 0.004871 -0.070034 -0.013244 0.065087 -0.004227 0.146254 0.102940 0.144267 -0.116803 0.037564 -0.115052 0.156857 0.059083 0.110219 0.010339 0.128645 -0.069372 -0.111615 -0.017854 -0.016965 0.001986 0.116666 0.065819 0.081534 0.153995 0.049447 0.098567 -0.009441 0.050916 -0.074051 -0.028188 0.114584 -0.031152 -0.057406 -0.080278 -0.005106 0.165373 0.004601 0.022825 -0.103771 0.087782
 -0.087023 -0.077317 -0.039282 0.140708 0.124658 -0.131528 0.050647 0.069407 0.033143 0.049892 0.023869 0.094181 -0.070725 -0.134946 -0.165737 0.143142 -0.080315 -0.020037 -0.115590 -0.157387 -0.084520 0.020009 0.128631 0.002812 -0.079794 0.040056 -0.143020 0.110391 0.041083 -0.001940 0.014788 0.015441 0.098054 0.039320 0.058558 -0.038904 0.113319 0.107530 0.104338 -0.020368 0.086079 0.121666 -0.037237 0.130751 -0.083304 0.064514 0.050730 -0.137623 0.041976 0.010701 0.061557 0.048201 0.002536 -0.075171 0.121556 0.063339 -0.059031 -0.101833 0.015150 -0.015122 0.041591 0.017025 0.069625 0.068538 -0.035496 0.040843 0.095504 0.090067 -0.152450 0.034073 -0.069926 0.038419 -0.124507 -0.012042 -0.000175 0.107205 0.059121 0.079063 0.147054 -0.106145 0.034420 0.064019 0.069389 -0.058455 0.067935 0.117113 -0.068219 -0.015252 -0.209728 0.026261
 0.074976 -0.089876 -0.079148 0.058264 0.046868 -0.087174 0.039541 -0.061203 0.087021 0.003677 0.017719 0.000651 -0.078928 -0.076238 0.057598 0.096479 -0.003488 0.036553 -0.012101 0.139077 -0.031176 0.157668 -0.050293 -0.040459 -0.021617 0.083718 0.124412 -0.106525 -0.079423 0.019656 0.066346 0.068786 -0.043428 -0.058784 0.093127 -0.009283 -0.125097 -0.051049 -0.069149 0.007813 -0.022473 0.159115 0.185264 -0.011219 -0.000877 0.141195 0.148767 -0.036886 -0.159067 -0.017386 -0.113908 -0.019442 -0.056860 0.089585 -0.054158 0.026606 -0.030629 -0.064361 0.023192 0.115819 -0.063523 -0.037568 0.177672 0.128669 -0.024184 -0.022133 0.116716 -0.148479 0.016379 -0.092603 -0.069792 0.012133 0.040220 -0.003842 -0.145035 0.059739 0.098309 0.025260 0.147558 0.037804 0.114426 0.125219 -0.090854 -0.026159 -0.045936 0.117671 -0.017574 0.192342 0.093671 -0.139819
 0.143609 0.023573 0.042384 0.109876 0.108696 -0.094872 -0.104119 0.079283 0.148553 -0.079897 -0.136446 0.006976 -0.089018 0.041363 0.160727 -0.033436 0.071347 0.104096 -0.100165 0.081402 -0.157917 -0.126224 -0.024320 0.064392 0.048655 -0.080150 -0.039560 -0.099442 -0.140900 -0.088280 0.064905 0.064126 -0.069603 0.024370 -0.109168 -0.102814 -0.090905 -0.122795 0.081653 0.119900 0.070178 0.087334 0.147482 -0.182063 -0.092109 0.153994 -0.112514 -0.066873 -0.039240 0.080107 -0.090982 -0.062149 -0.137448 0.142436 -0.072176 -0.051118 -0.119304 0.087028 -0.010897 -0.007597 0.044188 0.133793 0.040892 -0.074613 -0.024118 0.094944 -0.057596 -0.126906 0.066763 -0.088715 -0.125991 0.014158 -0.108380 -0.116242 0.058967 0.106750 -0.048240 -0.026767 0.017590 0.051262 -0.137927 0.033142 0.116672 -0.001513 -0.007181 -0.074304 -0.113802 -0.053897 0.019152 -0.053286
 -0.018498 0.166738 0.144328 0.120029 0.036647 0.053308 -0.014176 0.132641 0.142973 -0.016373 -0.096573 0.171514 -0.100090 -0.015326 -0.074604 -0.075514 0.060666 0.065451 0.123573 -0.001835 -0.063412 0.115439 0.014480 -0.098112 -0.033806 -0.072786 0.073504 -0.075148 0.032593 -0.073975 0.049331 0.030900 0.068699 -0.055591 -0.101732 0.059687 -0.034981 -0.099304 -0.014584 -0.057026 0.043199 0.044664 0.042643 -0.094427 -0.036810 -0.048766 0.029617 -0.122212 -0.081473 -0.111560 -0.131127 0.058318 0.069552 -0.104230 0.169781 0.110416 0.028215 -0.084453 -0.057031 -0.099438 -0.090434 0.067538 -0.003753 -0.104634 -0.040501 0.021183 -0.142338 -0.061463 0.039107 -0.062524 0.034057 0.178201 -0.071777 0.181969 0.137450 0.089485 0.004833 -0.046190 0.065972 -0.110457 0.097157 -0.047365 0.113395 0.012158 -0.027506 0.122509 0.068491 0.021179 0.158552 -0.031051
 -0.036505 0.115116 0.146091 -0.099690 -0.014329 -0.134126 -0.037113 -0.054798 0.074333 0.104866 0.134593 0.133851 -0.059331 -0.119569 -0.053867 0.109832 -0.082644 0.127174 -0.048377 0.079746 -0.098801 0.156720 -0.040962 0.024350 -0.096958 0.063526 -0.060623 -0.101926 -0.175736 -0.094475 -0.104614 0.114563 0.037563 -0.062650 0.090862 -0.077085 0.116650 0.099587 0.006291 -0.111151 0.140637 -0.064960 0.111252 0.124869 0.000517 0.093595 -0.048428 -0.198924 0.026164 -0.076981 -0.128120 -0.140154 0.139238 -0.062730 0.039523 -0.105129 0.125003 -0.035995 0.113394 -0.076672 -0.067648 0.003528 0.069254 0.096616 0.141186 -0.020728 0.119707 -0.220366 -0.099255 -0.105810 -0.111644 -0.014385 0.088878 -0.027151 -0.103243 0.037327 -0.135252 0.069448 -0.050880 -0.097725 -0.113884 0.182590 0.010161 -0.004153 0.180500 -0.078872 0.072643 -0.113777 0.013773 -0.021511
 -0.137933 0.064483 -0.130087 -0.011331 0.105524 -0.130835 -0.025507 -0.037242 0.132417 0.024022 0.015376 0.044762 -0.097600 0.103291 0.104193 0.071148 -0.125764 0.007454 -0.032611 -0.005178 -0.109886 0.110597 0.056421 0.172671 0.087834 0.173508 0.104645 -0.037695 0.066646 -0.142589 -0.080868 0.051244 -0.013124 0.067172 0.011059 0.141751 0.044422 -0.103864 0.029312 -0.075564 0.105299 0.103733 -0.003856 0.058921 0.055357 -0.043539 -0.148879 0.027980 -0.110637 0.053721 0.129727 0.067168 0.020205 0.040504 0.139868 -0.030039 0.057446 -0.087394 -0.117386 0.171346 0.177744 -0.033163 0.089702 -0.075193 -0.038160 0.033283 0.094334 -0.106621 0.019813 0.063909 0.029921 -0.091825 -0.108617 0.033758 -0.100047 -0.033946 -0.112532 0.129324 -0.070944 0.111071 -0.054865 -0.074866 0.087363 0.020424 -0.057105 -0.094979 -0.008434 -0.103638 -0.091821 0.088208
 -0.086700 -0.009203 0.117419 -0.032184 0.071689 -0.128414 -0.092021 0.016605 -0.096115 0.023234 0.087797 0.049912 -0.006806 0.066458 -0.097517 -0.127050 0.069863 -0.012227 0.011026 0.088499 0.012096 -0.082284 0.038727 0.018621 -0.015979 0.094650 0.043001 -0.124626 0.132176 0.088143 0.041080 0.021874 -0.010609 -0.076898 -0.020980 0.036145 0.158909 0.077264 -0.125364 -0.122777 -0.096396 -0.113809 -0.190159 0.138596 -0.077983 -0.156963 -0.124988 0.031697 0.140041 -0.129557 -0.029726 0.056332 -0.087326 0.005186 -0.129306 0.005584 0.111792 -0.225972 -0.028990 -0.028878 0.132384 -0.001091 0.115657 -0.035218 0.060869 -0.033190 0.001678 -0.058629 0.024772 0.037338 -0.158869 0.042273 0.067654 0.126111 -0.090213 -0.019326 0.048949 0.019884 -0.005674 0.048652 0.070526 0.029712 0.053845 -0.119646 -0.067962 -0.052222 -0.006356 0.065154 0.017443 -0.134590
 -0.080001 -0.028904 0.126873 -0.027805 -0.116609 -0.076706 -0.038792 -0.072005 -0.017360 -0.053033 -0.074877 -0.104894 0.077615 0.042172 -0.215468 -0.064643 -0.133713 0.154287 -0.033150 -0.023504 -0.068855 0.041056 -0.052732 0.029313 -0.051353 0.062997 0.032638 0.077805 -0.211364 0.124005 0.108353 -0.031471 -0.088493 0.017017 0.003288 -0.100222 0.035080 -0.036886 -0.121826 -0.033523 0.076827 0.043631 0.114044 -0.012260 -0.020967 -0.042824 -0.137681 -0.015359 0.049746 -0.067120 -0.115336 0.046378 -0.066967 0.125591 -0.038776 0.138382 -0.099295 0.181218 0.087649 -0.024876 -0.084993 0.144545 -0.059433 -0.101458 -0.037872 0.014636 -0.025797 -0.037472 -0.001297 0.114282 0.002775 -0.031957 -0.057927 0.036921 0.118532 0.001733 0.028796 -0.018858 0.063252 0.024219 -0.126952 0.199828 0.026528 -0.112115 -0.020628 0.033582 -0.085621 0.019965 0.181624 0.132656
 -0.140248 0.037696 -0.141487 0.033815 -0.040414 0.096652 -0.060176 -0.015447 -0.114506 -0.125505 0.120203 0.073333 -0.000325 -0.111578 -0.064597 0.014985 0.009760 0.035716 0.049160 -0.135529 0.045891 0.073578 -0.003102 -0.088417 -0.059777 0.071074 0.110403 0.124981 -0.092624 -0.035475 -0.136722 -0.120673 0.053964 -0.100897 -0.079750 0.086430 -0.141619 -0.128024 -0.111422 0.007854 0.068326 -0.048150 -0.134030 -0.052555 -0.106613 0.083627 0.045553 -0.190463 -0.095753 0.052810 -0.112553 -0.051436 0.076660 0.130507 -0.050902 0.006858 0.011498 -0.081781 -0.113102 0.101354 -0.051996 -0.009014 -0.065859 -0.149519 0.136581 0.086432 0.115895 0.055813 -0.025317 0.080962 0.102660 0.064097 -0.072455 -0.047404 -0.136700 0.101680 -0.138449 0.033438 -0.043535 -0.035726 -0.042371 -0.023134 -0.036233 -0.048011 -0.186012 -0.131563 0.092031 0.004041 0.089467 -0.021332
 0.085189 0.082498 0.034379 -0.142033 0.153158 0.055205 0.071003 0.135561 -0.004548 0.144430 0.026465 0.152604 0.001116 -0.114842 0.023023 -0.082293 -0.052829 -0.016149 0.102875 0.113277 0.086111 0.030178 -0.068502 0.029450 -0.101936 0.041705 0.112938 -0.048323 -0.122387 0.127857 -0.067481 -0.117202 0.051523 0.114144 -0.006660 -0.113035 -0.111019 -0.103674 -0.050038 -0.128248 0.017993 -0.113255 0.018279 0.057905 -0.114398 0.033283 -0.029663 0.019699 -0.100345 -0.058173 0.101773 0.133207 0.024834 -0.057249 -0.117634 0.005759 -0.019632 0.097821 0.029209 0.020171 0.031624 0.008740 -0.005269 0.138047 0.060954 -0.043330 0.135944 -0.185565 0.074520 0.125307 0.060813 -0.041510 0.117964 0.097939 0.131498 0.058202 0.105229 -0.125758 -0.104761 -0.014801 -0.097699 0.040076 0.119610 0.081315 0.116476 0.099129 0.017851 -0.097075 0.026707 0.121684
 -0.101114 -0.130547 0.112222 -0.083736 0.081629 0.139690 0.144982 -0.119153 -0.062106 0.072738 0.027051 -0.099110 0.026120 -0.085962 -0.113863 -0.077864 0.064319 0.116705 0.125180 -0.060543 -0.186745 -0.112798 0.033102 -0.031493 0.024544 -0.102761 -0.042345 -0.104908 -0.086515 -0.034673 -0.124956 -0.007874 0.034933 -0.057172 0.009610 0.031947 -0.011133 0.152414 0.026844 0.019965 0.102750 0.087311 0.099038 0.107678 0.009201 0.115093 0.094995 -0.041208 0.158298 -0.018581 0.065013 -0.052373 0.071544 0.125881 -0.067037 0.105391 -0.100727 -0.125251 -0.094094 0.030819 -0.040212 -0.125717 -0.034163 -0.026446 -0.098978 -0.022602 0.091965 0.133364 -0.172499 -0.083494 -0.067277 0.007985 0.058469 0.115167 0.020153 -0.128965 0.139062 -0.018787 0.184712 0.148838 0.031343 0.049108 -0.102354 -0.112846 -0.077193 -0.010986 -0.133675 -0.165880 -0.037615 -0.141181
 -0.117041 0.031962 -0.137258 0.141098 0.014078 -0.008562 -0.107772 0.099853 -0.060539 -0.123872 0.041434 -0.120921 0.105179 0.008090 -0.174137 -0.021315 0.087266 0.148155 0.019709 0.079249 0.155255 -0.040793 0.163317 -0.027457 -0.079378 0.033353 -0.100784 -0.131155 -0.108085 -0.033515 0.026403 0.085625 -0.013565 -0.059276 0.040059 0.123856 0.075139 -0.099953 -0.098249 0.053635 -0.020447 0.045332 -0.000592 -0.087145 0.022198 0.162123 -0.081646 -0.068270 0.126491 -0.102547 0.116783 0.093617 -0.068538 -0.037454 0.135580 -0.032589 0.051011 0.039453 0.066787 0.166507 -0.085419 -0.002543 -0.092266 0.117943 0.045894 -0.011536 -0.008102 -0.096325 0.049176 0.092322 -0.058182 -0.097541 0.166049 0.045478 0.076368 0.054344 -0.142771 -0.023298 0.093616 -0.121362 0.065916 -0.025854 0.107837 -0.035564 0.135273 0.055438 -0.112646 0.015924 -0.098407 0.006841
 0.086496 0.052405 0.114100 -0.002425 0.152403 0.031065 -0.034101 0.129789 0.020059 -0.069304 -0.036227 -0.085495 0.032328 -0.090836 -0.247171 -0.055513 0.054236 -0.016356 -0.088595 -0.127485 -0.005813 -0.112450 -0.090794 0.134216 0.115886 0.108974 -0.081053 0.003377 0.076533 -0.051712 -0.063411 0.015203 -0.103471 -0.058378 -0.157089 -0.017789 -0.130275 -0.127156 0.020606 0.033703 0.101046 0.108319 0.047535 0.084305 0.002929 0.128643 0.115190 -0.136942 0.148434 -0.123353 -0.052851 0.042471 -0.046859 0.058969 0.101421 -0.009322 -0.090760 0.067338 0.101724 -0.117447 -0.019047 0.131135 -0.087811 -0.105783 -0.045200 0.078191 -0.057685 0.068919 -0.124334 -0.042000 -0.001870 0.094423 0.045069 -0.000774 0.001399 -0.004730 -0.082476 -0.127165 -0.100871 -0.003337 0.026304 0.004054 -0.039117 -0.112086 -0.046285 0.004599 0.000313 -0.146404 -0.137391 0.105540
 -0.038817 -0.066281 0.045006 -0.059021 -0.014384 0.148211 -0.108266 0.003353 0.031514 -0.030687 -0.034080 -0.030255 0.070755 -0.054997 -0.079767 0.024887 -0.007709 0.085259 0.027792 -0.085510 -0.079996 -0.075249 -0.078007 0.001674 -0.090384 -0.063855 -0.067406 0.103482 -0.128046 -0.044406 0.042232 -0.029507 -0.190409 0.044539 -0.095911 0.156587 0.029883 0.097871 0.095713 -0.014154 0.129401 -0.089661 -0.004269 -0.112496 0.019076 0.168879 -0.145524 -0.209925 0.012477 0.081182 -0.063825 0.082715 -0.072687 -0.104358 -0.101270 0.065415 0.012586 -0.023182 0.062034 0.002078 0.010299 -0.057069 0.071462 0.131773 0.061694 -0.001970 0.085633 -0.008929 0.026751 -0.028122 0.146217 0.038279 0.121428 -0.084609 0.036642 -0.090107 -0.024929 -0.073348 0.188384 -0.041375 0.116953 0.013497 0.086924 0.052187 0.114834 0.026609 0.119073 0.086611 -0.060576 -0.124666
 -0.062412 -0.162845 -0.046977 -0.163286 0.123830 -0.071277 0.071935 -0.127509 -0.133480 -0.113519 0.005140 -0.032017 -0.129794 -0.113937 0.140620 0.066285 -0.005233 -0.102852 -0.116975 -0.042714 -0.032397 0.024151 0.048207 -0.062267 0.073845 0.116867 -0.038886 -0.083173 -0.116715 -0.137762 0.063081 0.058218 -0.147722 0.169995 -0.018643 -0.034622 -0.071554 -0.070991 0.064938 0.133368 0.098274 -0.107652 0.008814 -0.071859 -0.119731 0.130508 0.094224 -0.029924 0.071751 -0.062306 -0.003441 0.089328 0.110842 -0.038350 -0.008477 0.009557 0.113795 0.002741 0.025698 -0.066926 0.056168 0.106776 -0.001521 0.086802 0.120824 -0.132424 -0.120462 -0.221388 0.124193 -0.108578 -0.000271 0.082708 -0.090909 0.080807 -0.033218 -0.058883 -0.111991 0.127677 -0.056437 -0.119621 0.020431 -0.054234 0.058582 0.103858 -0.037104 0.062499 0.107448 0.147402 0.226111 -0.046799
 -0.107935 0.150616 -0.132072 0.032565 0.129888 -0.135658 0.014834 -0.104439 -0.021862 0.012626 0.126033 0.032051 0.099667 0.113368 -0.116476 -0.110838 0.038774 0.072917 0.149683 -0.088055 -0.028651 -0.105310 -0.002911 -0.114452 -0.078669 -0.007495 -0.083715 -0.088819 -0.002536 0.014275 0.011935 -0.011796 0.013569 0.020427 -0.063342 0.017242 0.130638 -0.106645 -0.099069 -0.041666 -0.068550 -0.061393 0.051101 -0.059014 0.108959 0.010326 -0.094580 -0.006325 -0.096412 0.084344 -0.044884 0.142420 -0.076752 0.134984 0.051199 -0.087158 0.142310 -0.128412 -0.000987 0.028478 -0.083414 0.020497 -0.071984 -0.025178 -0.127281 0.091549 -0.007398 -0.080386 0.120447 -0.134686 0.042835 0.050829 0.003651 -0.015331 -0.009162 0.083309 0.006770 -0.069090 0.057048 -0.112228 -0.038751 0.079570 0.136483 -0.054594 -0.100094 0.113871 0.023810 0.046931 0.067812 0.102537
 -0.083571 0.058855 0.036162 0.143133 -0.091594 -0.000338 -0.058627 -0.081251 0.075745 0.055564 0.090551 0.055768 0.105493 -0.072629 -0.084896 0.111104 0.031826 -0.115531 0.000421 0.040239 -0.035401 -0.112942 -0.152062 0.065231 -0.030045 -0.085802 0.143824 -0.076831 0.086935 0.140573 0.122796 0.005698 -0.210069 0.142339 -0.131260 0.000098 0.015349 0.030752 0.087422 0.016458 -0.020380 -0.100603 0.025340 -0.019486 0.076166 -0.002515 0.106021 -0.006708 0.039123 -0.022539 -0.078903 0.033419 0.028422 0.034207 0.040039 -0.088421 -0.011349 -0.064018 -0.067597 0.128529 0.186178 -0.069835 0.144455 0.066213 0.040831 -0.160486 -0.011944 0.037553 0.058032 0.080523 0.020425 -0.036308 -0.120428 -0.081057 0.117544 -0.076502 -0.004193 -0.118754 0.001104 -0.105631 -0.145933 -0.017579 -0.132111 -0.107743 -0.028273 0.062422 -0.150241 -0.066840 -0.092114 -0.107638
 0.142786 0.037415 -0.053266 -0.104263 -0.106134 0.116795 -0.004183 0.111757 -0.136415 0.091621 0.107703 -0.040632 -0.020868 0.015707 0.065235 -0.070730 0.058913 0.141078 -0.051409 0.090544 0.026246 -0.095543 0.065610 0.131765 0.168115 -0.091925 0.069605 0.020455 0.109433 -0.046977 0.058024 -0.129987 0.030922 0.071821 -0.125340 0.007991 0.152976 -0.122616 -0.035104 0.142065 0.123590 0.117781 0.034014 -0.111408 0.051091 0.177555 0.107778 -0.077129 0.120544 0.121358 0.056956 0.110435 -0.066792 -0.079747 -0.059496 0.118497 -0.066133 -0.086883 0.015896 0.006540 -0.113800 -0.024142 -0.124661 0.033983 0.068122 0.042355 -0.079152 0.094377 -0.094998 -0.101366 0.135589 0.084170 0.115361 -0.019021 -0.127574 -0.148861 0.065628 0.121178 0.150821 -0.060510 -0.033307 0.121545 0.109091 -0.027226 0.024571 0.124197 -0.079391 0.002195 -0.109808 -0.056994
 0.133484 0.152398 0.147227 0.067581 -0.074636 0.132688 0.002750 0.021874 -0.048480 0.047657 -0.078283 -0.014535 -0.093354 -0.045150 -0.071299 0.019179 0.016678 -0.091227 0.105243 -0.026240 0.120193 -0.004147 -0.038043 -0.100978 0.073613 -0.030535 -0.091899 0.018827 0.006847 0.095809 -0.061844 0.130386 -0.062126 -0.103354 -0.073154 0.077827 -0.008756 -0.059562 -0.095710 -0.017051 0.127762 0.118460 -0.125912 0.074513 0.110703 0.075103 0.147253 -0.113847 0.228859 -0.110163 0.038090 0.100870 -0.029570 0.130115 0.163358 -0.061757 0.027976 0.067946 -0.012732 0.093694 0.181719 0.089645 -0.046673 0.045989 -0.080346 0.122990 0.111610 -0.003944 -0.150206 0.063643 -0.049975 -0.000651 -0.066211 0.036166 -0.025726 -0.144537 -0.034356 0.055854 0.019950 0.132000 -0.001431 0.002787 -0.118758 0.128472 0.141404 -0.056800 -0.080037 0.042927 -0.077638 -0.129482
 -0.128699 0.048538 0.090095 0.130969 -0.063953 -0.026024 -0.079080 0.098771 0.142727 -0.078323 0.136719 -0.042362 -0.117267 0.084880 -0.068019 0.071167 -0.063270 -0.050028 0.162923 -0.009361 -0.122367 -0.103212 0.038934 -0.020580 0.099056 0.008848 0.069236 0.101425 -0.036952 0.143876 -0.045993 0.009627 -0.044403 0.088057 0.026145 -0.118273 -0.072736 -0.130505 0.008140 -0.095013 0.072053 -0.086426 -0.025589 -0.053077 -0.054734 -0.041870 0.113662 -0.121541 -0.136845 -0.117911 -0.010996 -0.057798 0.056406 0.025029 0.065655 -0.030111 0.011794 0.009044 -0.098324 0.042720 0.168690 0.163131 0.179107 0.144516 0.098007 0.029854 -0.036302 -0.096520 -0.085761 -0.106065 0.007894 -0.012764 0.163431 0.027739 0.035887 0.131620 0.063205 -0.089428 0.037608 0.141019 0.068254 -0.088573 0.044076 -0.090776 -0.024541 -0.117678 0.139082 -0.028254 -0.054166 0.106853
 -0.012842 -0.123949 0.020598 -0.154921 0.089063 0.030994 0.124899 0.028714 0.146069 0.035596 0.123032 -0.029064 0.013564 -0.075512 0.022794 -0.129829 -0.137472 0.146065 -0.084757 0.098823 -0.128073 0.050511 -0.068399 0.021371 0.116509 -0.090211 0.088578 0.030478 -0.082873 0.005111 0.060360 -0.101747 0.070622 0.023239 0.089359 -0.009329 -0.152739 -0.098474 -0.085850 0.018942 -0.129499 0.008215 -0.034205 -0.003126 -0.000782 -0.020862 -0.032135 0.026301 -0.042894 0.085307 -0.099414 0.099950 -0.040087 -0.123549 -0.152192 0.096424 0.127559 0.127799 0.083070 -0.131782 0.127579 -0.108782 -0.142235 -0.019261 -0.011753 -0.052288 0.101922 0.100288 0.096952 0.052030 0.126997 -0.148349 -0.063262 -0.112260 0.147367 0.129689 -0.047380 0.082663 0.095305 -0.034307 -0.130119 -0.004557 -0.086433 -0.117014 0.007395 -0.135945 0.123952 -0.117434 -0.004765 -0.078454
 -0.118130 -0.144297 -0.039909 -0.015007 0.086261 0.042761 -0.133639 0.090878 -0.003862 -0.000128 0.126639 0.142358 0.124578 0.042332 0.125958 0.122455 0.112264 0.112562 -0.072243 -0.075542 -0.061837 -0.107722 0.043194 -0.011238 0.065256 0.033868 0.096308 -0.000360 0.081858 -0.027494 -0.060844 -0.128407 0.041262 -0.072560 0.091702 0.046301 -0.095433 -0.116562 0.025670 0.029950 -0.014044 0.071168 0.092152 0.077324 0.130035 -0.031774 0.140105 -0.130049 -0.152012 -0.010618 0.041405 -0.035770 -0.005568 0.051568 -0.017182 -0.014301 -0.077265 0.101058 0.143624 -0.074097 -0.117420 0.064319 -0.128518 -0.085693 0.093944 0.108805 0.141528 -0.231285 0.078422 -0.107412 -0.069820 -0.059928 0.030827 0.074863 -0.124450 -0.063433 0.025958 -0.006312 -0.112567 0.132706 0.106599 0.044641 0.077786 -0.148979 -0.160591 0.053111 0.134925 -0.053452 -0.049869 0.014812
 -0.143695 -0.045669 0.055005 -0.063903 -0.041048 0.117279 -0.025363 -0.036998 -0.098769 -0.010708 0.093348 -0.065552 -0.055429 -0.019422 -0.078997 -0.138979 0.083082 -0.042345 -0.118164 0.126092 -0.089490 0.110573 0.024735 0.044997 -0.101021 0.021714 -0.040235 -0.137406 -0.111182 -0.038820 -0.082928 0.018073 -0.174655 -0.114975 -0.009995 0.017015 0.069799 -0.139941 0.092973 0.132545 -0.137040 0.073509 -0.120606 0.119446 -0.031846 0.051134 0.024833 -0.003103 0.092608 -0.095612 -0.136149 -0.098522 -0.084750 -0.122807 0.028565 0.030146 -0.024919 0.074180 -0.140628 0.035133 -0.000054 0.023156 0.087550 -0.094767 -0.015044 -0.064115 -0.065003 0.053235 -0.034705 0.068110 -0.011702 -0.154481 -0.072888 0.128943 0.020167 0.049662 -0.073649 0.042820 -0.038686 0.090769 0.093704 0.008507 0.065947 0.103024 0.095611 -0.028914 -0.050043 -0.010882 0.107881 -0.061022
 0.102203 -0.087248 0.052632 0.081769 0.066810 0.108466 0.000982 0.120332 0.118986 0.111315 0.082275 -0.112390 -0.015089 0.032638 0.145207 -0.058812 0.135838 -0.073403 0.041783 0.088153 0.000334 -0.049617 0.062664 0.136805 -0.104093 0.083840 0.087969 -0.075615 -0.014347 -0.139518 0.067532 0.106354 0.055663 -0.023480 0.009048 0.185741 -0.041273 -0.122520 -0.146786 -0.052825 0.191620 0.097942 -0.066003 -0.066955 0.076143 0.024535 -0.031712 -0.122935 -0.073230 -0.044965 0.058822 0.067502 -0.114534 0.057850 -0.044590 0.168889 0.035301 0.010487 -0.096328 0.162590 0.080499 -0.093547 -0.029036 -0.052646 -0.117611 0.098642 0.025336 0.025678 0.070794 -0.011742 0.037474 -0.049952 0.085169 0.044760 0.001320 0.108471 -0.042597 0.104518 -0.002927 0.093555 0.056513 0.191579 0.058488 -0.003170 0.147521 0.016728 0.178372 0.087112 0.016530 0.051210
 0.038535 0.080766 -0.032737 -0.048394 0.046342 -0.012188 0.023046 0.127586 -0.116543 -0.131133 0.141622 0.055223 -0.036189 -0.148704 -0.055039 0.120934 0.072799 -0.094299 -0.007314 -0.108505 0.082920 0.041389 0.127034 0.103518 -0.013829 0.036140 -0.092190 0.147594 -0.101054 0.092022 0.130815 -0.121418 0.042943 -0.024233 -0.146340 0.157768 0.042731 -0.091631 0.054025 0.078575 0.011251 -0.106311 -0.126466 0.151963 -0.101036 0.083455 0.049333 -0.271448 0.075673 -0.128845 -0.042289 0.034409 -0.006146 -0.076357 -0.067743 0.117404 -0.000563 0.114735 0.129815 -0.057305 0.196641 0.118515 -0.075771 0.077592 -0.131079 -0.019128 -0.035398 0.013153 0.125857 0.030087 0.014098 -0.133214 -0.103814 0.168250 0.060177 0.115655 -0.078649 0.033685 -0.086763 0.033151 0.017156 0.039380 0.134686 0.141459 0.117299 0.166557 0.033405 -0.156125 0.090363 0.039124
 0.119631 -0.115166 0.116725 0.080836 0.026735 -0.008464 0.040363 -0.045503 -0.031820 -0.055608 0.079980 0.066605 0.121899 0.017031 0.011883 -0.119008 -0.125491 -0.040192 -0.059887 -0.035723 -0.069096 -0.110795 -0.107550 -0.124326 0.075092 -0.102250 0.086273 0.002610 -0.045264 -0.024999 -0.046740 -0.044865 -0.157774 0.073379 0.077423 -0.073535 -0.010658 -0.134951 0.144850 0.100671 0.169988 0.044246 -0.030085 -0.008621 -0.139095 -0.079017 0.140865 -0.035398 0.049664 0.074052 0.068934 -0.003212 0.017482 0.104158 -0.060274 -0.004992 0.091293 0.031864 -0.096840 -0.076621 -0.009084 0.131197 -0.056722 0.104741 0.022745 -0.043660 -0.062882 0.121859 -0.023807 0.080868 0.024894 0.150176 0.013112 0.000615 0.102854 -0.049310 -0.095346 -0.014058 0.096390 0.042995 -0.095240 -0.033720 0.145904 -0.137202 0.057426 -0.032784 0.051005 0.114194 -0.043550 -0.007694
 -0.019940 -0.034649 0.146895 -0.047711 0.036625 -0.142173 0.109241 -0.017011 0.042579 -0.004347 0.126358 -0.138370 0.083308 -0.016282 -0.045400 -0.039773 -0.027839 0.158186 -0.056095 0.033190 0.066670 -0.134786 -0.079429 0.084954 0.053049 0.096911 -0.101612 0.080080 -0.056542 -0.138768 0.036614 -0.029635 0.061339 0.061200 0.054819 -0.012786 0.053141 0.118686 -0.052137 0.006519 0.005722 0.030142 0.129547 -0.149770 0.101573 -0.019569 -0.102520 -0.125519 0.078109 -0.151384 0.120846 -0.009653 -0.022150 0.114697 -0.121260 -0.118465 -0.125650 0.134156 0.064208 -0.013276 0.042177 0.044815 -0.119293 0.107933 -0.067570 -0.059765 0.123307 -0.013188 -0.116770 0.028842 0.097388 0.017603 0.077066 -0.089020 0.144170 0.023117 -0.023669 0.028261 -0.131653 -0.130620 -0.067709 0.009689 -0.067338 -0.020889 0.125366 -0.153937 0.095417 0.058536 0.144389 -0.074532
 0.060759 -0.007282 0.014277 -0.057798 0.065006 0.064817 -0.143015 0.169678 0.049001 0.140480 -0.010335 -0.071104 -0.022623 -0.085902 -0.083797 -0.008094 -0.127258 -0.113450 0.000861 0.068076 -0.077051 0.050659 -0.087218 0.085713 0.133213 0.025862 0.130452 0.135430 -0.008659 0.036409 0.139266 -0.017408 -0.044642 0.069952 0.070037 0.001202 -0.103184 0.118820 -0.039790 0.057110 0.003240 -0.013104 0.184277 0.051065 0.091322 -0.026969 0.141914 0.067267 -0.141792 0.143346 0.113244 0.138277 -0.037123 0.132406 0.141033 0.130652 -0.120928 0.162793 -0.003588 -0.052348 -0.085122 0.110537 0.019855 -0.037903 -0.099637 -0.052118 0.103874 -0.021683 0.085088 -0.003389 0.178226 -0.018355 -0.033242 0.108835 -0.096726 -0.018303 -0.090333 -0.129689 0.089779 0.039386 -0.108312 0.107784 -0.008135 -0.043091 0.053318 0.069293 0.045440 -0.100038 -0.120100 0.056605
 -0.141757 -0.064504 -0.047908 -0.116465 -0.146344 -0.061473 -0.062407 0.089111 -0.086489 -0.038749 -0.063500 -0.143158 0.066665 0.093517 -0.154996 0.073153 0.098765 -0.080533 -0.060234 0.080748 0.044817 0.000848 0.000585 0.010853 -0.008299 -0.000713 -0.079839 0.123707 -0.126315 0.110426 -0.039643 0.102413 -0.188847 0.008193 -0.126787 0.127727 0.137145 0.106010 0.088774 -0.009352 -0.089362 0.020025 0.082730 0.146299 -0.018008 0.076431 -0.080697 0.034346 -0.016039 0.083509 0.002805 0.113421 0.055379 0.024030 0.000436 0.039616 -0.123677 -0.060190 -0.136197 0.087460 0.083476 -0.146790 -0.045184 -0.068301 0.061546 0.017575 0.007533 -0.029949 -0.060825 -0.066271 -0.119107 -0.003848 0.032983 -0.001451 -0.085010 0.085936 -0.135341 -0.107438 0.010757 0.107918 0.129891 -0.078897 -0.028763 -0.136725 0.051366 -0.014315 0.116287 -0.113414 0.068461 -0.077818
 -0.054359 0.000651 -0.133005 -0.105320 0.022655 -0.132760 -0.007888 -0.101428 -0.129603 0.082866 -0.014922 -0.023970 0.096481 0.088281 0.012505 0.042895 0.062448 -0.008981 -0.116297 -0.084085 0.055963 0.074094 -0.078913 0.011717 0.152226 0.107968 0.096833 -0.106297 -0.127671 -0.045116 0.156094 -0.055585 0.058799 -0.067899 -0.108744 0.142120 -0.010810 0.102064 -0.128302 -0.040396 -0.126343 -0.077567 0.092523 -0.014681 -0.017227 -0.046616 -0.066868 -0.070659 0.048328 0.063959 -0.035673 0.001392 -0.092689 -0.058784 0.053649 0.079215 -0.123930 0.096563 0.069684 0.022430 -0.074954 0.048469 0.004324 0.081869 -0.071772 -0.069461 -0.124628 -0.093039 0.091639 0.038764 0.037278 0.019749 0.046373 0.012541 -0.023538 -0.138223 -0.000653 -0.024959 0.133087 0.089864 -0.023772 0.037792 0.130781 -0.021879 0.161628 0.030876 0.026419 0.062856 -0.090761 -0.012851
 -0.017668 0.042811 -0.117811 0.068506 0.134874 -0.033674 -0.039507 0.099049 0.000354 -0.069743 0.068620 -0.073913 -0.088660 -0.015611 -0.052943 0.066602 -0.034247 -0.151319 -0.117331 0.077748 -0.060036 0.148405 0.144209 0.141764 -0.142530 -0.099771 0.111672 -0.024262 0.032115 0.018890 -0.040287 -0.031729 -0.038996 0.024874 -0.150955 -0.058829 0.108596 -0.120150 -0.057405 -0.008391 0.139285 -0.031383 -0.102647 0.039869 -0.053941 -0.027723 -0.038160 0.026706 0.109719 0.058117 -0.124121 0.084007 0.064859 -0.060714 -0.114292 0.061763 -0.096338 0.029720 -0.051649 0.141285 0.190607 -0.097908 0.128780 0.086631 0.003575 -0.049891 0.086947 0.107492 -0.045211 0.024245 0.018627 0.067367 0.012584 -0.089780 0.075944 0.033407 -0.114372 -0.141623 0.121772 -0.059006 -0.022437 0.197503 0.103884 0.100348 0.075405 0.084653 -0.003034 0.069450 0.011554 0.087446
 -0.116665 -0.043155 -0.082754 -0.020171 0.037073 -0.014608 0.098235 -0.122141 0.004211 -0.023430 0.098826 0.141568 0.012426 0.067454 0.020466 -0.117828 0.126327 0.017808 -0.009362 0.044664 -0.204125 -0.053618 0.038148 -0.050891 -0.113630 -0.063409 -0.121232 -0.006996 -0.036997 0.091431 0.109458 -0.041609 0.035067 0.123381 0.064280 -0.143455 -0.011030 -0.001354 -0.135175 -0.026470 0.017424 0.084355 0.165516 0.086220 -0.057510 -0.072428 0.143370 -0.184668 -0.144262 -0.052197 -0.093835 0.076315 0.112648 0.031919 0.017793 -0.080218 -0.037979 0.078986 0.110653 -0.034304 0.019293 0.058077 0.003738 -0.086194 0.083454 -0.117442 0.082001 0.040106 -0.134543 0.071535 -0.037210 0.062420 -0.020746 0.014992 -0.061547 0.033806 -0.082240 -0.014455 0.098244 0.134589 -0.072067 0.129615 0.072005 -0.140023 0.017649 -0.053104 -0.012673 0.054647 0.032056 0.011380
 -0.085436 0.049301 0.101324 -0.158947 -0.083814 0.145700 -0.075754 0.030518 -0.033058 -0.111831 -0.129010 -0.008283 -0.121953 -0.128492 0.019629 -0.017181 0.092564 -0.000119 -0.090212 0.040060 -0.078825 0.061737 -0.151937 -0.029292 -0.055553 0.062517 -0.128110 0.041847 -0.188648 0.030950 0.125537 0.099595 -0.025156 0.055440 0.037735 0.035892 0.056320 -0.072028 0.051480 0.053513 -0.142496 -0.109188 0.141465 -0.082180 -0.036219 0.150464 -0.035927 0.038197 -0.140346 -0.019316 -0.057594 -0.134281 -0.020555 0.121857 0.128007 0.024084 -0.051112 0.030420 0.053711 0.124192 -0.109008 0.097713 0.005267 0.062518 -0.107604 -0.134342 0.121782 -0.161783 -0.037053 0.035156 -0.133942 0.022298 -0.041459 0.121933 -0.045495 -0.063226 -0.103572 0.047588 0.022486 0.044087 0.145581 -0.194026 0.117477 -0.048407 -0.146375 0.048651 -0.012223 -0.110181 -0.129215 0.034522
 0.047721 0.050493 -0.077603 0.054891 0.088620 -0.071484 -0.131393 -0.060078 0.083185 0.018479 -0.004951 0.134958 -0.015195 0.136776 0.012814 0.073702 0.147145 0.139634 -0.098088 0.080588 0.114566 0.147158 0.134577 0.099249 -0.077010 -0.096140 0.107465 -0.118640 0.039308 -0.126081 0.024450 0.031339 -0.151248 0.059983 0.050975 0.107954 -0.135355 0.084722 0.052274 -0.085655 -0.025792 0.024084 0.047806 0.089467 -0.043506 -0.080904 -0.072305 0.077690 -0.064494 -0.081159 0.028889 -0.011671 0.139598 0.109696 -0.004652 -0.115434 0.141879 -0.020077 0.051048 0.038039 -0.090572 -0.073678 0.128721 0.110549 -0.026530 0.090357 0.098859 -0.181810 0.128052 -0.034588 0.054919 -0.079338 -0.125794 0.131534 -0.033791 0.037868 0.145099 -0.113311 -0.119776 0.031508 0.006756 -0.103811 0.137940 0.034382 0.057298 -0.150190 0.074304 0.174874 -0.032103 0.030992
 0.142434 0.007716 -0.052505 0.094039 -0.083536 -0.137554 -0.042290 0.133263 0.062453 0.108930 0.041921 0.038372 -0.031289 -0.123265 -0.196649 0.124284 -0.100320 -0.129627 -0.013163 0.005491 0.063056 -0.093589 0.027912 -0.165463 -0.020322 0.000946 -0.089467 0.084383 0.004553 -0.123237 -0.084353 -0.062758 0.064724 -0.071214 -0.123963 -0.086297 0.002408 0.053832 0.067244 -0.025371 0.102215 0.112201 0.017100 0.123736 -0.172004 -0.006532 0.007109 -0.179265 0.006296 0.080146 0.045401 0.010053 0.019184 0.094119 0.106718 0.079121 0.129614 0.155398 -0.079947 -0.073950 0.044972 -0.100827 0.102907 0.071360 0.082349 0.056313 -0.109871 0.040054 -0.051026 0.061517 -0.130090 -0.052799 0.033665 -0.114234 0.062098 -0.014753 -0.142403 0.122351 0.135362 0.034951 0.146017 0.026728 -0.034303 0.121379 -0.123634 -0.006035 -0.014731 -0.040189 0.025494 0.016775
 -0.125402 0.095751 0.003163 -0.081304 -0.012967 0.020176 0.040016 -0.082277 0.126785 -0.041086 0.136659 -0.017507 0.094729 -0.053361 0.077018 0.128724 0.022015 -0.066135 -0.010075 0.050775 0.010802 0.111729 0.012338 0.111288 0.022192 -0.030427 0.119688 -0.083506 0.090849 -0.077997 0.071056 0.051101 0.046483 0.020470 0.128132 0.110183 -0.091717 0.160976 0.107339 -0.093086 -0.068954 0.177800 0.194813 -0.086834 0.072310 0.105729 -0.135166 -0.023730 -0.028400 0.106435 -0.148129 0.072601 -0.142469 -0.066359 -0.041292 0.076990 -0.123574 -0.043653 -0.034066 -0.015642 0.076967 -0.013475 0.081734 -0.045340 -0.146234 -0.092319 0.039892 -0.002895 -0.065723 0.115597 -0.067374 -0.054619 -0.023259 0.130805 0.065378 0.019993 0.107749 0.114010 -0.067633 0.003897 0.033183 0.146372 -0.064447 0.050650 0.020389 0.047844 0.114690 0.048945 -0.124516 0.108476
 -0.142861 0.081803 0.056180 0.157412 0.023497 0.138206 -0.008771 -0.099638 0.078163 -0.027233 0.026162 0.085311 0.124692 -0.049555 -0.156874 -0.024529 0.043831 0.057886 -0.050837 -0.071674 -0.073408 -0.118240 -0.030860 0.150188 0.040327 0.079619 0.094066 -0.022775 0.009927 -0.119900 0.126988 0.156395 -0.116806 -0.170024 -0.056516 0.001695 0.145441 0.022929 0.087211 -0.046095 0.027072 0.111581 -0.022720 0.093802 0.014478 -0.124879 0.128062 -0.027625 -0.029662 -0.035853 -0.102669 -0.027956 0.019188 -0.046775 -0.119805 0.074601 -0.063372 -0.091828 0.023407 0.036801 0.193327 0.053886 0.011848 -0.053284 -0.071921 0.120627 0.111698 0.108729 -0.175668 -0.036854 -0.132856 0.070262 0.143582 -0.106321 -0.054864 0.060495 -0.043554 -0.079860 0.054734 0.109908 0.088680 -0.013937 0.136460 0.061925 0.151587 0.081820 -0.096728 0.073439 0.083308 -0.139143
 -0.102403 0.044810 -0.122795 0.074912 0.065634 -0.027253 -0.027436 0.004598 0.024738 0.045618 0.105898 0.087342 -0.140998 -0.023404 -0.163732 0.078403 0.048503 0.046495 -0.038771 -0.067212 -0.091642 0.048592 0.059903 -0.120900 0.107196 -0.076358 -0.121005 -0.045642 0.000130 0.030730 -0.086865 0.023220 -0.072852 0.077133 -0.066820 0.056908 -0.118144 0.145210 0.072267 0.013022 -0.078945 0.039175 0.034852 0.052764 -0.164079 0.057839 -0.038644 -0.044752 -0.132233 0.136143 -0.024720 -0.160956 0.098551 -0.048202 0.086355 -0.073192 -0.115780 0.167415 -0.116226 0.065593 -0.002999 -0.121633 -0.048878 0.079569 0.044400 0.032209 -0.128710 0.058090 0.021331 0.101414 0.063953 -0.040206 -0.072531 0.073733 0.046660 -0.141339 0.111768 0.011029 0.066117 -0.099014 -0.114971 0.001826 0.072001 -0.066574 -0.010867 0.024270 0.115088 0.153457 0.030177 0.117015
 -0.056129 0.056100 0.112141 0.013968 0.079061 0.050223 0.133247 0.037156 -0.012900 -0.111943 0.032040 0.098968 -0.035679 0.029411 0.092876 -0.062372 0.090062 -0.027498 -0.059875 -0.116359 0.037156 0.083776 -0.131902 -0.050603 -0.033862 0.135955 0.063280 -0.098284 -0.206598 0.124362 -0.002167 0.070066 -0.210821 -0.001625 -0.028261 0.100021 0.005303 0.043419 0.133038 -0.028916 -0.017457 -0.074494 0.098490 0.028071 -0.018373 -0.031990 -0.118995 -0.113725 -0.025166 0.084286 0.046365 -0.064571 -0.050553 0.111960 0.100124 0.063419 0.078103 0.193800 -0.080672 -0.013196 0.095946 -0.062488 -0.112725 0.025268 -0.069437 -0.115923 -0.107434 -0.055683 -0.078107 0.012754 0.030391 0.096920 0.047715 -0.031832 -0.106003 -0.125705 -0.006608 0.076265 0.066638 -0.131918 -0.090727 -0.177853 0.095214 -0.147397 0.085683 -0.067348 -0.021070 0.139004 0.151464 -0.023454
 -0.074465 0.063794 -0.060102 0.053817 -0.046886 0.039632 -0.108522 0.089961 0.115741 0.098780 -0.060296 0.049903 0.118613 0.060014 -0.044452 -0.103418 -0.075795 0.027393 0.098823 0.123659 -0.038091 -0.050851 0.048037 -0.015639 0.169593 -0.095022 -0.058157 -0.037472 -0.026204 -0.138547 -0.024972 -0.042793 -0.058418 0.012982 0.085286 0.153192 -0.060393 -0.125039 -0.025175 0.131450 0.143064 0.047673 -0.077278 -0.127117 -0.010162 -0.057349 0.138870 -0.015319 0.026703 -0.045212 -0.072840 0.005553 0.005644 -0.004830 -0.005763 -0.032762 0.048032 0.002394 0.113413 0.157951 -0.129263 -0.098838 -0.086660 0.011118 0.114541 0.144868 0.055745 -0.134044 -0.023562 0.161578 0.155625 -0.091001 -0.030606 -0.003641 0.116561 -0.122411 -0.036466 0.026590 0.023209 -0.064055 -0.109706 0.095611 -0.048547 0.037801 0.139142 0.115683 -0.120840 0.120010 -0.070193 0.005396
 0.142263 -0.027692 0.033669 0.101053 -0.032929 -0.011054 -0.010743 -0.045418 0.088514 0.108528 -0.094009 0.078639 -0.135837 -0.112541 -0.077806 0.042130 -0.085432 -0.026772 -0.108110 0.121043 -0.130509 0.039144 -0.119910 0.038151 -0.049840 0.064188 -0.008932 -0.145202 0.162652 -0.120244 0.069245 0.020880 -0.038093 0.120697 -0.031301 -0.133893 -0.144190 0.125612 0.098175 -0.038833 0.044571 0.122996 0.051636 -0.113905 -0.011895 -0.054415 -0.028455 0.049345 0.047252 0.087236 -0.141112 0.081935 -0.057254 -0.073721 0.010590 0.055528 -0.086361 -0.097354 -0.012092 0.099644 -0.072843 0.038816 0.075070 0.076598 0.037626 -0.050115 -0.035382 -0.069182 -0.151847 -0.182028 -0.014212 -0.071480 -0.087101 -0.112028 -0.087117 0.072652 -0.125240 -0.056881 0.011742 -0.010617 0.148101 0.094910 -0.103607 0.026456 -0.003794 -0.092810 -0.000985 -0.132828 0.022601 -0.122351
 0.122128 0.139088 0.004545 0.093136 0.077187 -0.021813 -0.083647 -0.080433 -0.135452 0.051957 -0.091260 0.124454 -0.019573 0.053163 -0.164649 -0.036546 -0.042652 -0.119585 0.076419 0.088139 0.089251 0.104431 -0.082901 -0.084240 0.027929 -0.049218 0.107531 -0.120042 -0.118685 -0.019089 0.125359 0.079230 0.071471 0.127247 0.096280 -0.039201 0.134168 0.025948 0.062145 0.028178 0.041298 -0.098673 -0.032975 -0.013071 0.134521 0.111815 0.064092 0.035033 0.107934 -0.097444 0.025107 0.131980 0.143933 0.060169 -0.066488 0.119703 -0.010283 -0.108115 -0.064856 0.005798 0.110020 -0.096338 0.125182 0.057514 -0.063941 0.019177 0.024345 0.022509 0.041058 -0.023423 0.088117 0.140465 0.113797 0.087872 0.139305 0.056434 0.041460 0.031698 0.161176 0.020498 -0.120583 0.101646 -0.013206 0.023909 -0.004181 0.065276 0.140585 0.052636 -0.138210 0.091226
 -0.043048 -0.043432 -0.019199 0.159569 -0.092784 -0.010519 0.127365 0.019265 0.072018 0.120512 0.000660 0.007719 -0.050603 0.092357 -0.205127 0.028627 0.085417 0.080215 -0.098896 -0.045055 -0.055925 0.023201 0.124171 -0.055840 -0.022484 0.040482 -0.123613 0.075844 0.009788 -0.102832 -0.056462 0.131827 0.190009 -0.039923 -0.215003 -0.042836 -0.100703 -0.051893 0.090960 0.076186 0.006268 0.126353 -0.130729 0.169227 0.046392 0.071508 -0.002382 0.161061 0.035722 0.102301 0.094108 0.116459 -0.026773 -0.055400 0.045340 -0.110935 -0.135361 -0.132515 0.003783 -0.002159 -0.035961 0.001667 -0.061995 0.065437 0.053107 0.166363 0.108694 -0.030509 0.083014 -0.098979 -0.147577 0.116025 0.081915 -0.028142 -0.021125 -0.141026 0.087850 -0.114994 -0.113201 -0.008699 -0.146993 0.087859 0.122664 0.035242 0.015146 -0.051993 -0.031214 0.026455 0.021334 0.107641
 -0.026034 -0.043297 0.055453 0.046322 0.137928 -0.042334 -0.050954 0.019014 0.140341 0.046136 -0.054374 -0.078553 -0.055082 -0.135719 -0.061813 -0.039851 0.015234 0.069501 0.070043 -0.145053 0.085041 -0.105611 0.081001 -0.025037 -0.072753 0.113607 -0.099932 -0.036479 -0.205695 -0.056362 -0.085681 -0.082247 -0.165145 0.142021 0.132911 -0.079642 0.136150 0.088990 -0.017371 0.130234 0.033543 0.158113 -0.030448 -0.030928 -0.006675 -0.121537 -0.020786 -0.101607 0.083537 0.051801 0.081337 0.097458 0.073968 -0.001073 -0.010783 -0.031705 -0.136527 -0.007387 -0.074024 0.007982 0.040412 0.114214 0.088961 -0.071177 0.030570 0.068639 0.145493 -0.071191 0.144043 -0.054667 0.097807 0.006369 -0.065320 0.066199 0.088239 0.074579 0.124752 0.011568 0.093704 0.088482 -0.072235 0.048881 -0.124874 -0.025096 -0.058177 0.124333 -0.134658 -0.092294 0.107055 0.028376
 -0.024618 -0.090248 -0.108188 0.006563 0.140503 0.034606 -0.006364 0.121546 0.086396 -0.130238 0.084692 -0.131590 0.046277 -0.101059 -0.028548 -0.010461 0.060118 0.134240 -0.096214 -0.015125 -0.116065 0.012921 -0.099232 -0.120297 -0.122018 0.122322 -0.052149 -0.154382 -0.072169 0.007894 -0.034207 0.053119 0.116071 0.064901 0.151524 0.003909 0.123735 -0.056393 -0.111685 0.110156 -0.116422 0.118891 -0.076373 -0.032855 -0.108181 0.120596 0.083732 0.044063 -0.091890 -0.142103 -0.063193 -0.036430 -0.115076 0.076521 -0.131392 -0.103417 0.051073 -0.027717 -0.118683 -0.104790 -0.001180 -0.029207 -0.029467 0.137242 -0.104074 -0.124966 0.112929 -0.061851 0.048050 0.083312 0.165679 0.140502 -0.019706 -0.087695 -0.110679 -0.140968 -0.099682 -0.114986 0.008356 0.125984 -0.038900 -0.042321 -0.050207 0.116307 -0.116435 -0.040470 0.091835 -0.107273 -0.124036 0.041227
 -0.130481 0.006618 0.138934 0.095138 -0.050403 0.038858 0.076545 0.138948 -0.033844 -0.073302 -0.136432 0.112600 0.003822 0.126558 0.150478 0.073966 -0.015405 -0.023180 -0.108024 -0.088702 0.008455 -0.092614 0.121731 -0.124286 0.011254 0.045999 -0.014831 0.104324 0.145392 -0.074264 -0.065818 0.048166 0.029436 -0.038586 -0.087943 -0.057113 -0.046050 0.085267 -0.115913 0.023698 0.042178 0.118199 0.121771 0.000668 0.114073 -0.092981 0.120736 0.052546 -0.055776 -0.081561 0.084928 0.018398 -0.041245 0.047714 0.047954 0.051502 -0.141713 -0.132065 -0.085518 0.034427 -0.014202 -0.092387 0.125270 0.049505 -0.003869 -0.054213 -0.134979 -0.056030 0.042417 -0.005084 0.117285 0.139269 -0.097593 0.123275 -0.089436 0.068082 0.100966 -0.101603 -0.037157 -0.105412 0.082885 -0.051305 0.073490 0.104343 -0.067668 0.067786 0.020963 0.044719 0.113158 -0.023414
 0.111289 0.073315 0.069852 0.052913 -0.000851 -0.068333 -0.128706 0.090896 0.101167 -0.050903 -0.048992 0.107902 -0.076858 -0.008753 -0.039394 0.089019 0.114151 -0.021461 -0.007514 0.017259 -0.006557 -0.088150 -0.002479 0.033157 0.112372 -0.028356 0.119638 0.068053 -0.000484 0.102106 -0.144840 0.023410 -0.084158 0.114705 -0.164379 0.122264 0.134500 -0.061459 -0.109351 -0.073454 -0.051363 0.136273 -0.078338 -0.118333 0.007898 -0.079354 0.001670 -0.145975 0.216154 -0.087918 -0.022683 -0.156332 0.121824 0.125845 -0.087535 0.026289 0.091826 -0.063312 -0.027707 -0.128163 -0.080571 -0.056645 0.072585 -0.081459 0.107690 -0.158288 -0.059219 0.051271 -0.084836 0.049818 -0.095768 0.008794 0.114287 -0.024348 -0.005563 -0.092978 -0.073694 -0.092245 -0.015469 -0.143675 0.008712 -0.011583 -0.004860 0.037096 -0.053923 0.138620 0.066583 -0.044146 0.085665 -0.030512
 -0.056183 -0.068561 0.102476 0.073949 0.052904 0.091351 0.038330 -0.072013 0.101471 0.150171 -0.026882 0.145974 0.062217 -0.144674 0.094311 0.078039 -0.093474 0.032087 0.075289 0.099150 0.055639 -0.064939 0.145076 -0.070267 0.132680 -0.033125 -0.015241 -0.012900 0.129054 0.004972 0.047812 -0.132158 0.086488 -0.038313 0.099593 0.066434 -0.066193 -0.109675 -0.088402 0.099555 0.029724 0.111058 0.151931 -0.001912 -0.105426 0.102127 -0.127438 -0.037664 0.070851 0.113172 0.094801 -0.097354 0.084746 -0.072455 0.061919 -0.101440 0.135464 -0.115014 0.102193 0.095865 0.146810 0.054130 0.021421 0.172479 -0.028816 0.060895 0.119103 -0.048150 -0.089548 -0.010895 0.001214 -0.047006 0.031302 -0.055376 0.137352 -0.132578 0.031093 0.096146 -0.060772 0.000102 0.028090 0.031177 0.053127 0.086065 0.156904 -0.039862 0.075435 0.078550 -0.107453 -0.006180
 0.108618 0.152741 0.040557 -0.119806 -0.025530 -0.110189 0.104891 0.016680 -0.043144 -0.042085 0.044197 0.037515 -0.102585 0.131993 0.011488 0.059371 -0.105930 -0.117199 -0.093342 -0.105389 0.135830 0.009032 -0.042550 0.115477 -0.013734 0.171199 0.043722 0.154138 0.052809 -0.043948 -0.034139 -0.130227 -0.116729 0.078021 -0.121262 0.100740 -0.096265 0.030311 0.075702 -0.061450 -0.026453 -0.005379 0.151618 -0.058988 0.117292 -0.078507 0.065374 0.052672 -0.048460 0.062776 0.122621 -0.116422 0.071623 0.095676 0.139903 -0.109500 0.006781 -0.062265 -0.036820 0.097619 0.126052 -0.076320 -0.035585 0.083710 0.029858 0.074733 0.036425 -0.074506 0.097836 0.109493 -0.044439 -0.061377 0.105046 0.098005 -0.082368 -0.039329 0.082696 -0.089454 -0.111572 0.036544 -0.121100 0.169540 0.110118 -0.144644 0.197894 -0.028404 -0.067598 -0.040327 -0.126268 0.046866
 0.137688 -0.098663 0.064599 -0.081869 -0.128034 -0.105512 0.046468 0.027168 -0.140811 0.014195 -0.106336 0.120889 -0.127197 -0.020340 -0.228895 -0.100980 -0.007080 0.115066 0.073827 0.105658 -0.101315 -0.051063 0.089882 -0.028363 0.098237 0.031594 0.070680 0.032338 0.126261 0.094704 0.061400 -0.082449 -0.011099 0.078742 0.074565 -0.107184 -0.001094 0.109061 -0.018571 -0.128337 -0.023675 0.143121 -0.175640 0.038245 -0.164999 0.002803 -0.081668 -0.153737 0.104123 -0.122840 -0.041736 -0.103615 -0.100514 -0.070178 -0.025074 0.096094 -0.133904 0.072670 0.123060 0.081909 0.010684 0.057471 0.121692 -0.106358 0.112787 -0.104043 0.004491 0.147247 0.065245 0.122324 0.094545 0.036173 -0.093665 0.084726 0.134371 0.102969 -0.010730 0.092687 0.037760 -0.142200 0.128781 0.148945 0.119733 0.052136 0.161662 -0.081395 0.108415 0.087331 0.013962 -0.099406
 -0.032824 -0.034455 -0.003471 -0.111411 -0.090046 0.043398 0.002580 0.124528 0.124808 -0.110392 0.145952 0.093447 0.042759 0.040268 -0.155045 0.096415 0.043560 0.096467 -0.069388 -0.126892 -0.075803 0.086006 -0.012934 0.065178 0.006471 -0.152412 0.105754 -0.071054 -0.036794 -0.094065 0.123335 0.115329 -0.002909 -0.080612 -0.104391 -0.155233 0.077417 -0.036014 0.036014 -0.075139 -0.110449 0.150395 0.089526 0.021586 0.039747 0.130515 0.145438 -0.252744 -0.122070 -0.010394 0.070129 0.099805 -0.082951 -0.104438 0.045875 -0.052644 -0.000612 0.014840 0.097032 -0.061995 0.032309 0.069234 -0.140306 0.126944 0.133159 -0.047772 0.077893 -0.055117 -0.042664 -0.095054 0.085199 0.024403 -0.129133 -0.030979 0.008267 0.086439 0.055164 -0.104313 0.004263 0.051773 0.031800 -0.131679 0.072221 0.000428 -0.076995 0.108504 0.084321 0.124316 0.032862 -0.146443
 -0.086181 -0.118911 -0.133583 -0.087384 0.102529 0.132788 0.027149 0.074950 -0.030871 0.045773 -0.047503 0.002135 -0.123752 0.096526 0.121333 0.146071 -0.016950 0.112368 0.116101 0.139527 0.051641 -0.104285 0.074195 -0.040210 0.140951 0.099292 -0.071807 -0.137229 -0.044158 0.048264 0.080424 0.109683 0.004713 -0.030849 0.020530 -0.054057 -0.137962 0.014113 0.044454 0.008868 0.114933 0.077261 -0.025580 0.053180 0.105926 0.162835 -0.145181 0.097022 -0.002739 -0.017339 -0.088575 -0.087414 0.052311 -0.028406 0.126316 -0.120790 -0.065765 0.060428 0.041458 0.144874 0.096411 0.030663 0.071878 -0.069044 -0.021125 0.024616 -0.018717 -0.074157 0.013959 -0.103451 -0.057251 -0.052555 0.130360 -0.011803 -0.143089 -0.125601 0.107069 0.026313 0.078414 0.082304 0.033096 0.003026 0.111306 -0.043146 -0.108027 0.049680 -0.080718 0.093657 -0.051259 0.066365
 -0.062904 -0.158438 0.084924 0.129302 -0.044513 -0.030417 -0.014435 -0.107388 0.107515 0.055971 -0.017181 -0.049131 -0.167221 0.138452 0.003583 0.050784 0.058411 -0.148351 0.089993 0.130434 -0.127165 0.115720 0.074781 -0.000174 0.065053 -0.076797 0.060654 0.001593 0.044664 -0.042373 -0.148302 -0.036181 -0.073262 -0.116479 -0.211578 0.047312 0.036625 -0.025819 0.036269 -0.119910 -0.013459 -0.041537 0.050537 -0.028098 -0.011255 0.078846 -0.079089 -0.099513 0.130721 -0.037087 0.010699 -0.069318 -0.031637 -0.033481 0.037480 -0.106666 -0.054290 -0.006731 -0.110080 0.015902 0.069969 -0.154935 -0.097659 0.121307 -0.022789 -0.090633 0.030606 -0.143019 0.005629 0.029174 -0.031717 -0.018637 0.112545 -0.056116 -0.094069 -0.096876 0.032928 0.110260 0.047686 0.132685 0.048190 -0.037949 0.011699 0.016503 0.008859 -0.103327 0.120064 -0.002614 0.028620 0.016784
 -0.053592 0.177352 0.115987 -0.072686 0.039585 -0.026904 -0.015284 0.154891 -0.082122 0.115501 0.007935 0.034245 -0.067333 -0.054634 0.116816 -0.035349 -0.121325 0.036832 -0.054336 0.007342 -0.100070 0.169749 0.022357 0.032997 0.110259 -0.090947 -0.094869 0.033064 0.098225 -0.122686 -0.046605 0.086600 0.190866 0.115035 -0.008474 -0.086519 -0.045054 -0.123541 0.104848 0.127746 0.018559 0.117747 -0.115042 0.040984 -0.041326 0.150627 0.102494 0.005027 -0.018479 0.091100 0.001051 -0.099807 -0.001456 -0.090525 0.086882 -0.092743 -0.126456 0.040004 -0.014046 0.102262 0.127666 0.009538 0.121725 -0.092864 0.053168 0.048319 -0.125657 -0.083271 -0.072791 0.151134 0.001024 0.070338 0.089324 0.037215 0.071140 -0.131254 -0.057827 -0.016554 0.036559 -0.010987 -0.042105 0.192964 -0.073072 0.066832 -0.066980 -0.060632 -0.049611 -0.096946 0.062828 0.127379
 0.133231 0.071014 -0.033922 -0.023437 -0.098735 0.121360 -0.144703 0.071915 -0.107645 -0.132194 -0.140270 0.152759 0.149029 -0.080043 -0.156333 0.109758 0.032380 0.047224 0.090992 0.054308 -0.039154 0.146954 -0.059921 -0.003877 0.078834 -0.045512 0.025631 -0.011098 0.078606 0.138124 -0.012350 -0.110414 0.120767 -0.127755 -0.037058 0.045944 -0.116700 0.106867 0.130326 0.015257 0.129384 0.089894 -0.078195 0.095626 0.079798 0.091812 0.082892 -0.060385 0.083534 0.128202 0.056161 -0.006483 -0.029738 0.081898 0.030241 0.077246 -0.006973 -0.078381 0.087903 -0.070947 0.059178 -0.129696 0.010760 -0.064351 0.052290 -0.090893 0.077849 -0.009352 -0.018450 -0.061041 -0.133151 0.052443 0.085755 0.020048 0.037985 -0.041049 -0.044998 0.017818 0.023752 0.163160 -0.130802 0.054946 -0.028971 -0.119648 -0.026008 -0.010759 -0.025211 -0.189578 -0.034062 -0.070293
 -0.031263 0.033047 -0.114294 -0.101611 -0.023112 -0.080463 0.025976 -0.009792 0.095713 -0.066619 -0.070667 0.030576 0.006829 -0.017438 -0.122256 0.008686 0.010019 0.095914 -0.001394 0.003531 0.128989 -0.074030 0.063493 0.035926 0.102696 0.096643 0.078070 -0.133728 -0.127091 -0.121389 0.004402 0.144269 -0.137846 0.115288 0.088344 0.122319 0.133597 0.048672 -0.134839 0.044657 -0.038068 0.059073 0.060181 -0.013320 0.015932 -0.115020 0.134169 -0.190660 -0.097520 0.081646 0.123921 -0.024039 0.004382 0.128183 0.145558 0.071120 0.015489 -0.071098 -0.014168 -0.057062 0.122519 0.018711 0.165727 0.072682 -0.000328 0.031224 -0.143754 0.064467 0.092853 -0.032562 0.141682 -0.089520 0.159846 0.061206 -0.022219 0.110476 0.110652 -0.029644 -0.000216 0.026208 0.037482 0.157175 -0.116632 0.003810 -0.110445 -0.008488 0.098239 -0.021974 0.168044 0.074034
 -0.049331 -0.002404 -0.116994 0.100078 0.104752 0.133327 0.074104 -0.103550 0.084688 0.130621 0.075384 0.077820 -0.087396 -0.095651 0.081634 -0.041718 -0.096899 0.156937 0.003323 -0.065390 -0.189462 0.112847 -0.096939 -0.083116 0.141564 -0.128120 -0.023758 0.157122 -0.142883 0.012961 -0.102104 -0.038038 -0.143670 0.091150 0.163707 -0.020219 0.104633 0.076934 -0.136508 -0.039475 -0.097959 0.055935 -0.088532 -0.162481 0.125882 0.043182 0.102841 -0.098247 -0.059542 -0.136257 0.039267 -0.036976 0.015378 -0.068144 0.051065 0.130799 0.048609 -0.083043 -0.035347 -0.059480 0.080907 0.001334 -0.105666 -0.022296 0.063654 -0.095302 0.075282 -0.009393 0.117911 0.092452 -0.094731 -0.098600 0.119609 -0.008807 0.044128 -0.108146 -0.030793 0.148480 -0.010057 0.085166 0.145862 -0.057861 -0.005832 -0.107638 0.015382 0.017697 -0.108425 0.072557 0.131524 -0.098216
 -0.014589 -0.071945 0.138083 0.017608 -0.096638 -0.038415 -0.100201 -0.107527 0.038363 -0.059730 -0.074311 0.123273 0.066243 0.065918 -0.005922 0.018885 -0.101712 -0.020027 0.005593 -0.042247 -0.058955 -0.001174 0.088203 0.104176 -0.118510 0.145739 0.040974 0.153983 -0.076492 0.044669 0.127041 -0.092757 0.089298 -0.072421 0.003678 -0.019679 0.079585 -0.081683 0.049337 -0.111753 0.051908 0.089604 0.140528 -0.072973 -0.044611 -0.048889 -0.090856 0.139894 0.028812 0.075193 0.102870 0.149831 -0.125414 0.116124 0.043880 -0.039378 -0.083325 -0.071267 0.065817 0.100936 0.067459 -0.019917 -0.092556 -0.091644 0.129061 -0.045199 -0.072221 -0.045896 0.067896 0.131306 0.029135 0.110765 0.097821 -0.004718 0.134424 0.118653 -0.053696 -0.126555 0.147762 0.008065 -0.098511 -0.073421 0.046471 -0.030818 0.040375 0.058541 -0.038523 0.128066 0.070011 -0.083635
 0.045778 0.079554 0.019327 -0.069746 0.038389 0.067915 0.005838 0.023116 0.146217 -0.042325 -0.095239 -0.041322 -0.051588 0.070787 -0.007558 0.122627 0.029352 -0.106247 0.135300 -0.115612 0.062618 0.099593 -0.060707 0.046793 0.121072 -0.104866 -0.040134 0.133954 0.014140 0.127097 0.070102 0.129175 -0.079340 0.069304 -0.025365 -0.080350 0.109739 -0.084183 0.035660 0.043374 -0.090776 0.006072 -0.081006 -0.027309 -0.095788 0.089972 -0.002328 -0.258208 -0.037741 -0.120309 -0.075625 0.062998 -0.018352 -0.046116 -0.114773 -0.002351 -0.105172 0.023315 -0.086022 0.119675 0.124473 -0.022883 0.072203 0.104229 0.023788 -0.005994 0.070969 -0.128410 -0.136782 -0.030522 -0.067975 -0.132004 0.100356 0.011730 0.121859 -0.094168 -0.017473 0.057819 -0.004965 0.030233 0.146337 0.146091 -0.154873 0.030832 0.124297 0.113431 0.006285 -0.151638 0.166260 0.135103
 -0.045982 0.069685 0.091738 0.159671 -0.086750 0.087136 0.070145 0.043657 -0.004067 -0.081730 -0.136460 -0.110946 0.054809 0.013300 0.021704 0.052910 0.014565 -0.000322 0.143192 -0.084349 0.001094 -0.041182 0.116001 -0.099891 0.004044 0.025472 -0.128310 -0.054699 0.197392 -0.045912 -0.109995 -0.125675 -0.069192 0.001770 -0.186928 0.177719 -0.129824 0.093575 0.137199 -0.005309 0.090790 0.110535 0.012332 0.121731 0.115410 0.172266 -0.144232 0.048483 0.031197 -0.048572 -0.088631 -0.032005 0.011839 -0.050997 -0.011514 0.076359 -0.011122 -0.035692 0.079354 0.150478 0.021831 0.093109 0.110864 0.132047 -0.106460 0.037356 0.007087 0.149179 0.009939 -0.031053 0.155995 0.047782 -0.102715 -0.109018 -0.086848 -0.002761 -0.007844 0.138831 -0.100150 -0.065208 -0.006456 0.010419 0.097735 -0.116282 -0.031174 0.059963 -0.090639 0.029963 0.033159 0.111045
 -0.043982 0.155431 -0.123676 -0.104426 0.014571 -0.063815 0.000724 -0.041422 -0.130990 0.070764 0.146451 -0.068241 -0.026468 0.106611 -0.109819 -0.127148 0.027859 -0.117422 0.120672 0.055476 -0.036929 -0.062308 -0.118707 0.091272 -0.059157 0.174846 -0.066285 -0.019855 0.088007 0.095403 -0.091026 0.040165 0.029886 0.108513 -0.120637 0.017039 -0.068237 -0.019436 -0.011246 -0.103055 -0.060981 0.002419 -0.115677 0.086111 0.030938 0.092397 0.057447 0.045187 0.102403 0.009013 0.019329 -0.084348 0.010474 -0.117468 -0.016751 -0.097991 -0.129327 -0.017617 0.082378 -0.098349 -0.005137 0.062327 -0.081956 -0.104458 0.107780 -0.033461 -0.137727 0.116356 -0.115270 -0.014296 0.008503 0.010192 0.156335 0.114757 -0.099819 -0.023425 0.143656 0.034075 -0.018315 0.092256 0.091150 0.049791 0.150226 0.087301 0.143911 0.155893 0.178098 0.089247 0.095191 -0.144064
 -0.047854 0.067380 0.103624 -0.137119 0.013208 0.104361 0.135564 -0.051434 0.124975 -0.098927 -0.082976 -0.091011 -0.100346 0.082363 -0.129151 -0.002571 -0.108501 0.020280 -0.005038 -0.117250 0.090194 -0.044243 -0.113189 -0.091759 0.044687 0.088536 0.023691 0.138200 -0.167143 0.020231 0.157975 0.035948 0.022905 0.017806 0.006706 -0.028046 0.043813 -0.093332 0.037248 -0.018404 -0.043877 0.130169 0.045839 0.042751 -0.113305 -0.041676 0.089415 -0.183487 -0.112671 -0.120690 0.129908 0.155086 0.069548 -0.103619 -0.039901 -0.092344 0.129826 0.000682 0.154995 0.178555 0.107214 0.101209 -0.064717 0.091738 0.048958 0.027459 -0.106950 -0.158274 0.155961 0.068860 -0.057906 0.012739 0.149297 0.106107 0.094316 0.097989 0.133961 -0.040857 0.007064 0.016929 -0.087668 0.093199 -0.050493 0.079682 0.096494 -0.032059 0.162572 0.086590 0.194871 0.091683
 -0.088023 0.097487 -0.061484 -0.005573 -0.042286 0.138160 0.042380 0.022769 0.141597 -0.154956 0.088248 0.114149 -0.061292 -0.100249 0.048337 -0.057704 0.034634 0.141518 0.070465 0.001193 -0.078062 0.000627 0.027851 -0.106941 0.069012 0.022986 0.071171 0.100004 -0.007315 -0.061599 -0.078024 -0.084587 -0.155477 0.055297 0.019057 0.123653 0.046145 0.086883 -0.010551 0.029559 -0.019865 -0.000153 -0.000427 -0.150852 0.079943 -0.103394 0.125281 -0.164455 0.006880 0.076009 0.085754 0.132427 0.084375 -0.023371 -0.078628 -0.103402 -0.068261 0.129573 -0.059546 -0.017613 0.037448 0.040677 -0.089269 -0.118064 0.101837 -0.093677 0.126170 0.003789 0.024802 -0.022611 -0.080178 0.062278 -0.004494 -0.035223 -0.055912 -0.034004 -0.114180 0.003043 0.086444 -0.021316 0.119028 -0.006459 -0.039660 -0.097258 0.091344 0.081064 0.139277 0.107968 0.043041 0.115405
 -0.013392 -0.017201 0.059288 0.056724 0.173380 -0.016671 -0.104745 -0.036855 -0.098851 -0.085295 -0.002823 0.071199 -0.075213 -0.084192 0.154023 -0.109755 0.101064 0.089512 0.054510 0.070637 -0.055467 -0.009377 0.085298 0.118840 0.026656 0.034269 0.144331 0.043385 -0.055077 -0.007677 -0.048162 0.093080 0.001383 0.095961 -0.079792 -0.058556 -0.107612 0.033951 -0.131744 -0.056025 0.014858 0.021770 0.095851 -0.058303 -0.030074 -0.070407 0.020103 -0.006285 -0.171840 -0.109409 -0.112385 -0.070487 0.009773 0.092252 0.022855 -0.112121 -0.004643 0.087087 -0.009101 0.109260 0.112882 0.083462 -0.035249 0.054918 -0.009951 0.134329 -0.065720 0.066797 -0.050776 0.194840 -0.059681 0.064981 0.085302 0.021660 0.138479 0.117089 0.140805 0.025840 0.111993 0.171280 0.115773 0.065471 0.016497 -0.042044 0.153953 -0.118657 -0.001520 0.115785 -0.064368 0.075387
 0.043740 0.056625 0.021601 0.132536 0.024590 -0.139055 -0.007914 -0.066806 0.056510 -0.080423 0.137021 0.011730 -0.148464 -0.040732 -0.095350 0.126689 0.071848 -0.087323 0.118389 0.042081 -0.145350 -0.070954 0.050414 0.111052 0.115990 0.060411 0.053471 -0.025084 -0.077551 -0.115284 0.006442 -0.011597 -0.014025 0.114724 -0.150414 -0.026094 0.128086 0.013560 -0.013695 0.103531 -0.068543 0.008132 -0.076939 -0.135251 0.074364 -0.063039 -0.047275 0.021225 0.070366 0.091103 0.047088 -0.142221 0.145484 -0.072068 -0.024017 -0.013355 0.012767 0.052565 0.106801 0.089882 0.088808 0.027962 0.071032 0.141254 -0.110830 0.054327 0.047806 0.066648 -0.171729 -0.131226 0.022657 0.036974 0.138470 -0.140248 -0.001637 0.000907 0.147376 -0.074674 0.013803 -0.125437 -0.141839 -0.057859 -0.169592 0.038524 0.103036 0.129687 -0.145134 -0.090237 0.079242 0.131736
 0.095201 0.105085 -0.114155 0.021691 0.130931 -0.083616 -0.132643 0.094714 0.130612 0.024191 -0.052738 -0.065580 0.080380 -0.046026 -0.070854 0.089701 -0.055179 -0.046920 0.095338 -0.016624 -0.032137 -0.003849 -0.047850 0.057885 -0.088314 -0.023202 -0.073781 -0.118019 -0.011816 0.097354 -0.123660 -0.104820 0.068310 -0.015914 -0.008680 0.136967 0.042870 0.083595 -0.117867 -0.008917 -0.008703 -0.040234 -0.041782 0.156971 -0.067349 0.103949 -0.142910 0.041289 0.141555 -0.064953 -0.133665 0.003383 0.100822 0.048791 -0.074905 0.116429 -0.044798 -0.036299 -0.034704 0.034361 0.078317 0.066046 0.000969 0.028953 -0.010239 -0.043278 -0.055669 -0.190397 0.025063 0.068144 -0.093511 0.099867 -0.027042 -0.134526 0.044135 0.109306 0.013256 0.032264 0.019163 0.126180 0.137003 -0.047707 0.018401 -0.073796 0.073717 -0.034136 0.116035 0.133608 0.153808 0.038007
 -0.038322 0.056690 -0.091300 -0.032565 0.093658 -0.067791 -0.038637 -0.124716 0.137969 0.050612 0.093357 -0.080792 -0.102098 0.116055 -0.009893 -0.102954 -0.101056 -0.034364 0.045567 0.020097 -0.057851 -0.112809 -0.059540 -0.107518 0.118573 0.117250 -0.039556 -0.090097 0.240134 0.091581 0.011481 -0.061958 0.032879 0.107609 -0.095378 0.058514 -0.022564 -0.017792 0.071217 -0.088887 0.141756 0.076264 0.068741 0.199008 -0.105424 0.124429 0.030392 0.116403 0.004368 -0.082975 0.063287 -0.037863 0.103947 0.076728 -0.087882 -0.086958 -0.123674 0.024807 0.154218 0.082156 -0.089385 -0.065680 -0.088906 0.157573 0.148017 -0.023322 -0.053971 0.104127 0.052826 0.141830 0.015678 -0.101578 0.173315 -0.049852 0.086643 -0.001786 -0.148970 -0.021354 0.031436 0.057815 0.040312 0.127991 -0.015473 -0.005028 0.158003 0.140469 0.092004 -0.106285 -0.152013 0.118826
 -0.132532 -0.119142 0.113006 0.037732 0.133241 0.083554 0.061828 0.069040 0.060421 -0.040348 -0.116121 -0.098812 -0.121430 0.102781 -0.063874 0.003555 0.098775 0.048855 -0.057474 -0.137580 0.087539 0.120828 -0.046208 -0.077043 0.018092 0.017343 -0.111146 0.078840 -0.141763 -0.014781 0.116010 -0.065898 -0.089899 0.137907 0.091502 0.113427 -0.123000 -0.142893 -0.061665 -0.006251 -0.005563 0.026627 0.154726 -0.015984 -0.017924 0.114433 0.051553 -0.085206 0.045445 -0.123410 -0.038633 0.019098 -0.059338 0.048055 -0.117429 0.124639 0.067223 -0.048638 -0.148448 0.053130 0.157488 0.107889 0.041493 -0.078426 -0.004396 0.057695 0.013362 0.057846 0.040611 -0.096124 0.076785 0.047461 -0.090386 0.001641 0.109491 0.081735 0.080934 -0.027062 0.048031 0.027735 -0.096471 0.124209 -0.121835 -0.115068 0.032310 -0.131757 0.122383 0.057553 0.023131 -0.027867
 -0.072620 0.103905 0.024171 -0.158772 -0.091828 0.148914 -0.039090 -0.066120 -0.018809 -0.047434 -0.107383 -0.013479 0.035902 -0.128288 -0.074912 -0.101590 0.030067 0.111311 -0.114461 -0.032451 -0.166253 0.099236 0.072347 0.102310 0.067849 -0.079896 0.022249 -0.079158 -0.009713 -0.124198 0.137386 0.034991 -0.143585 -0.034374 -0.079805 -0.003600 -0.055488 -0.075080 -0.098448 0.013639 -0.115313 0.016840 -0.002964 -0.060107 -0.027819 0.086791 0.039925 -0.209412 -0.064333 -0.019644 0.043082 0.012417 -0.112472 -0.132983 0.108039 0.116001 0.014527 0.119994 -0.148467 0.049311 -0.077165 -0.053059 -0.008277 -0.053261 0.043611 -0.041924 -0.063606 -0.180838 -0.078831 0.118241 -0.090640 0.075495 -0.085020 -0.081878 0.102312 0.004549 -0.113460 -0.015385 0.069325 0.076805 0.116510 -0.047562 0.003122 -0.076628 -0.184625 0.088989 0.043360 0.060464 0.142114 0.128664
 -0.022342 -0.015485 -0.011917 0.118750 0.002611 -0.074521 -0.094911 -0.072818 0.116008 -0.132367 0.052724 -0.056507 0.145940 0.016264 0.071623 0.087548 0.155403 0.049744 0.041568 0.064451 -0.030779 -0.067901 -0.127995 -0.096186 0.042511 0.122759 0.067552 0.116455 -0.002858 0.135472 -0.132742 0.060120 0.081584 0.063133 0.084033 -0.147018 0.019912 -0.048219 -0.089155 0.084962 0.135918 0.016593 0.019593 -0.069204 0.140456 0.089449 -0.088357 0.120136 0.017332 0.103992 -0.128112 0.054026 -0.011251 -0.092470 0.155279 0.033565 -0.055799 0.110783 -0.126410 0.034998 0.058172 -0.107463 -0.022781 -0.128259 -0.011283 -0.049024 0.036979 0.028982 -0.112098 0.125111 0.064060 -0.099332 0.005668 -0.000675 0.065202 -0.106656 -0.131509 -0.067970 0.081397 0.017019 0.126274 -0.054177 -0.085410 -0.131527 0.106869 0.100661 0.123235 0.075449 0.034351 0.026266
