3
90 180
30 90
2 30
 0.065018 -0.032924 0.010519 0.187554 -0.065556 0.003805 -0.026468 -0.112936 -0.065456 0.002092 -0.070245 -0.157018 0.036365 -0.084471 0.001261 0.125618 0.009137 0.069108 -0.075684 -0.003396 -0.106365 -0.077008 -0.061706 -0.180130 0.036241 -0.032932 0.095867 0.185682 0.101424 -0.114370 0.078450 0.066608 0.023941 0.035948 -0.055172 -0.112805 -0.020318 -0.001157 0.020363 0.004342 0.033016 -0.016457 0.019038 -0.089578 -0.032992 0.077465 0.000992 0.005485 -0.114392 -0.007729 0.153739 0.016492 -0.021133 -0.186434 -0.037368 0.079775 0.029238 -0.018009 -0.193982 0.046115 -0.060160 0.128956 0.015961 0.056272 -0.084632 0.036051 0.117827 0.118042 0.029958 0.005423 -0.165855 -0.105908 0.030915 0.041927 0.122679 0.041674 0.000589 0.053178 -0.103394 -0.117651 0.088324 0.100779 0.058697 -0.127017 -0.110363 0.028652 -0.048101 0.129906 -0.037624 -0.007400 0.071661 0.110003 -0.116434 0.063724 0.022959 0.055907 -0.102255 0.049257 0.073433 0.176840 0.008318 -0.054375 0.096586 0.125310 0.066919 0.188438 -0.008662 -0.110824 -0.145076 0.103596 0.098461 0.218138 -0.023330 0.090533 -0.078043 -0.126732 0.065020 -0.029403 0.015641 -0.067553 0.117336 0.043118 0.131895 0.094930 0.003421 -0.093436 -0.126695 0.052479 -0.115102 0.185657 -0.144626 0.022969 0.020770 -0.053588 -0.085099 0.114018 0.024432 0.081716 -0.069356 -0.118528 -0.045984 0.078754 0.087088 -0.173429 -0.121960 -0.102555 0.114558 -0.032879 0.046106 -0.135172 -0.003891 -0.035253 -0.075454 0.063409 -0.145412 0.084916 -0.016947 -0.076885 -0.056182 0.007674 -0.006165 -0.111102 -0.060997 0.124792 -0.048905 0.183013 -0.015784 -0.166110 0.058425 0.010212 -0.014743 0.126840 -0.122814 -0.060648 -0.074723 -0.029016 -0.093917 0.216716 -0.144854 -0.072110
 0.017624 -0.059694 -0.044338 -0.084501 0.001819 0.081232 -0.086695 0.052664 0.138831 -0.017798 0.032826 -0.043384 -0.064105 0.036051 -0.054301 -0.131650 -0.037690 -0.049884 0.082064 0.068453 -0.062954 -0.003730 -0.036307 0.030158 -0.002159 0.007527 -0.113471 -0.109757 -0.112571 0.005189 -0.077736 0.010625 -0.049115 0.115687 0.001393 0.016523 -0.055603 -0.156094 0.127440 -0.066591 -0.039115 -0.063267 0.062097 0.038692 -0.081750 0.142554 -0.005776 0.109272 0.003804 -0.094466 0.115051 0.135546 0.016591 0.083889 0.004870 0.013821 0.157457 0.147144 0.109474 0.000246 0.024123 -0.026648 -0.010245 0.140530 -0.061067 -0.014528 0.154816 0.011330 -0.054339 0.080984 -0.085831 -0.094725 0.074719 -0.012274 0.046989 -0.112750 0.017769 0.030024 0.024714 -0.165186 -0.050380 0.025659 0.098583 -0.104360 -0.063160 -0.012781 0.059365 -0.094186 -0.098280 -0.066312 0.032460 -0.019972 0.086362 0.035750 -0.119105 0.038986 -0.086929 -0.068537 0.011929 0.021552 -0.038400 -0.001467 -0.128565 -0.155494 -0.019478 0.019166 -0.124025 0.115034 0.090653 -0.123372 -0.009424 -0.109693 -0.019297 0.057656 0.030526 -0.137849 0.089113 0.005583 -0.163343 0.126974 -0.043766 -0.033564 0.161847 0.144077 -0.140871 -0.009387 0.074352 -0.148139 -0.107335 -0.023163 -0.034960 -0.129689 0.109196 0.039082 -0.023425 -0.124427 -0.162501 -0.023806 0.137335 0.026238 0.120560 0.050023 -0.155207 -0.106637 -0.013594 -0.015488 0.099972 0.100258 0.100036 -0.096757 0.049317 -0.113629 0.028693 0.118361 -0.095055 0.028727 -0.088823 0.038737 0.064187 -0.126618 0.075141 -0.144467 0.160264 0.060675 0.110434 0.048651 -0.022122 -0.019068 -0.050972 0.002696 -0.053550 0.067743 -0.134744 0.081938 0.064130 0.075085 0.114002 -0.033354 -0.068828 -0.043000
 0.131642 -0.026964 -0.067725 0.029020 -0.099730 0.017462 0.031534 -0.032878 0.066935 -0.135286 0.098983 -0.153605 -0.053459 -0.091282 0.149063 0.055533 0.041481 0.025624 0.033117 -0.056741 0.074345 0.115293 -0.149911 -0.159479 -0.066640 -0.145132 0.000878 0.064085 -0.123876 0.101859 0.057743 -0.021817 0.026402 0.134700 0.002118 -0.127773 -0.036812 0.020193 0.127572 0.051665 -0.066906 0.022587 0.093914 -0.038019 0.062090 -0.052347 -0.158399 0.084467 0.079565 0.071424 0.113388 0.119763 -0.013975 0.014780 -0.117172 -0.088578 -0.104194 -0.096191 0.115630 0.051127 -0.060188 -0.034663 0.162853 0.062113 -0.126481 -0.106137 -0.131534 0.105941 0.051643 0.146693 0.054395 -0.036594 0.161612 -0.012360 0.067028 -0.107353 -0.027413 0.027137 -0.073995 -0.097100 0.133141 -0.062795 -0.005832 -0.019275 0.105903 -0.107770 -0.121123 -0.000500 -0.116582 0.058285 0.109260 -0.067962 0.001862 0.157667 0.096694 -0.073974 -0.000668 -0.098857 0.095993 -0.023631 -0.048039 -0.138365 0.057642 -0.128831 0.034165 0.097571 -0.102058 -0.037236 -0.014373 -0.079237 0.127175 0.117042 -0.117614 -0.128348 0.041913 -0.022736 -0.034151 -0.050207 -0.006981 -0.169793 -0.004550 0.114543 -0.053201 -0.019948 0.106124 -0.081416 0.094783 0.052938 -0.025387 -0.005852 -0.152746 -0.141410 -0.016594 -0.121908 -0.017398 -0.052705 0.098222 -0.105845 -0.118164 0.121938 -0.112329 0.151488 -0.005709 -0.029926 -0.095072 -0.075633 -0.052050 -0.087743 -0.012078 -0.014226 0.104550 -0.140287 0.152823 0.143501 -0.005620 -0.077978 0.015532 -0.073281 -0.090079 0.055052 -0.122847 0.061003 0.111240 -0.021957 0.098267 -0.000648 0.088717 0.011507 0.105712 -0.165350 0.067749 -0.061314 0.069451 -0.015783 0.086106 0.036967 0.031946 -0.126965 -0.022704 0.057710
 -0.071774 -0.108399 0.114620 0.007186 0.087274 -0.138068 0.034735 0.096041 0.148293 0.113763 -0.045984 0.087818 0.004294 0.057703 -0.029180 -0.029029 0.095039 0.006917 0.159033 0.057393 0.058325 0.105061 -0.137986 -0.119352 0.003721 -0.072889 0.071664 0.049515 0.059339 -0.024593 -0.040098 0.108336 0.111432 0.092448 -0.081031 0.031742 0.007830 -0.044667 -0.036598 0.099482 0.053269 0.076884 -0.051131 -0.140291 0.014438 0.138911 -0.097306 -0.179621 -0.126136 0.000004 -0.108251 -0.069411 -0.073335 0.065165 -0.014349 0.097197 0.122729 0.012414 -0.027186 -0.062141 0.057692 0.101809 0.074116 0.088758 -0.162313 -0.108545 -0.069437 -0.063212 -0.014535 0.169844 -0.083696 -0.162447 0.105876 -0.022722 0.014528 0.007506 -0.139608 -0.173067 0.141729 -0.090573 -0.059910 0.033401 0.113154 -0.149581 0.113065 0.134417 0.111147 0.173706 -0.044206 -0.063262 0.060834 0.038318 0.076206 0.074925 -0.013238 0.053715 -0.095263 -0.071197 0.002400 -0.053086 -0.174228 0.000054 -0.133499 -0.048700 -0.111099 -0.073077 -0.043628 0.014630 0.046858 -0.121823 0.059113 -0.100552 0.019131 -0.019536 -0.045172 -0.147758 0.143033 -0.020032 -0.056113 0.082568 0.134880 -0.085838 -0.010702 0.042785 -0.087420 0.065457 0.157798 -0.058698 0.011235 0.167707 -0.109978 -0.104867 0.010151 -0.040511 -0.018796 0.027095 -0.118368 -0.026365 0.004804 0.075258 0.079552 0.061418 -0.080985 -0.145886 0.092811 -0.142806 0.097796 0.036921 0.080712 -0.035971 -0.133749 0.070813 -0.026656 -0.066484 0.031754 0.026967 0.090074 0.092882 -0.091076 -0.023347 -0.029915 -0.109816 0.108658 0.035147 0.160503 0.112905 0.040939 0.091233 -0.023160 0.090721 0.028835 0.149384 -0.118897 -0.146939 0.053165 0.016112 -0.079564 0.188541 0.040952 0.017263
 0.081382 0.022443 0.080151 0.021921 0.030379 -0.133474 -0.014408 0.102161 0.107303 0.052262 0.123447 0.026701 0.075859 -0.046922 -0.072665 -0.036687 -0.123305 -0.067316 -0.013757 -0.034889 0.045181 -0.137514 0.014867 -0.018548 -0.045341 0.008847 -0.026149 0.139957 0.041798 0.095571 -0.027439 -0.130357 0.055209 -0.119745 0.038460 -0.022344 0.143715 -0.086986 -0.134751 -0.005928 0.143828 -0.001294 -0.085368 -0.110512 -0.113901 -0.125819 0.017072 -0.052858 -0.145107 0.110131 -0.056909 0.039053 0.066047 -0.054957 -0.103084 -0.065978 0.020530 0.094663 0.052383 -0.097291 0.090983 -0.017205 -0.034044 0.039403 -0.133935 -0.034104 -0.100683 -0.025586 0.135532 0.076442 -0.042066 0.030154 -0.132285 0.023853 -0.014722 -0.002279 0.081246 -0.064931 -0.136775 -0.057048 -0.060897 -0.102423 0.106039 0.031380 -0.138316 -0.000733 0.106370 0.034274 -0.017064 -0.076825 -0.096707 -0.143282 -0.013643 0.055044 0.029337 -0.076098 0.140380 -0.031242 0.024376 -0.052320 0.006149 -0.087608 -0.111812 -0.035604 0.073983 -0.003460 -0.007992 0.083416 -0.057995 -0.095026 -0.102788 -0.118869 -0.060235 -0.010377 0.063678 -0.136726 -0.076804 -0.069025 -0.038096 -0.137270 -0.015452 0.111755 0.118179 -0.013371 -0.026213 0.128892 0.002209 0.039550 0.052079 -0.092066 0.081445 -0.143070 0.064655 -0.061604 -0.023202 0.083274 0.043654 0.068370 -0.048670 0.056176 -0.073166 -0.144220 -0.130383 0.032470 -0.143053 0.035616 0.087124 -0.091699 -0.037078 -0.143289 -0.145762 -0.145443 0.058799 0.142065 -0.066081 -0.046022 -0.144340 0.068361 0.099870 0.015538 0.056876 0.076367 -0.141559 0.051730 -0.035872 -0.084247 0.036499 0.043484 0.146392 -0.030288 -0.036829 -0.050636 -0.124628 0.108121 -0.062762 -0.109300 0.027346 0.081009 -0.087375 0.140628
 0.010371 -0.012762 -0.142887 -0.047889 0.104758 0.013661 -0.103047 -0.018210 -0.144390 -0.137156 0.036942 -0.086396 -0.047692 -0.074494 0.099529 -0.141117 0.095895 0.058690 0.126354 -0.005155 -0.017261 0.058637 0.130042 -0.055949 -0.048305 -0.043917 -0.015269 -0.003817 -0.072203 -0.096521 0.139630 0.039060 0.110045 -0.063053 0.089305 -0.033969 0.145323 -0.109408 -0.021983 -0.080510 -0.134368 0.059227 -0.081690 0.026513 -0.083577 0.135755 -0.058061 -0.123678 -0.051563 0.015898 0.100902 0.101267 0.080262 0.010232 0.028869 0.042209 -0.121420 -0.100984 0.134899 0.144145 0.035708 -0.074920 0.021280 -0.089607 0.147426 0.036573 -0.037740 0.052169 0.062906 0.109602 -0.079265 0.098255 -0.035135 -0.063641 -0.029408 -0.076374 0.011964 -0.098313 0.074816 -0.073924 -0.098788 0.102945 -0.060316 0.131113 0.101821 0.090894 0.142173 -0.041027 -0.131973 -0.112703 -0.006401 0.144876 -0.131813 0.104318 0.008464 -0.035854 0.084092 -0.097027 -0.120766 0.058209 -0.147751 -0.095546 0.109356 0.035435 -0.009324 -0.046857 0.041644 0.046496 -0.010298 0.049853 -0.097995 -0.091067 0.042899 -0.113839 -0.144910 -0.061863 -0.057034 -0.006205 -0.117860 0.077009 0.050680 0.029428 -0.060610 -0.006642 -0.056046 0.092393 0.135535 0.112718 -0.030713 -0.086218 -0.101121 0.118732 -0.046326 0.157042 0.045133 -0.156502 -0.029286 -0.029036 -0.138727 0.065142 -0.085800 -0.047634 -0.143134 -0.056172 0.059920 -0.056577 -0.047817 0.051058 -0.117976 -0.113766 0.053563 0.151666 0.013646 0.114394 -0.108392 -0.062711 0.133794 0.048664 -0.131142 -0.084695 0.138635 0.112513 0.032215 0.021627 -0.071722 -0.123986 0.032464 0.034373 -0.041717 -0.108130 0.075529 0.117534 -0.133275 0.122898 -0.020435 -0.059592 -0.143563 -0.098062 -0.042902 -0.001167
 0.116566 0.053184 -0.086454 0.108803 0.081611 0.096388 0.134579 0.032870 -0.024967 -0.071739 -0.102290 -0.036336 -0.006120 0.103294 0.136505 -0.073389 -0.152838 -0.088977 -0.072489 -0.123236 -0.128128 0.079267 0.073830 -0.146896 0.136531 -0.121687 0.103206 0.105049 0.071799 0.107628 -0.015615 -0.156437 -0.046637 -0.045758 0.123496 0.006206 -0.074519 -0.001589 -0.001879 0.025875 0.020256 0.042984 -0.034431 -0.097178 0.051477 0.049156 -0.112466 -0.036774 0.063619 0.063132 0.000608 0.036296 -0.158804 -0.086117 0.063206 0.028051 0.120381 -0.035782 -0.120461 0.089952 -0.012018 -0.053565 0.137912 -0.063037 -0.061130 -0.062598 0.091029 -0.030137 0.064533 -0.147119 -0.128719 0.089040 0.101624 -0.011885 0.091856 -0.028457 0.035192 0.061589 0.077389 -0.038534 -0.101494 0.031572 0.100682 -0.145831 -0.026164 0.000883 -0.000637 0.028443 -0.095313 0.099310 -0.065756 0.012107 0.043739 0.041535 0.028356 0.049307 -0.044212 -0.099700 0.035093 0.067874 -0.000432 0.108894 -0.021408 0.071475 -0.053841 0.106353 -0.010747 0.063350 0.115528 -0.076905 0.147948 -0.029775 0.003759 -0.061067 -0.042398 -0.047266 -0.029854 0.026701 0.062938 -0.112960 0.005825 -0.028033 0.061917 0.135977 -0.100362 -0.085932 -0.111878 -0.081583 0.135911 -0.072090 -0.056465 0.002338 0.144209 -0.159993 0.069627 -0.073307 -0.038246 0.140713 0.021218 -0.104449 0.112261 -0.122844 -0.086641 -0.085704 -0.089814 -0.168812 0.151500 -0.086384 0.024304 0.029045 0.007267 -0.063491 0.005787 -0.049525 -0.056678 0.052747 0.164933 -0.110659 -0.024943 -0.111153 0.057375 -0.082721 -0.068551 0.103710 -0.015232 -0.035077 0.063021 0.076942 -0.027551 -0.106105 0.034272 -0.130949 0.138310 0.018924 -0.041291 0.090669 -0.092767 -0.084371 -0.046051 -0.009994
 -0.147243 0.081545 -0.048356 -0.155097 0.034831 0.084590 0.108124 -0.011746 0.116207 0.108257 0.044679 0.140801 -0.105619 -0.122240 0.000330 0.043923 0.001281 -0.120158 -0.108389 -0.096977 0.052117 0.109515 0.024129 -0.133928 -0.153836 0.094396 0.044684 -0.153604 0.149575 0.113155 0.082475 -0.019134 -0.083142 0.127872 -0.116534 0.053225 0.045541 -0.103030 -0.000720 0.103035 0.109124 -0.007622 -0.068314 0.022774 0.072011 -0.067624 0.091255 0.020314 0.061052 0.032181 0.090394 0.077325 0.119694 0.155761 0.063066 -0.020869 -0.079053 0.073209 0.032527 -0.076195 -0.148991 -0.027667 0.079584 -0.098273 -0.019692 -0.102132 -0.053552 -0.008117 0.127232 0.007745 0.063190 -0.135025 0.079485 -0.070351 0.036773 -0.120034 -0.087052 0.128988 0.026242 -0.105330 -0.148629 -0.132548 -0.047492 0.158691 -0.142035 0.122800 0.069208 -0.051350 -0.057807 -0.092947 0.056868 -0.070509 -0.080923 0.060479 -0.074435 -0.126877 0.063108 0.095901 -0.151134 0.006052 -0.119654 0.071454 0.074227 0.027782 0.049616 -0.122617 0.087199 0.068126 -0.127444 0.018244 -0.030929 -0.014950 0.114963 -0.132540 -0.056863 0.120579 0.089225 0.089547 -0.082594 -0.115416 0.001475 -0.077421 0.016561 -0.026146 0.111146 0.071349 -0.038262 0.013783 0.044433 -0.104946 0.141285 -0.001375 -0.132559 -0.134025 0.003988 -0.016775 -0.009616 0.147747 -0.072378 0.063347 0.105958 -0.042998 -0.113811 -0.040670 -0.052830 0.123865 -0.099428 -0.040063 0.031768 -0.097428 -0.036942 -0.079003 -0.093265 0.062197 0.076619 0.075305 0.046295 0.030343 -0.147377 0.082261 0.096267 0.079153 0.057931 -0.090856 0.128920 -0.018542 -0.047628 -0.098675 -0.003771 0.097084 -0.040341 -0.016667 -0.136278 0.147956 -0.045545 0.120249 -0.126801 0.054903 -0.111200 0.042547
 -0.127265 -0.081317 0.108683 -0.064084 -0.155367 -0.078695 -0.126408 0.069961 0.084829 0.102890 -0.096093 -0.068237 -0.138754 0.164722 -0.090616 -0.156287 -0.150266 0.129005 -0.127462 -0.047327 0.051645 -0.145810 -0.105033 -0.013385 -0.143384 0.026272 -0.107489 0.095137 0.021325 -0.081464 -0.056640 0.089575 0.033633 -0.020310 -0.132085 0.015541 -0.145922 0.095738 0.065721 -0.128114 -0.061000 0.080499 0.100539 -0.045625 0.093823 -0.054323 -0.034480 0.083632 -0.137018 0.158332 -0.039161 -0.135232 0.079318 0.065822 -0.080650 0.087209 0.007721 0.097461 -0.075678 0.038539 -0.139498 0.099104 0.031191 0.092650 -0.124044 -0.100114 0.054334 0.163169 0.089198 -0.149717 0.072781 0.006977 -0.021637 -0.070298 0.124487 0.026721 -0.064099 -0.037334 -0.114021 -0.019932 0.025266 0.012579 0.017139 -0.090402 0.062296 0.078734 -0.005348 -0.136835 0.047445 -0.128816 -0.077378 0.038406 0.027779 0.004376 0.020015 0.085674 0.078377 0.136314 0.067238 0.109934 -0.086421 0.129785 -0.068370 -0.075067 -0.068866 -0.021099 0.011531 0.136458 -0.018139 0.149667 0.107751 -0.029156 0.000865 0.023984 0.024526 -0.087055 -0.105008 -0.055815 -0.081340 0.147231 -0.120666 -0.073126 0.085967 -0.041082 -0.157403 -0.049666 -0.135244 0.111958 0.087599 0.110400 -0.097676 0.023729 -0.063458 0.131094 -0.053902 -0.050242 -0.030428 -0.107102 -0.003836 -0.120678 -0.050839 0.113083 -0.146050 -0.011676 -0.146740 -0.016137 0.128905 -0.075051 0.091794 -0.137573 0.126708 0.079522 0.097530 0.098503 -0.074370 -0.135298 0.049287 -0.112107 0.079617 0.088504 0.115453 0.008850 -0.124013 -0.050032 -0.113638 0.070219 0.097666 0.076595 0.116191 -0.031058 -0.132254 0.021600 -0.014871 -0.140678 0.101867 -0.017859 -0.072727 0.091046 0.083863 0.006594
 0.135082 -0.006358 0.067009 0.106735 0.018090 -0.120964 -0.054044 -0.025084 -0.016248 0.129255 -0.066143 0.013052 -0.058186 -0.004139 -0.022878 -0.152289 0.077087 0.035400 -0.015187 0.125413 0.034727 0.025426 -0.092724 0.053750 -0.035951 0.136471 -0.098829 -0.157627 0.068607 0.011047 0.082709 -0.013878 -0.138207 -0.065118 -0.066097 0.120670 -0.007432 0.140755 0.053754 0.049732 -0.016416 0.133953 0.064375 0.140061 0.003579 -0.138069 -0.088522 -0.027489 -0.047534 0.003888 0.009408 0.016185 -0.103298 -0.104779 0.018154 -0.118771 -0.031051 -0.007371 -0.150283 -0.095321 0.136342 0.048605 -0.030076 0.048782 0.030310 0.044827 -0.152538 -0.006350 0.014490 0.100676 0.086203 0.037405 0.016828 0.139354 -0.053003 -0.110057 0.110898 -0.103262 0.078929 -0.087187 0.077483 0.137556 -0.052488 0.077899 -0.041686 0.047507 -0.124636 0.093800 -0.086546 -0.064677 0.056773 0.023530 -0.061305 -0.121980 0.047552 -0.136375 -0.040730 -0.058932 -0.057672 0.123031 0.079804 -0.003648 0.046763 0.158987 -0.091242 -0.147312 -0.122335 -0.119036 0.109614 0.134687 0.011754 0.027627 -0.090936 -0.134657 -0.002512 -0.081448 -0.041471 -0.078137 -0.058313 0.066209 -0.048136 0.021949 -0.005161 -0.071256 -0.067001 0.034223 -0.118592 -0.093679 0.067908 0.033505 -0.103220 0.076053 0.092863 -0.041402 0.011877 0.014832 0.076192 0.096539 0.037423 -0.033894 0.059305 -0.132248 -0.111990 -0.022550 -0.105775 0.082341 -0.041719 -0.008846 0.143235 -0.130526 -0.020664 -0.070698 -0.038520 -0.158097 -0.105249 0.071908 -0.090316 -0.127990 -0.117386 -0.094545 0.037605 0.019141 -0.074671 0.061516 -0.070814 0.027042 0.080344 -0.014823 0.137062 0.008226 -0.060431 -0.009856 -0.113347 -0.059527 -0.020277 0.118328 -0.071370 0.005536 -0.013974 -0.041214
 -0.105528 -0.000885 0.090056 0.117157 0.073547 -0.080292 -0.017574 0.024098 0.057029 0.121195 0.115361 -0.040778 -0.072575 0.114792 0.087783 -0.087449 0.099398 -0.118351 0.106245 -0.047563 -0.067962 0.004699 0.066168 -0.131489 -0.079627 -0.034152 -0.023659 -0.115581 0.089497 0.061303 0.032053 0.074117 -0.017821 -0.106716 -0.049615 -0.040911 -0.107465 0.026279 -0.034021 -0.109769 0.136514 0.131090 -0.078855 0.018336 0.020008 0.030646 -0.047139 -0.006637 -0.019633 0.135899 0.128090 -0.032445 -0.073254 0.140463 0.017084 0.066076 -0.070508 0.072927 -0.151703 0.016575 -0.049232 -0.045919 -0.105240 -0.070031 -0.134964 0.034639 -0.097298 -0.133453 -0.108714 -0.118750 -0.096601 0.134679 0.113791 0.060273 -0.012361 -0.145710 0.138076 -0.118509 -0.014767 -0.113895 -0.021634 -0.017581 -0.155564 0.014717 -0.137150 -0.106567 -0.111420 -0.152799 -0.120363 0.124324 -0.051078 -0.111778 0.109768 -0.019351 -0.050743 -0.110121 -0.154279 0.110288 -0.072927 0.032330 0.072270 -0.067968 -0.034253 -0.095940 -0.122690 0.023197 0.034570 0.046189 0.054411 0.068194 -0.083869 -0.151499 -0.062160 -0.100181 -0.008788 0.144555 -0.052869 -0.002998 -0.139106 0.127606 0.055100 0.055698 0.104182 0.070265 -0.094990 0.131608 0.034703 0.084478 -0.137957 0.025289 -0.093044 -0.023536 -0.126404 0.128981 0.001271 -0.090964 0.114432 0.006462 -0.063891 0.110976 -0.023384 -0.040749 -0.008741 -0.060351 -0.152497 0.044712 0.022612 0.073820 -0.002704 -0.044890 0.059178 -0.075290 0.080724 0.051437 0.133826 0.128225 0.090844 0.146360 0.067682 0.102892 -0.073245 0.037585 -0.139905 -0.102249 0.069015 0.126600 -0.102896 0.003513 0.102017 -0.125445 -0.014777 0.126785 0.009540 0.151353 0.013536 0.078877 -0.137431 0.100152 -0.116518 0.075044
 -0.013802 0.049490 -0.005460 0.111957 -0.110216 0.000565 0.066695 0.066396 -0.079917 0.065133 0.117144 0.097499 0.044055 0.034352 0.002236 -0.016798 -0.138078 0.028966 0.079854 -0.057384 0.154377 -0.039450 -0.056629 0.106649 -0.109121 -0.163690 -0.123847 -0.017124 -0.011238 0.076126 -0.000821 -0.132457 -0.124554 -0.071604 0.102675 -0.070710 -0.021848 -0.137136 0.003438 -0.178532 0.028224 0.055997 -0.101111 0.024430 0.162319 0.106998 -0.040125 0.032378 0.171341 0.130610 0.068674 0.047208 0.042621 -0.066225 -0.023932 0.084501 -0.015851 0.016307 -0.120415 0.144487 0.170724 -0.138367 -0.017702 -0.024026 0.068653 0.116852 0.055140 0.051716 -0.041777 -0.143588 -0.118662 -0.081204 0.041981 -0.148941 0.092673 -0.069450 -0.113584 0.109005 0.086603 0.103429 -0.013107 0.099261 -0.140691 -0.138087 0.164510 -0.048783 0.011195 -0.002063 0.062027 -0.078082 -0.055579 -0.125459 0.137237 -0.046189 -0.002621 -0.101051 0.068926 -0.080743 0.156602 -0.015327 -0.118068 0.032248 0.156378 -0.004047 0.055785 -0.130932 -0.086368 0.021707 0.144901 -0.015496 -0.026846 -0.109083 -0.006741 0.131695 -0.016811 -0.128765 -0.084749 0.052396 0.061445 -0.078543 -0.046731 0.044621 0.025339 -0.074193 -0.088041 -0.112167 0.128992 -0.094694 0.121634 0.014971 -0.083212 -0.032545 0.107660 -0.043773 0.115758 -0.154347 -0.026854 -0.137490 0.054721 0.123872 0.024729 0.101349 -0.062596 0.048095 0.107009 -0.106631 -0.116005 0.102597 -0.099066 -0.132071 -0.009295 -0.042287 0.124620 0.029421 0.001050 -0.096397 -0.097253 -0.097991 0.076488 0.092909 -0.124833 -0.021467 -0.096100 -0.047622 0.057625 0.101055 0.084804 0.026903 -0.108149 -0.104248 0.164693 0.046065 0.132761 0.155764 -0.022284 0.060511 0.107400 -0.155158 -0.000567 -0.038905
 -0.008547 0.022182 -0.032931 0.084473 -0.095075 -0.067645 -0.036695 0.013710 -0.122581 -0.023298 -0.095011 -0.004130 -0.123818 -0.100688 -0.152654 0.092394 0.046468 0.109088 0.069189 -0.012397 -0.138001 -0.037029 0.095818 0.027353 -0.125459 -0.007408 -0.125232 0.023840 0.009478 0.035816 -0.004991 -0.135875 0.072253 -0.091062 0.082884 0.111049 0.107543 -0.046404 -0.068096 -0.152313 0.131038 0.087275 -0.156057 -0.075005 -0.010500 -0.071671 -0.075926 0.023623 -0.130491 -0.128170 -0.098872 -0.124638 -0.021469 0.119088 -0.127677 -0.112877 0.072941 0.056390 -0.010124 0.138440 0.014712 -0.076713 0.006400 -0.151875 0.001962 0.075073 0.131065 0.014700 0.055343 0.056764 0.057511 0.058398 -0.078087 -0.020791 0.015656 -0.065685 0.079260 -0.133139 -0.158401 0.047216 0.132013 0.127961 -0.103002 0.019975 0.120678 0.021105 0.028289 0.040192 -0.025006 0.122601 0.005863 -0.044968 -0.036021 -0.095227 -0.041583 0.048355 0.065272 -0.123794 -0.086267 0.112348 -0.008732 0.129053 0.085556 0.118858 0.113266 0.092663 -0.018128 -0.027445 0.015770 0.022167 0.111211 -0.122062 0.055845 -0.103553 0.032111 0.021519 -0.087022 0.074337 -0.079228 -0.105588 0.044903 0.080307 0.079733 -0.053507 0.063436 0.002974 -0.118723 0.056609 -0.071746 -0.144326 0.131432 0.135112 0.000384 -0.085093 0.136410 0.104214 -0.158561 -0.044562 -0.010291 0.070353 -0.119165 -0.088997 -0.036530 0.086017 0.135477 -0.125127 0.113935 0.105423 -0.103183 0.065313 -0.052202 0.054844 -0.012716 -0.071026 0.138047 -0.056907 0.127870 0.038294 -0.089149 -0.004845 0.005810 -0.033570 -0.009812 -0.115124 0.070691 0.092015 -0.042571 0.008974 -0.050411 -0.021741 0.077315 0.021266 -0.008309 0.147015 -0.144738 -0.127796 -0.009194 0.024250 -0.010985 -0.113141
 0.054863 0.040134 -0.003659 0.041331 0.076573 0.111343 0.139630 -0.141396 0.117587 -0.069462 -0.056166 0.061779 -0.154060 0.100274 -0.080758 -0.067328 0.116445 -0.016208 -0.151480 -0.062000 -0.069434 0.093818 -0.037470 0.095641 0.004834 -0.032151 -0.080029 -0.057160 0.016048 -0.057099 -0.058073 -0.113415 0.066946 -0.008017 -0.141688 -0.013731 0.105398 0.095606 0.040364 -0.105985 -0.100301 0.015196 -0.064051 -0.134703 0.045469 -0.143137 -0.057416 -0.063265 -0.129439 0.104439 0.014063 0.066402 -0.056742 -0.082914 -0.026631 0.020308 -0.024046 -0.061622 0.069658 -0.056707 -0.101972 -0.118030 0.135158 0.104259 0.015656 -0.114630 0.109999 -0.093556 -0.102678 -0.066602 0.111077 0.090193 -0.020908 -0.007434 -0.083870 0.070082 -0.127758 -0.048318 0.062777 0.020515 0.099483 -0.098835 0.092250 0.101346 -0.072891 0.043987 -0.056405 -0.029429 -0.085841 0.138594 -0.138941 0.084387 0.007941 -0.149510 -0.035181 0.049072 -0.113879 -0.014162 -0.003385 0.055623 0.065241 -0.128088 0.081577 0.089348 0.082013 -0.128206 -0.110590 0.102966 -0.040432 -0.061165 0.119202 0.108531 -0.080026 -0.072847 -0.065702 0.107237 -0.132625 -0.043502 0.028705 0.106688 -0.153375 0.147399 0.040728 -0.094056 -0.087784 0.067085 0.140197 -0.027095 -0.129644 -0.083254 0.110239 -0.079367 0.051412 0.146285 -0.142571 -0.064219 0.144055 0.134101 0.052055 0.016742 -0.061430 -0.098761 0.047371 0.105930 0.055343 -0.131355 -0.105875 -0.007317 -0.089765 -0.105514 0.030132 0.140382 0.116431 0.027532 0.025233 -0.081223 0.063587 -0.097830 0.007709 -0.138820 -0.018113 -0.117618 -0.050044 0.134996 -0.125772 0.085756 -0.000217 -0.040481 -0.025241 -0.047545 0.094601 0.114710 -0.016145 0.053221 0.035741 -0.035338 -0.082828 -0.100649 0.140842 -0.088065
 -0.050551 0.113061 -0.054092 0.075046 -0.069204 -0.142510 0.010911 0.000479 0.121862 0.135956 -0.066094 -0.029347 -0.047466 0.079103 0.038768 0.104133 -0.143382 0.045133 -0.065919 -0.089476 -0.116739 0.147222 -0.136954 -0.079491 -0.019568 -0.096623 -0.113960 0.110787 0.030294 -0.168281 0.033528 -0.104704 -0.043677 -0.083435 0.102354 0.094083 0.108874 0.140533 -0.086385 0.100152 -0.074652 -0.051305 -0.100063 0.142497 -0.102324 -0.110212 0.111419 -0.024798 -0.067482 0.116202 0.056117 0.025320 -0.044955 0.107350 0.151603 0.068533 -0.110219 -0.027568 0.005812 0.097595 0.093935 0.132947 0.106106 -0.051388 -0.154196 -0.012036 0.082741 0.143087 -0.115624 0.128665 -0.166483 0.029541 -0.053717 0.092060 0.141543 -0.049254 0.046062 -0.113451 0.147308 -0.037131 0.043169 0.079823 -0.008087 0.116271 -0.075042 -0.068995 0.008116 0.061288 -0.030834 -0.145453 0.147492 -0.115262 -0.054735 0.131127 -0.142062 -0.018778 0.106777 0.081474 0.020786 0.050014 0.053054 -0.134879 0.129334 -0.083483 -0.123395 0.154164 -0.127894 0.104589 -0.110014 0.039065 0.043670 0.112035 -0.096569 -0.111079 0.013556 -0.055587 -0.073130 0.049574 -0.057178 -0.153466 -0.074567 -0.008499 0.152788 0.143338 -0.130274 0.007767 0.031140 0.102958 -0.119197 -0.092368 -0.075523 -0.069138 0.130103 -0.016007 -0.088199 0.027836 -0.126045 0.038785 0.013847 -0.028177 0.115447 0.089836 0.055166 0.109598 0.048438 -0.000777 0.146882 0.044768 0.118626 -0.084064 -0.074086 0.006845 0.023495 0.091941 0.119014 0.083334 -0.100592 -0.073506 0.134288 0.051404 0.084288 -0.051513 -0.083210 -0.041210 -0.132863 -0.026562 -0.074927 -0.149807 0.004123 0.018945 0.079751 0.009121 0.047870 -0.027641 -0.035379 -0.114907 0.065768 0.052372 -0.096976 0.117532
 -0.086112 -0.112172 0.025555 0.037302 0.088392 0.149377 0.123237 -0.015399 0.131511 0.063663 0.041988 -0.100062 0.074909 -0.142473 0.111865 0.042147 0.040258 0.006861 0.047746 -0.087107 -0.051770 -0.120961 0.023715 0.024465 -0.096699 0.046835 -0.125017 0.060708 -0.067401 0.123371 -0.001873 -0.143363 0.035788 -0.070877 0.156090 -0.116776 0.064737 0.040763 -0.132937 -0.123101 0.122337 0.054598 -0.048340 -0.041578 0.112883 -0.133800 0.013476 0.125660 0.099223 -0.022711 -0.088665 0.035616 0.003991 -0.074359 0.061094 0.111869 -0.016054 -0.026432 -0.078826 0.018032 0.077117 -0.065263 0.118026 -0.007715 0.032374 0.126511 0.118004 -0.051211 0.065123 -0.168378 0.012886 0.114316 0.056463 -0.066901 -0.001697 -0.057550 0.096146 0.098200 0.076451 -0.051159 -0.059769 0.087921 0.064063 -0.038146 -0.096426 0.001002 -0.058360 0.017508 0.055998 0.060180 0.132861 -0.164915 0.055832 0.002157 0.036837 0.082394 -0.034782 -0.107271 0.005994 -0.168929 0.083036 -0.021106 0.063570 0.039184 0.083747 0.059249 -0.051237 0.043546 -0.048401 -0.123459 0.027294 -0.134321 -0.053428 0.060977 0.011782 -0.124490 0.080069 -0.021688 0.174202 0.146074 -0.034385 -0.043361 0.151040 -0.107894 0.051249 0.130697 0.037724 0.045009 0.033392 0.056350 0.005695 0.123778 0.036759 0.069018 -0.101982 -0.107947 -0.087606 0.047222 -0.030844 -0.005066 -0.031837 0.110696 -0.057791 -0.054998 -0.023951 0.032584 0.140780 -0.055796 0.137407 0.126228 -0.039536 0.093646 -0.117087 -0.076406 -0.024127 0.020052 -0.076813 -0.132397 0.055890 -0.084978 -0.113981 -0.044571 -0.043998 -0.097930 -0.008924 0.115101 0.047875 0.157943 0.080854 -0.156838 0.069776 -0.142354 -0.010902 0.147173 -0.105380 -0.160373 -0.094023 -0.015936 -0.069442 0.159114
 -0.043601 -0.033453 -0.043149 -0.090166 0.116967 -0.118245 -0.046702 0.088081 -0.034867 0.069984 -0.081361 -0.073634 -0.057984 -0.012884 0.160664 -0.121945 0.132546 0.016065 0.034648 -0.160537 -0.103476 0.116500 0.044467 0.104006 0.013236 0.099777 0.036066 0.013780 0.130306 -0.023133 0.108259 -0.038453 -0.120368 -0.056781 0.070153 0.041639 -0.029677 -0.139274 0.111621 0.116841 0.125745 -0.125158 -0.108814 0.093317 0.038543 -0.044130 0.099742 -0.040084 -0.055537 0.076417 0.122402 -0.146364 0.067867 0.068181 0.097761 0.063576 -0.062982 -0.101823 0.013375 -0.134315 -0.025882 -0.133192 0.109425 -0.146770 0.119106 0.005591 0.016255 0.077135 -0.023117 0.044786 0.072415 0.129653 -0.022148 0.108344 0.129341 -0.105802 0.026752 -0.128540 -0.046985 -0.058735 -0.018742 0.138291 0.109586 0.037137 0.158996 -0.148958 0.127126 0.047569 0.085273 0.109761 -0.042753 0.076253 0.158674 0.039156 -0.061072 -0.100335 0.045234 -0.108657 -0.034647 0.074352 -0.003769 -0.051067 0.072717 -0.003498 0.024135 -0.058497 -0.045835 -0.096410 -0.121834 -0.027992 0.122574 0.093616 0.039792 -0.080204 0.123685 0.104624 -0.028632 -0.085983 0.114154 0.135351 -0.030780 -0.085642 0.166026 -0.131666 -0.088331 0.106633 0.166945 -0.173321 0.017663 -0.023613 0.103029 0.080292 0.139038 -0.034549 -0.112733 -0.125968 -0.140755 -0.056459 -0.032145 0.006284 0.166830 -0.113606 -0.070913 0.131836 0.151372 0.066891 -0.065597 -0.145575 0.150433 -0.030538 0.013969 -0.050087 0.073541 0.096041 -0.055856 -0.051852 0.037859 -0.082873 -0.127662 0.045077 0.076675 -0.077527 0.027905 -0.138628 -0.108740 0.095277 0.073162 -0.058225 -0.063794 -0.077213 0.103743 0.082296 -0.141659 -0.082707 -0.113841 -0.141108 -0.092861 -0.114364 0.068284 -0.065652
 -0.062482 -0.079061 -0.002809 -0.104308 -0.026202 0.080747 -0.064913 -0.047629 0.097469 -0.135588 0.037460 0.091097 -0.034079 -0.039580 -0.110243 0.112189 0.095506 -0.012351 -0.124396 -0.104871 0.102535 0.036433 0.043356 -0.080477 -0.037459 0.069509 -0.020558 -0.120363 0.046584 -0.092418 -0.137049 -0.130583 0.062543 0.087950 -0.064662 0.146680 -0.035358 0.120840 -0.019848 0.054836 0.010717 -0.064251 -0.003350 -0.056115 -0.059127 -0.115081 -0.128763 -0.050700 0.020218 0.069926 0.026378 -0.008348 -0.081180 0.087595 -0.142661 -0.007200 -0.027278 0.130986 0.114751 -0.014721 -0.109847 -0.052375 0.014315 -0.055462 -0.018081 0.033669 -0.010263 0.073003 0.046208 -0.059130 0.063544 0.011099 0.062291 0.055546 0.107014 -0.076030 0.003500 0.092075 -0.010677 -0.098037 0.019194 0.028230 -0.086869 0.137709 0.111006 -0.039265 0.029710 -0.138522 0.065643 -0.008752 0.069927 0.106052 -0.019536 -0.063298 -0.049503 0.016660 -0.015885 0.112466 0.074319 -0.054820 -0.066035 0.047881 0.109325 0.043105 -0.143900 0.098332 0.144553 -0.064734 0.140699 0.036316 0.053125 0.025204 -0.127497 0.119935 -0.010220 0.131332 0.075171 0.006299 -0.147038 -0.016085 -0.127043 -0.089201 0.066352 0.068118 -0.092893 -0.115957 -0.119818 0.014365 0.043993 -0.090343 -0.113844 0.083423 0.084691 -0.024853 0.029615 -0.124310 0.147854 0.078542 0.083080 0.063234 -0.100285 0.117294 -0.141676 -0.059200 -0.028173 0.110873 -0.023364 0.107815 0.124677 -0.077597 0.055221 0.032564 0.083726 0.131438 -0.105037 -0.030046 -0.133156 -0.047444 -0.092021 0.000899 0.011404 -0.028425 0.034126 -0.035999 0.000334 0.047885 0.021747 -0.134950 -0.093432 -0.110370 0.023079 0.067853 -0.006719 -0.001972 -0.019848 0.076542 0.093535 0.041609 0.125832 0.031541
 -0.141350 0.016953 -0.026408 -0.067645 -0.103274 0.104573 -0.014144 -0.100347 0.051805 0.059456 0.017329 0.106229 -0.139157 0.050404 0.096546 -0.053778 -0.036671 0.028315 -0.026155 -0.090272 0.033102 -0.157751 -0.141233 0.024631 0.066211 0.111061 0.085348 -0.144561 0.077030 0.067381 -0.015963 0.102458 -0.066840 -0.018996 0.079904 0.006553 -0.152826 -0.134859 -0.008771 -0.052908 -0.082802 -0.089840 -0.052555 0.118995 0.112117 0.047272 0.088768 -0.126812 0.123499 0.015919 0.062873 0.016578 0.106616 0.038766 -0.057359 -0.097911 -0.132015 0.138121 0.057318 -0.124328 0.065463 0.060361 0.097542 0.009675 -0.105081 -0.001235 0.023940 0.041323 0.015424 -0.060493 -0.024881 -0.033854 0.056709 -0.111122 0.016146 0.094565 0.133332 0.144323 -0.066259 0.015287 0.057011 0.031884 -0.139556 -0.057297 -0.102882 0.067341 -0.157606 0.030929 -0.016974 -0.034036 0.045263 -0.062848 0.094952 -0.076687 0.077350 0.088303 0.113284 -0.039071 0.018602 0.022018 0.105451 0.045995 -0.146945 0.035716 -0.087113 0.006438 0.068785 0.055196 -0.116098 0.029229 -0.005865 -0.090358 0.032596 0.009314 -0.073177 -0.138912 -0.031661 -0.075790 -0.146399 0.092471 -0.064802 -0.049667 -0.024059 -0.003689 0.030840 0.011675 0.046946 -0.083395 -0.056193 0.069977 -0.044121 0.149344 0.077145 -0.089065 -0.098388 -0.138550 -0.094217 -0.002851 0.006848 -0.092693 0.091501 0.091691 -0.053448 -0.076964 0.054781 0.017536 0.080095 0.018732 -0.073440 0.158030 -0.145550 0.137491 -0.120990 0.047441 0.092087 -0.026915 0.063110 0.029421 -0.140512 0.053674 -0.142605 -0.123769 0.069348 -0.041619 -0.050671 0.092974 0.135229 -0.055060 -0.123011 0.083865 -0.117412 0.075346 0.106602 -0.072877 0.015349 -0.103209 -0.070743 -0.049240 -0.027113 0.132356
 -0.012856 0.003929 0.090314 -0.038390 -0.122061 0.106867 0.100554 0.102154 0.044231 -0.014578 -0.040856 -0.046187 0.089528 0.028000 0.132145 -0.039034 -0.120636 0.062466 -0.133299 -0.134204 0.060416 -0.027863 -0.038598 -0.094741 -0.022104 0.088169 0.005825 -0.147836 -0.094720 -0.006602 -0.040412 0.101408 -0.110150 -0.063965 0.107958 -0.081034 -0.140151 -0.091822 0.080274 -0.073421 -0.008622 -0.076174 -0.040166 -0.022173 -0.032656 0.124290 0.078749 0.156502 -0.140465 -0.062980 -0.152161 -0.115896 -0.012452 -0.002496 0.066662 0.090080 0.109103 0.100804 0.097338 -0.131545 -0.034326 0.097804 -0.074261 -0.026934 0.119443 0.011740 0.095400 -0.072251 0.012908 -0.085543 -0.082913 0.090229 -0.099949 0.112901 -0.005561 0.129950 -0.157504 -0.055118 -0.130618 0.115374 -0.021003 -0.059405 -0.093557 -0.057186 0.019587 0.013972 0.050933 0.138021 0.051797 0.158523 0.123615 0.028828 -0.033241 -0.012257 0.036560 -0.061337 0.119479 0.008115 0.066483 0.106802 -0.113392 0.023968 -0.144379 0.139123 -0.134858 0.108424 0.100760 -0.091796 0.113514 0.013427 -0.048336 -0.060188 -0.110435 -0.131134 -0.054149 -0.025545 0.025400 0.092443 -0.054249 0.120616 0.123799 -0.016499 -0.057106 -0.101796 0.070960 -0.118538 0.058903 -0.135409 0.033809 -0.084783 -0.013431 0.107625 0.006186 0.064553 0.121150 -0.067651 0.034932 -0.070797 -0.040973 0.039461 -0.042970 0.053082 0.082225 0.008586 -0.112369 0.035782 0.043585 -0.034836 -0.147810 0.065548 -0.042009 0.085201 -0.047619 -0.075687 -0.137938 0.030908 0.027626 0.137090 0.065839 0.000581 -0.085545 0.155455 0.072773 0.104185 0.116759 -0.018286 -0.132738 0.021734 0.044275 0.045439 0.075508 0.049783 -0.131118 0.045336 0.118834 -0.049760 -0.137581 0.047548 -0.139645 -0.121204
 0.144960 -0.137656 0.033628 -0.160089 0.143631 -0.107189 0.135146 -0.050481 0.136959 0.115141 -0.144452 0.022069 -0.073378 0.052298 0.069538 -0.137312 -0.137401 -0.086303 -0.128287 0.052762 -0.000911 -0.031743 -0.007252 -0.071966 0.028310 0.018131 -0.039720 -0.026317 -0.038654 0.084253 -0.007177 0.069972 0.011584 -0.039171 0.080484 0.024667 0.027561 -0.016611 -0.057109 -0.057912 0.112946 -0.101299 0.113843 0.086814 0.089883 -0.135955 -0.142336 0.005706 0.105044 0.031694 0.011373 0.004290 0.125157 0.085668 0.040870 0.003252 0.062548 0.006759 0.005010 0.094542 -0.055615 0.064444 -0.059152 -0.063463 0.109995 0.130822 0.114657 0.041616 0.044830 0.085515 -0.066069 -0.133368 0.060834 -0.054097 0.016563 0.068598 -0.065095 0.137066 0.131429 -0.050974 -0.005670 -0.123919 0.058018 0.047190 -0.055478 -0.109675 0.018992 0.089985 0.124905 0.108097 0.022100 0.005837 -0.068385 0.090938 0.061039 0.145422 -0.093428 -0.068408 -0.058029 0.120991 -0.002448 0.147994 -0.008193 0.054311 0.034350 -0.092987 -0.033687 0.065299 0.114822 0.053203 0.109654 -0.112175 -0.135690 0.109669 0.086197 -0.012555 -0.125374 -0.008442 -0.144027 0.081247 0.167916 -0.094103 0.051090 -0.161805 0.135964 0.121484 0.035053 0.003038 -0.021637 -0.023629 -0.048296 -0.062543 0.089643 0.009254 0.053935 0.127976 -0.003899 0.136752 -0.059844 -0.140566 0.028834 0.000216 -0.034274 0.081357 0.119850 0.075232 -0.133080 -0.043656 -0.108458 0.140067 0.147447 -0.060148 0.057872 0.106262 0.103306 -0.096476 0.075353 -0.074722 -0.097083 -0.050550 -0.123655 0.075906 -0.018124 -0.081120 -0.017313 -0.140810 -0.118580 0.057732 0.039463 0.086037 0.007544 0.039969 -0.016544 0.098142 0.095124 -0.090439 -0.010202 0.010124 -0.059884 0.041948
 -0.109403 0.053913 0.047869 -0.065394 -0.066671 -0.118540 -0.003431 -0.131827 -0.046199 -0.021985 -0.109167 -0.006654 0.145484 -0.090210 0.017872 -0.069917 -0.128091 0.113116 0.129576 -0.004792 -0.086245 -0.028947 0.110354 -0.062590 -0.048621 -0.010529 0.086952 0.037534 -0.079166 -0.101801 0.004376 -0.009570 -0.051485 0.136091 0.043347 -0.110402 -0.067204 -0.158503 -0.055969 -0.084996 0.027297 0.067670 -0.035136 0.052342 -0.038070 -0.048954 -0.124369 -0.119302 0.067546 -0.103536 -0.104887 -0.051480 -0.004766 0.104500 -0.110515 0.095954 0.052238 -0.008270 0.098171 -0.131976 -0.057908 -0.180983 -0.083366 -0.064584 -0.042208 0.040663 0.088220 -0.125469 0.059817 0.046710 -0.098503 -0.159544 0.152669 -0.173318 0.019114 -0.096008 -0.074050 -0.070098 -0.104879 -0.034558 0.066562 -0.028428 0.112077 -0.095880 -0.113045 0.110504 0.157373 0.062540 -0.018884 -0.056353 0.144618 0.069842 0.021611 -0.081107 0.089670 0.081250 0.037494 0.059353 -0.084605 -0.088143 -0.055219 -0.078053 0.160336 -0.016270 0.112680 0.071295 -0.014468 0.008052 0.008499 -0.181476 0.049385 0.044611 -0.067353 -0.071038 0.128643 -0.182192 0.031988 -0.129856 0.021384 -0.044016 0.109048 -0.043781 -0.075921 -0.152915 0.121580 -0.026537 -0.021625 -0.021094 -0.051557 0.078751 -0.102876 0.038993 -0.001967 -0.071663 0.012716 -0.077885 -0.057529 0.139457 -0.118290 -0.014562 -0.083624 0.068543 -0.067899 0.055401 -0.096547 -0.143190 0.041251 -0.039755 -0.065174 0.006424 -0.016607 0.096552 0.094975 0.017012 -0.116007 -0.117590 -0.041755 -0.031885 -0.026195 0.123014 -0.062123 -0.000728 0.055355 -0.141167 0.149026 -0.072388 -0.013808 -0.067787 -0.020999 -0.180116 0.012863 0.074465 -0.095828 0.009868 0.045813 -0.012651 -0.040094 0.032975 -0.048125 0.089422
 0.079603 0.108316 -0.094818 0.131491 0.036938 0.092345 0.063693 -0.036194 -0.012037 0.090627 -0.132087 0.100080 0.116275 -0.021468 -0.085073 0.073227 -0.131237 0.121397 0.116212 0.115874 0.110063 -0.031037 -0.145448 -0.016037 0.013998 0.158918 0.059621 -0.154806 -0.115087 -0.036937 0.004397 -0.020397 0.064882 -0.099335 -0.127220 -0.062207 0.048329 0.156971 0.108809 0.065780 -0.034338 0.065361 -0.104072 0.094015 -0.153117 -0.111151 -0.008022 -0.109484 -0.054193 -0.008153 0.062403 0.136623 0.009429 0.004459 -0.122182 -0.064089 0.055048 0.046176 0.013659 -0.040632 0.071027 -0.069145 0.006428 0.122461 0.031443 0.047611 -0.082913 -0.115587 -0.068226 -0.003965 0.031488 -0.149442 0.124227 0.055695 0.022924 -0.011672 0.049774 -0.142621 0.052576 0.042140 0.057147 -0.122769 -0.004843 0.062931 0.093800 0.013725 -0.072727 0.130790 -0.015824 0.100467 0.030297 -0.003886 0.124385 -0.042567 -0.158319 0.051888 -0.048177 0.058797 0.074550 0.029553 -0.061610 -0.017488 -0.093963 0.007623 0.099635 -0.034842 -0.082424 0.115831 -0.046754 0.089188 0.052411 0.071752 -0.134119 0.069582 0.007606 -0.138282 0.024095 0.004782 -0.024730 0.101699 0.070787 0.111964 -0.074100 0.011970 0.091760 -0.021133 0.028741 0.145796 -0.109820 -0.032862 0.116229 0.028010 -0.044757 -0.034531 0.133243 -0.013141 0.099827 -0.051749 -0.027514 0.100271 0.029711 -0.097641 0.112486 0.113352 -0.153621 0.108137 -0.146756 -0.069178 -0.109314 0.085783 0.043525 0.006936 -0.099394 -0.084689 0.084225 -0.094024 0.006313 -0.080453 -0.126119 -0.000109 -0.038030 -0.103148 0.087960 -0.079145 0.047319 0.011618 0.018064 -0.080690 -0.098892 0.096729 -0.032299 0.020883 0.006328 -0.011109 0.041010 0.034122 -0.155567 -0.078661 0.118344 -0.136809
 -0.056540 0.038523 -0.028552 0.017872 -0.092455 0.084700 0.134476 0.085789 0.117254 -0.014745 -0.155225 0.085948 -0.050222 -0.043832 -0.013862 -0.023965 -0.069435 0.097635 0.132047 -0.074598 0.136243 0.013081 -0.161408 -0.116036 -0.058037 0.073412 0.118208 0.006866 0.013138 -0.077350 -0.047424 -0.046244 -0.028576 -0.046928 0.026701 -0.137326 0.025578 0.110848 0.157203 0.098641 -0.063109 0.051019 -0.114423 -0.084471 0.031566 -0.007303 -0.159930 -0.081860 0.080979 -0.126488 -0.104780 -0.141679 0.121302 0.016807 0.120663 -0.091283 0.077042 0.125972 0.098620 0.087575 -0.032501 0.103767 -0.015945 -0.086057 -0.124318 0.027519 -0.075987 -0.083768 0.069178 -0.110982 -0.029385 0.064250 0.019540 0.095710 0.008719 0.145315 0.128379 -0.157933 0.113907 0.009739 -0.045575 0.114720 -0.149947 0.087342 0.133118 -0.087207 0.036397 -0.058087 0.063012 -0.168509 0.054775 -0.011737 0.047575 0.004093 0.097193 0.109616 0.128878 0.117562 0.038774 0.100329 0.019444 -0.072239 0.159294 0.041422 -0.027700 -0.039836 0.020846 0.033606 -0.042781 -0.133952 0.141853 0.139016 -0.112017 0.082513 -0.010556 -0.044926 -0.102761 0.113615 0.123421 -0.030800 -0.001321 -0.108606 -0.119562 -0.051070 -0.009135 -0.046961 -0.085658 0.108861 0.012692 -0.111422 0.126070 0.011989 0.154959 -0.069610 -0.100647 0.155641 -0.016017 -0.014123 -0.061809 -0.005806 0.038661 -0.049555 0.025153 -0.120862 0.116427 -0.042631 -0.069831 -0.019693 0.053206 -0.044970 0.059254 -0.051502 -0.085987 0.109278 -0.126268 -0.074213 0.007209 -0.133135 0.157316 0.155221 0.124151 0.034635 0.152194 0.108956 0.038589 -0.055746 -0.013245 -0.091742 0.140609 -0.110732 0.114370 -0.112535 -0.097851 -0.015520 0.110436 0.070941 0.105331 -0.052216 0.010908 0.099683
 -0.078733 0.132607 0.062712 0.107455 0.025687 -0.034382 -0.120357 0.107856 -0.041114 0.053587 -0.008966 -0.027933 0.020629 -0.077781 -0.096547 0.047413 0.055247 -0.099783 0.041985 -0.099145 -0.042583 0.058636 -0.044224 0.074441 0.063235 0.016643 0.095301 0.113687 0.006416 0.129095 -0.051205 -0.121262 -0.100933 -0.083458 0.088113 0.086291 0.047868 -0.054346 -0.116770 0.138912 0.057903 0.034837 0.058301 0.063146 -0.102528 0.072134 -0.085499 -0.037387 0.128616 -0.120573 0.079484 0.123242 -0.097369 -0.062267 0.048959 -0.065461 -0.123700 -0.140750 -0.005065 0.125103 0.085380 -0.052106 0.104776 -0.119052 -0.056033 -0.069527 0.056963 0.058107 -0.023784 -0.109071 0.143033 -0.026425 0.000402 0.126281 0.059587 -0.143771 -0.104354 -0.034917 0.101388 0.120834 -0.063931 0.133888 0.017938 0.141662 0.051438 -0.024259 0.120484 0.088088 0.144057 -0.096132 -0.041451 0.033702 -0.109703 -0.084423 -0.131229 0.005158 -0.142097 -0.043199 -0.108381 0.049909 0.130777 0.094288 0.088403 0.068334 -0.088799 0.072782 0.133102 -0.119600 0.041501 0.026298 -0.020062 0.044953 0.127061 -0.056757 0.048674 0.096679 -0.133496 0.034676 -0.000892 -0.071518 -0.131013 0.059755 0.010739 0.056531 -0.119194 -0.147434 0.070814 -0.001627 0.123706 -0.117510 -0.144522 -0.101433 -0.114154 -0.113405 -0.097715 0.011388 -0.085715 0.098119 -0.060841 0.022212 -0.093678 -0.035228 -0.043766 -0.033917 -0.002055 0.059576 -0.006148 -0.055929 -0.084406 0.032965 0.061219 -0.122339 -0.112158 0.113259 0.052457 -0.112920 0.006948 -0.146791 -0.136111 0.018423 -0.068515 0.001022 0.055344 -0.112942 -0.001465 -0.138683 -0.125858 0.032855 0.147240 -0.072514 -0.146804 0.072867 -0.117379 0.040229 -0.122984 0.046368 -0.094814 -0.024411 0.015812 0.061162
 0.029167 -0.131479 0.026448 0.071532 -0.099869 -0.024809 -0.133792 0.014969 0.049673 -0.006053 -0.026890 0.078172 0.045344 -0.067046 0.058531 -0.021422 -0.124201 -0.053133 -0.087594 -0.043898 0.089111 0.126373 -0.082044 -0.061885 -0.015499 -0.025086 -0.106642 0.019485 -0.055486 -0.011045 0.021680 0.067138 -0.078362 -0.059785 -0.065394 0.030696 0.126994 0.066393 0.079737 0.034904 0.090519 0.125022 0.054108 0.067551 0.098088 0.051507 -0.060174 0.100580 0.145200 0.007019 -0.116746 -0.075340 0.061962 -0.105990 0.001046 0.087653 -0.141695 -0.005522 0.036199 -0.041676 0.113041 -0.128711 0.044465 0.076080 0.003986 0.126458 0.060664 -0.018779 -0.045693 -0.001496 0.124609 0.050622 -0.041042 0.045960 -0.123523 0.086406 0.054779 -0.048052 -0.095818 0.049452 0.001153 -0.124263 0.112655 -0.135437 -0.041887 0.091131 0.098584 0.095751 0.001095 -0.000868 0.056601 -0.117947 -0.109710 -0.009713 0.062197 -0.044324 0.002178 -0.125941 -0.010032 0.126717 -0.010564 -0.008106 0.057097 -0.020345 0.136917 -0.124995 -0.065470 0.061002 -0.147531 -0.083710 0.002996 -0.105018 -0.063244 -0.141223 0.136742 0.113793 -0.092340 -0.120542 -0.034877 0.104386 0.115435 0.001500 -0.001150 0.012929 0.145997 -0.066861 0.051524 0.140015 -0.121438 0.111453 -0.127343 0.017319 -0.084458 0.146462 0.016817 -0.137149 -0.009243 -0.125407 0.017562 0.143720 -0.145836 -0.019769 -0.075979 0.075332 0.057403 -0.144605 0.126204 0.121413 -0.126141 0.048547 0.019440 -0.077618 0.004064 -0.110596 0.091384 -0.136166 -0.025097 0.073426 0.038245 -0.024451 0.143469 -0.088363 -0.097170 -0.111969 -0.013518 0.069799 0.057895 0.020650 -0.041325 0.128472 -0.087459 -0.049210 0.092956 0.085613 0.114345 0.039255 -0.063958 0.071296 -0.064820 -0.011854
 0.106543 -0.094561 0.102632 -0.030211 0.093592 -0.175922 0.022002 -0.005714 -0.054162 -0.039763 0.084727 -0.018399 -0.012959 -0.052620 -0.000099 0.163269 -0.097228 -0.070911 -0.091054 -0.130270 -0.128573 0.140257 0.112210 -0.045514 -0.078382 -0.011043 0.161354 0.012748 0.080136 -0.094628 -0.077338 -0.078382 -0.041183 0.202407 0.079549 -0.145156 -0.161492 0.118095 -0.069762 -0.007055 -0.018257 -0.108126 0.009309 -0.123848 0.007606 0.138838 0.022472 -0.142676 -0.153088 0.056261 -0.065083 -0.008917 0.063931 -0.148778 0.002040 -0.020696 -0.124201 -0.063862 0.098661 0.002649 0.023782 0.105802 0.053418 -0.043162 0.055061 0.038249 -0.147164 0.078534 0.057060 -0.070582 -0.011926 -0.145278 -0.154632 0.059015 -0.017046 0.196625 0.024471 -0.040691 0.012149 -0.147385 0.097954 0.042972 -0.124551 -0.184211 -0.004626 0.126610 0.149786 0.007027 -0.050635 -0.071420 0.037945 0.094982 0.153428 0.154827 -0.059156 0.050251 -0.101208 0.141424 0.130877 0.146688 -0.171925 -0.122402 -0.016244 0.023566 0.092231 -0.036410 -0.179652 -0.105054 -0.158500 0.000346 0.148397 0.117683 -0.057175 -0.088193 0.075868 0.022918 -0.108761 -0.076043 -0.032449 -0.075973 -0.038354 0.033833 0.105806 0.095633 -0.163208 0.057539 -0.145406 -0.025463 0.145816 0.152301 -0.111579 -0.169324 -0.090021 -0.011667 -0.021059 0.183955 0.010027 0.007018 0.081988 0.002689 -0.023445 -0.049046 -0.065285 -0.135077 0.084373 0.052980 0.000666 0.185885 -0.052825 -0.100573 0.053295 -0.028053 0.098753 0.064658 0.031201 0.078530 -0.025370 -0.001525 0.154145 0.106789 -0.041143 -0.077558 0.005698 -0.065463 0.087597 0.178891 0.017522 -0.043376 -0.040416 0.094136 -0.047209 0.040312 0.105768 0.029261 0.089895 -0.095172 0.128567 -0.040966 0.020385 -0.166242
 0.035623 0.094208 0.050860 0.115127 -0.022133 -0.026320 -0.087216 0.069196 0.066922 0.012096 -0.117803 -0.107706 -0.114700 0.107879 0.081419 -0.113236 -0.148900 0.137042 -0.029731 0.139136 -0.102745 0.028938 -0.058518 -0.116019 0.055642 0.013198 -0.011735 -0.110092 0.087551 0.002704 -0.029017 0.132651 -0.141284 -0.083855 -0.008882 0.113578 -0.024036 0.114116 0.021060 0.092754 -0.081489 -0.031764 0.117116 -0.093918 0.045557 -0.118330 -0.049974 -0.134148 0.024697 -0.040609 0.106395 0.052006 0.093139 -0.012304 0.017687 -0.045685 0.108437 -0.036901 -0.089274 0.108150 -0.104089 0.154937 0.119036 0.012936 -0.058804 0.087642 -0.078405 0.061088 0.117902 -0.090189 0.124776 0.037309 -0.008451 0.115349 0.107335 -0.006550 0.088171 0.105442 -0.019373 0.126166 -0.028716 0.084235 -0.012418 0.125072 -0.110744 -0.051206 -0.077644 -0.077165 -0.137918 0.094245 0.119474 0.106194 -0.135189 0.070367 -0.094555 0.121269 0.097524 0.117715 0.016836 0.133007 0.058672 -0.035047 0.039166 -0.031664 0.064516 0.043900 -0.042479 0.016780 -0.095151 0.143828 -0.105275 -0.105191 0.058980 0.047957 -0.139489 0.005983 -0.081145 0.029757 -0.089304 0.051778 -0.108013 0.112601 0.034782 -0.042825 -0.041466 -0.000554 0.099469 0.143463 0.134505 0.113650 -0.085761 0.005200 -0.111093 0.120586 -0.078760 -0.102119 -0.107206 0.029808 0.134889 -0.045098 -0.150270 0.006929 0.077268 -0.054984 0.034744 -0.091558 0.070577 -0.122247 0.068911 0.157820 0.135031 0.054250 0.090710 -0.045767 0.095025 0.090771 0.031447 -0.122681 0.032504 -0.154669 0.098420 0.035715 0.127594 0.150706 -0.058397 0.067613 -0.056543 -0.077100 -0.103962 0.055909 0.132477 0.051653 0.028067 -0.137775 0.084927 -0.117272 0.074775 -0.066352 -0.130020 -0.134469
 0.025575 0.009133 -0.145710 -0.168779 -0.041916 -0.120414 0.044536 -0.084828 0.016280 -0.118555 -0.138939 0.088381 0.130539 -0.027893 0.019146 0.023676 -0.028445 0.145869 -0.147051 0.085905 -0.147022 -0.078748 -0.053513 0.023330 -0.003061 0.026758 0.049300 0.024373 -0.113233 0.027268 0.013390 0.032482 0.139756 -0.071262 0.102193 -0.127792 0.067496 0.111145 0.039036 0.000923 -0.112195 -0.100432 0.041509 -0.019696 -0.004297 -0.001042 0.133597 -0.005420 0.019013 -0.045862 0.123634 -0.037018 0.061973 0.058329 -0.005852 -0.137968 -0.071381 0.086691 -0.087943 -0.079484 0.114491 -0.028431 0.075362 0.052460 -0.077697 0.010276 -0.056635 0.140516 -0.114582 -0.148802 0.144242 0.031627 -0.144922 -0.067164 -0.152748 -0.024796 0.015926 0.170090 0.115317 -0.052272 0.035508 -0.176531 -0.002262 0.006762 -0.054956 -0.115901 -0.008410 0.087113 0.054566 -0.046455 0.113788 0.132622 0.125655 -0.043570 0.015320 0.127722 0.051421 0.107015 -0.022428 0.048326 -0.070491 -0.122886 -0.051562 -0.153892 0.024711 0.065005 0.091501 -0.049627 0.014605 0.120206 0.128024 -0.003942 -0.103390 0.148093 -0.085944 -0.145423 0.135414 -0.104765 0.145092 0.138296 -0.138869 -0.036820 0.016899 0.076646 0.087712 -0.028424 -0.120347 0.090275 0.130512 0.017910 -0.077703 -0.085330 -0.090759 -0.044387 0.056977 -0.046002 0.082427 -0.085338 -0.145841 -0.110105 0.093422 -0.126423 0.119627 0.172813 0.035261 0.045236 -0.107879 0.040046 0.140221 0.053506 -0.121507 -0.065890 -0.032759 -0.137397 0.155569 0.110473 -0.134609 0.128603 0.100849 -0.140337 -0.035145 -0.113502 -0.087925 0.037226 0.017768 -0.178340 -0.125049 -0.113863 0.129241 0.061586 0.050815 0.033222 0.110052 0.099560 0.139387 -0.133572 0.085066 -0.116429 -0.126063 0.166662
 -0.124341 -0.034023 -0.117878 0.032271 -0.006052 -0.000899 -0.134575 0.060372 -0.008250 0.089379 -0.023774 0.082599 -0.011925 0.127885 0.069136 -0.057274 -0.085757 0.065799 0.018163 0.100949 -0.010830 -0.054141 0.059108 0.083482 -0.044993 -0.108317 0.010472 -0.110901 0.113850 0.144879 -0.074983 0.090244 -0.112594 -0.083315 -0.037208 0.089833 0.139403 0.107661 -0.018988 -0.038173 0.038873 0.130641 -0.123257 -0.053001 -0.049118 0.063318 -0.116640 -0.059108 -0.068156 -0.026386 -0.036358 0.000141 0.017313 -0.097644 -0.080140 0.133598 -0.078380 -0.069937 0.066036 0.123653 -0.021402 0.074138 -0.000768 0.062309 -0.092816 0.072680 -0.000021 0.020010 -0.050116 0.000573 0.090902 0.118606 0.063807 0.021645 -0.007522 0.096333 0.091322 -0.067997 0.006237 -0.050662 -0.021063 -0.140353 0.021364 0.020938 0.028327 0.077396 -0.016627 0.057402 0.042691 -0.141692 0.044639 0.032540 -0.137889 0.122857 0.018236 0.013725 0.022360 0.037919 -0.072745 -0.092683 0.033416 0.012578 -0.105442 0.118379 0.140504 -0.001260 0.081014 -0.035180 0.138430 0.109650 0.082360 0.120001 0.131863 -0.129645 0.113576 -0.070270 0.050419 0.084513 -0.116402 0.115258 -0.032669 -0.010303 -0.081582 0.069997 0.005322 0.093827 -0.087005 -0.089148 0.135081 -0.019353 0.146086 0.031662 -0.052870 0.143093 -0.062201 0.134395 0.120377 -0.091868 -0.011561 -0.024979 0.036278 0.058186 -0.086019 0.090675 -0.015985 0.100148 0.123703 -0.130171 0.111523 0.064186 -0.112291 -0.140339 -0.067463 0.000539 -0.120576 0.041588 -0.023883 -0.087900 0.064606 -0.122417 -0.032102 -0.002477 0.083242 -0.044957 0.042933 -0.007518 -0.014965 -0.102202 -0.049342 0.087110 0.068227 -0.092274 0.127952 -0.079259 0.118170 0.142735 0.094770 0.051214 -0.017860 0.058838
 0.042664 -0.026379 -0.040714 0.122088 0.102635 -0.011882 0.099971 0.019007 -0.009660 0.018291 -0.017250 -0.132404 0.065627 0.136411 0.099926 0.045737 0.023033 0.133011 0.097148 -0.088536 -0.012269 -0.134333 0.000386 0.074458 0.077893 -0.121651 0.046333 -0.107868 -0.122031 0.072659 -0.008136 -0.000192 -0.001276 0.093035 -0.104170 -0.120581 0.099977 0.134902 0.006299 0.041882 -0.157570 -0.012481 -0.154983 0.082738 0.022702 -0.040164 -0.029334 -0.032760 -0.048692 0.109750 -0.021659 0.036459 0.051099 0.129242 -0.037029 0.128510 0.133104 -0.112246 0.079777 0.064822 -0.009821 0.069937 0.067658 0.148133 0.002424 0.102894 0.037823 0.091386 0.118912 -0.012581 -0.051447 0.038095 -0.047692 -0.131068 0.068961 -0.065600 -0.117720 -0.104747 0.022672 0.115652 0.131687 0.061098 -0.113461 -0.022644 -0.036074 0.080297 0.023235 -0.087254 -0.124445 -0.110775 0.044673 -0.077842 0.073662 -0.047300 0.054315 0.125076 0.131283 -0.083220 0.050581 0.150237 -0.033359 0.066438 -0.109675 0.030357 0.116182 -0.056632 0.009079 -0.018899 -0.038116 -0.030964 -0.123945 0.113938 0.121409 0.078935 0.077182 -0.129394 0.025441 -0.087340 -0.121883 0.145858 -0.035466 0.123078 -0.134919 0.099582 -0.076522 0.032836 0.025805 -0.081234 -0.092981 -0.017843 -0.171483 0.008672 0.002410 0.141059 0.097446 0.025432 -0.151145 0.116268 -0.075977 0.126665 0.102934 0.009730 0.072600 -0.012644 0.025038 -0.062740 0.010181 -0.135826 -0.114272 0.075732 -0.060628 -0.129192 -0.081115 0.023470 -0.050423 -0.019229 0.021473 0.047918 0.016564 0.103150 -0.113310 0.021798 -0.031921 -0.003428 -0.024675 0.047316 -0.119594 -0.081327 -0.050651 0.147089 0.131359 -0.005979 -0.094377 -0.012863 -0.052278 0.061780 0.134099 0.143877 -0.146687 -0.010846
 -0.151048 -0.029940 0.034304 0.139794 0.076415 -0.149322 -0.060779 0.029431 -0.147285 0.139958 -0.097040 -0.139474 -0.043267 -0.036549 -0.077385 -0.056705 0.102620 -0.117568 0.083655 0.067931 -0.126251 -0.111404 0.063190 -0.125173 -0.051181 -0.023889 0.063149 -0.120005 -0.143628 0.000738 0.136840 0.105253 0.015596 0.001945 0.100142 -0.066219 0.085859 0.133848 -0.099903 -0.041492 0.070841 0.093545 -0.124223 0.111411 0.098540 0.034118 0.098980 0.035799 -0.147536 -0.133527 0.050073 -0.105241 -0.045332 -0.049116 -0.142988 -0.063537 0.024940 -0.121376 0.091393 0.133061 -0.004732 -0.129673 -0.142880 -0.078581 -0.079073 0.051433 0.056640 -0.130242 0.101848 0.061578 0.099991 -0.136616 -0.086364 -0.110488 -0.053616 0.117464 -0.065004 -0.001019 -0.129505 -0.051515 -0.013159 -0.113959 -0.025507 0.128866 0.017079 -0.009050 0.107457 -0.129532 -0.060338 -0.028865 -0.139157 0.126427 0.007608 0.060040 -0.073844 -0.143807 0.021675 0.063447 0.043783 -0.103651 0.057647 -0.086012 0.096725 0.101687 0.126577 -0.009870 0.047910 0.065297 0.006509 0.112902 0.107900 -0.071777 0.114914 0.107928 -0.079437 -0.068411 -0.077410 0.094825 -0.149745 0.064660 -0.060939 -0.146023 0.028110 -0.000992 0.083699 -0.120376 0.071844 -0.139802 0.073892 0.076351 0.110059 -0.155770 -0.040314 0.051072 0.096817 0.039188 -0.121816 -0.031918 -0.047122 -0.057676 -0.070211 -0.040159 -0.099226 -0.159102 0.139095 -0.111858 0.077260 -0.035230 -0.101835 -0.132030 -0.091896 0.091899 -0.020491 0.034839 0.004437 -0.040741 -0.135361 0.030695 0.022012 -0.079644 0.076275 0.015879 0.088716 0.129226 0.055918 0.139446 -0.087986 -0.050048 0.101916 -0.102644 -0.097705 0.046537 0.085246 0.041904 0.116622 0.097033 0.142786 0.088679 -0.095268 -0.097510
 0.095772 0.084423 -0.050689 0.003339 -0.014280 0.145186 0.075067 0.082257 0.036604 -0.140774 -0.110027 0.120696 -0.027938 0.058934 -0.032816 0.065518 -0.037098 -0.103340 0.083830 -0.014347 0.139830 0.041466 -0.099931 0.095897 0.065170 0.000829 -0.102379 0.046134 0.040394 -0.048483 0.092351 0.091984 -0.083488 -0.053001 0.119321 0.020321 -0.101901 -0.145246 0.043877 0.087188 -0.026725 -0.138707 -0.109576 0.133760 0.009234 0.021984 0.093244 -0.127735 -0.121163 0.107560 0.059457 -0.074653 -0.075169 0.115366 0.013111 0.079483 0.074826 -0.120812 0.047213 -0.057605 0.014363 0.140077 -0.075512 -0.112560 0.059463 0.097239 -0.048200 0.051476 -0.136606 0.008830 0.077661 0.127899 -0.052816 0.074661 -0.081869 0.025956 0.038982 -0.088694 -0.039424 0.098909 -0.072590 0.023181 -0.078928 0.135775 -0.037982 0.101065 -0.084328 -0.096402 -0.119192 -0.055982 -0.081711 -0.147582 -0.072860 0.014823 -0.120983 -0.075663 -0.093707 -0.062615 -0.124423 0.143569 -0.079248 -0.002655 -0.113271 -0.123617 0.105005 -0.095154 0.147079 -0.116696 0.019969 0.063638 0.055691 -0.019029 0.075822 0.139780 -0.023115 0.042581 0.024479 -0.027139 -0.026030 0.039900 -0.006969 -0.063629 0.120224 -0.046975 -0.090749 -0.106546 -0.059088 0.041766 0.139098 0.026789 -0.119817 0.103253 -0.067015 -0.056559 0.148352 0.016317 0.022639 0.000197 -0.032123 0.027055 -0.095848 0.105873 0.036372 0.037216 -0.132324 0.125509 -0.070348 0.060953 -0.019317 -0.069510 0.094103 0.095158 0.036608 -0.109109 -0.072184 -0.021525 -0.047767 0.103955 0.045117 0.085652 0.138108 -0.117821 -0.012311 -0.071337 0.079252 -0.041116 0.102626 -0.054891 -0.089132 -0.052653 0.036123 0.039026 -0.071849 -0.070909 -0.038597 -0.124514 0.057679 -0.000977 0.045152 0.101551
 -0.005474 0.021923 -0.105239 0.012707 0.131774 0.021741 -0.121478 0.073494 -0.124353 -0.132592 -0.137395 -0.032303 -0.079461 -0.050024 -0.138464 0.088994 0.121152 -0.142276 0.029012 0.110939 0.103862 0.057474 -0.033673 -0.030981 0.099559 0.025596 -0.002207 -0.017117 0.045541 0.078680 -0.050233 -0.044657 -0.040103 0.132747 0.102193 0.093387 0.124589 0.069962 -0.062523 -0.025338 0.115372 0.093537 0.128511 -0.027064 -0.091129 -0.125711 0.111126 0.071952 -0.036176 -0.022262 -0.088564 0.132802 -0.048217 0.062475 0.102582 -0.148259 0.087278 -0.096362 -0.153608 -0.000324 0.035730 -0.143194 -0.112089 0.093702 -0.016904 -0.086711 0.037410 -0.131498 0.121643 -0.000221 0.026785 0.099941 -0.016107 0.110510 0.133266 -0.036930 0.121662 0.074627 -0.041035 -0.128304 -0.105787 0.057371 0.085488 0.045151 -0.079704 0.036094 -0.131826 -0.140456 -0.003755 0.135015 0.081823 -0.059882 0.141433 -0.047255 0.067411 0.082555 0.050197 0.034857 -0.028220 -0.127852 0.087523 -0.139659 0.028014 -0.123449 0.000512 0.066023 0.017648 0.094750 0.151033 -0.003024 -0.021948 0.110125 -0.123361 -0.008795 -0.025529 -0.014758 0.032067 0.127961 0.006613 -0.041230 -0.108714 -0.134649 -0.076259 -0.123260 0.097596 0.021436 0.068915 -0.029303 0.131582 -0.142357 0.115635 0.034640 0.148797 -0.085671 -0.038404 -0.054192 -0.013731 0.022640 -0.133005 -0.067776 -0.104621 0.117020 -0.087190 0.007480 0.098211 0.060884 -0.087835 0.122982 0.102207 -0.099668 0.100365 0.116397 0.055340 0.046285 -0.135527 0.039655 0.103391 -0.148351 0.148690 0.073206 0.125318 0.049172 0.099557 -0.042463 0.021118 0.013858 -0.023240 0.023363 0.147389 -0.032050 -0.090810 -0.065854 0.065842 -0.143428 -0.061577 0.091140 0.050818 -0.138617 -0.034449 0.002822
 0.039200 -0.086245 0.100898 0.082758 0.041434 -0.032158 0.006004 0.062280 0.065281 -0.017523 0.065507 -0.152468 0.083720 0.078748 0.055242 0.016502 -0.101249 -0.058735 -0.136768 0.019906 -0.080236 -0.104186 -0.108694 -0.014444 0.048933 -0.079390 -0.082381 0.049380 0.032656 0.134973 0.080927 -0.115475 -0.092414 0.132691 0.010885 -0.034300 0.035100 0.106830 -0.124386 -0.130838 0.003850 0.022425 -0.044599 0.140101 -0.156686 -0.086558 -0.064302 0.047360 0.138283 -0.011518 -0.089410 0.029746 0.106845 -0.109933 -0.076404 0.065754 0.124392 -0.142831 0.130076 0.118117 -0.138772 -0.101047 -0.055906 0.022262 0.090497 0.102425 -0.012934 -0.014203 -0.081488 -0.146452 -0.033866 0.093375 -0.064246 -0.098239 0.028015 0.044812 -0.077128 0.124413 0.093379 -0.016483 -0.087296 -0.089716 0.039006 -0.096423 0.126513 0.060920 0.078467 -0.099437 0.028797 -0.113064 -0.047402 0.053246 -0.133373 0.083419 -0.144028 0.125677 0.018224 0.042154 -0.049541 0.057312 0.117084 0.134964 0.051575 -0.130548 0.062997 -0.029310 0.129415 -0.150684 -0.103712 0.024460 0.037033 0.078537 -0.090606 -0.082435 0.036243 0.065541 -0.018055 -0.034740 -0.064440 -0.036169 -0.068600 -0.041253 -0.002124 -0.129196 -0.019775 -0.023223 0.014865 -0.038903 -0.119850 0.108325 -0.139233 0.138985 -0.012633 0.151594 0.113927 0.038931 -0.084578 -0.122108 0.035321 0.002783 -0.015435 -0.022706 0.123200 -0.043875 -0.073495 0.071931 0.093508 -0.143001 -0.061253 -0.046235 0.039140 0.022526 0.068229 -0.012217 -0.099222 0.052961 0.013964 0.139557 -0.109848 -0.149503 -0.037829 -0.048512 0.110453 -0.121634 0.014373 0.105054 -0.006496 0.061599 0.061153 0.023977 0.007472 -0.081491 0.086162 0.077393 -0.055927 0.133173 0.076407 -0.136416 -0.076893 -0.026264
 -0.074047 0.020622 -0.020306 -0.077771 -0.125938 -0.043685 0.046999 0.132453 0.017130 -0.098519 -0.045870 0.074489 -0.006965 0.042955 -0.068365 -0.119066 0.136109 -0.145067 -0.065352 -0.028085 0.081160 0.008219 0.102969 0.042317 -0.029142 0.119730 -0.100693 -0.141853 0.010191 -0.048699 -0.041578 0.051078 0.105638 0.106844 0.063340 0.030899 -0.055546 -0.129882 -0.065445 -0.084117 -0.057427 0.013854 -0.049061 -0.024195 0.110218 -0.073846 -0.096102 0.164713 -0.043405 -0.084272 0.049515 0.111911 -0.000976 -0.062432 0.044628 -0.017672 0.105887 -0.127496 -0.036006 0.167573 0.132444 0.061914 -0.035130 -0.003132 -0.132325 0.130082 -0.031658 -0.073688 0.079955 -0.153328 -0.026289 -0.107232 -0.106723 -0.004801 -0.009667 0.002923 -0.046639 0.001987 0.057123 0.111619 -0.074659 -0.082113 -0.113117 0.042727 0.078927 -0.050669 -0.052553 -0.026700 0.137019 0.079384 -0.118195 0.117336 -0.147558 -0.070599 -0.003122 0.102518 -0.089412 0.118738 0.041056 0.022485 0.029138 0.039991 -0.073317 -0.095404 0.059432 -0.020140 0.049463 0.085254 0.128436 0.056581 -0.009938 0.056233 -0.014440 -0.097995 0.055760 0.047847 -0.047487 0.026778 -0.115536 -0.029688 0.038188 -0.051861 -0.104198 -0.157240 0.043138 -0.121514 -0.069674 0.013658 -0.142901 -0.041528 0.066291 -0.097915 -0.105015 0.016169 0.023397 -0.149375 -0.076973 -0.009053 0.080242 -0.083069 -0.128246 -0.146625 0.141932 -0.036009 0.095374 -0.000699 -0.081132 -0.058770 0.074492 -0.089051 -0.146372 0.055572 0.114084 -0.010369 0.103161 0.109707 0.085389 -0.137868 0.067448 -0.023179 0.102525 0.130786 -0.113965 0.047498 -0.121018 0.076114 -0.067265 -0.009809 -0.083498 -0.139441 -0.019001 0.079954 -0.113838 0.011328 0.014051 0.073427 -0.068269 -0.001041 0.076908 -0.097412
 0.043678 0.121349 0.124567 0.075257 -0.026971 0.123840 -0.134083 -0.078092 -0.115926 0.022613 0.125956 0.125706 0.003493 0.030858 -0.038310 -0.120742 0.024935 0.046297 -0.101162 0.096638 -0.116796 -0.023366 0.077796 0.086452 -0.092775 0.010034 0.017113 -0.109845 0.047598 0.111384 -0.074361 0.125735 0.136638 -0.098714 -0.082880 -0.072916 -0.011727 0.099061 0.063446 0.031754 0.139046 -0.016082 -0.026745 -0.011907 0.086134 -0.041233 0.010240 0.024203 -0.135428 -0.107814 0.055358 -0.097258 0.031365 0.119887 -0.027429 -0.034449 0.110579 0.076334 -0.127100 0.040926 0.108683 -0.133218 -0.087064 -0.153738 -0.110212 -0.064199 -0.148339 -0.121633 -0.066282 0.127740 0.022111 -0.018610 -0.109983 -0.005545 -0.127262 -0.100486 0.074945 -0.110508 -0.089504 -0.107598 0.111813 0.125458 0.098469 -0.113026 -0.140385 -0.113693 -0.043974 0.088371 -0.111377 -0.070182 0.059114 0.135976 0.011833 0.036244 -0.132916 0.020883 -0.019095 -0.085167 -0.118586 0.049304 0.060665 0.117103 0.056202 0.155597 0.033000 -0.105510 -0.020370 -0.041157 0.058977 -0.036537 0.105387 -0.078258 0.067469 0.118125 0.032223 -0.107991 -0.025008 -0.153478 -0.053834 -0.136915 -0.050462 0.120212 -0.009700 -0.139139 -0.031543 -0.081545 -0.074472 -0.068597 0.019740 -0.155083 0.027632 -0.129530 0.125085 0.022498 0.022444 -0.009504 -0.117860 0.035900 0.064703 0.024592 -0.125998 0.031239 -0.013863 0.114719 0.082001 0.006083 -0.101960 -0.021497 -0.042726 -0.070682 0.111508 0.017229 -0.049950 0.097866 0.019404 -0.089713 -0.136398 0.125863 -0.133060 -0.065361 -0.117633 -0.094966 -0.093946 -0.115958 -0.040235 0.065084 0.071826 0.054120 -0.093612 -0.122401 -0.048355 -0.100084 -0.073287 -0.097263 -0.036887 -0.115908 -0.023645 -0.110921 -0.066556 -0.037541
 0.087898 0.059814 -0.100989 -0.077023 -0.059506 -0.022636 0.128455 0.106980 0.106352 0.127682 0.107437 -0.036980 -0.026687 0.141129 0.100824 0.122430 -0.005032 0.137284 -0.008721 0.006478 0.075540 -0.095375 -0.125948 -0.089969 -0.154516 -0.121198 0.127981 0.081701 0.110057 -0.025270 0.134124 -0.056825 -0.017149 0.095480 -0.017598 -0.001975 0.131651 0.133953 0.029086 -0.049751 -0.010455 -0.043857 0.072206 -0.064179 -0.077565 0.066252 0.040463 0.123438 0.062399 0.065697 0.110503 -0.093568 -0.019687 0.044819 0.023109 -0.004485 0.082621 -0.135035 0.062237 -0.037024 0.097269 -0.088763 0.014711 0.081467 -0.005765 -0.036296 -0.111802 0.063300 -0.067439 -0.148851 0.082666 0.032557 -0.052093 -0.091520 -0.074328 -0.084408 0.074200 -0.073833 -0.132622 0.052847 -0.090658 0.059990 0.041319 0.106240 0.014403 0.129146 0.094526 -0.067743 0.079650 0.008121 -0.133380 0.004160 -0.116127 -0.151244 0.085943 0.027414 0.128725 0.139321 0.092422 -0.102857 0.021198 -0.039087 -0.124423 -0.029169 -0.006586 -0.118385 -0.039329 0.055113 -0.153745 -0.089587 -0.099012 -0.136331 0.099308 0.042631 -0.003306 0.153755 -0.110179 0.093447 -0.091436 -0.023573 -0.157274 0.096738 0.079734 -0.018358 -0.103843 -0.075276 -0.145984 0.096069 0.094970 0.081108 -0.052282 -0.113219 0.068781 -0.107398 0.119101 -0.036858 -0.081179 -0.047744 -0.138965 0.002131 0.080377 0.045664 0.045615 0.022989 -0.073673 -0.034191 -0.080137 0.015169 -0.050891 0.017084 0.130662 -0.103300 -0.043139 -0.095722 -0.123050 0.135710 -0.109988 0.122676 -0.068905 0.026731 -0.097071 -0.112634 0.027890 0.148870 0.028519 0.011751 -0.027143 -0.052889 -0.028080 0.068543 -0.073245 0.137946 0.086657 -0.035208 -0.071665 -0.121003 -0.095088 0.072400 0.116024 0.044731
 -0.097039 -0.012363 -0.061389 0.037191 -0.107716 0.066814 -0.024228 -0.016570 0.075789 0.049550 0.015227 0.023252 0.018232 -0.052491 0.031322 -0.123213 -0.073328 -0.139520 -0.053834 0.025969 -0.114529 -0.137118 -0.100651 0.132627 0.049145 -0.049738 0.107356 -0.030313 0.049702 -0.012350 0.064687 0.034790 -0.082206 -0.020936 0.008421 0.003451 -0.055288 -0.113969 -0.091349 -0.119830 0.053576 0.107443 -0.046873 0.110562 0.118757 0.074971 0.079404 0.057178 -0.090710 0.009866 0.024841 0.031482 -0.068285 -0.027803 -0.052409 0.045677 0.029904 -0.132578 -0.020091 0.096677 0.038710 0.059870 -0.071668 -0.077543 0.048848 0.057234 -0.017068 -0.115792 -0.125510 -0.021080 -0.058002 0.066025 -0.002915 0.143616 0.059631 0.129449 -0.046541 -0.131572 -0.135630 0.096468 -0.121883 -0.048957 0.081446 0.111528 -0.093786 0.080504 -0.090682 -0.066250 -0.088515 0.044049 -0.076951 -0.130414 0.060582 0.131246 -0.036721 -0.131120 -0.009209 -0.049348 -0.078490 -0.001802 0.082962 0.088960 0.109074 -0.065369 -0.032826 0.041701 -0.007935 0.033291 0.020954 0.109508 -0.045064 -0.105265 -0.010314 0.018127 0.008189 -0.050975 -0.030430 -0.048495 -0.044867 0.144064 -0.138261 0.034782 0.052339 0.128346 0.075612 0.108967 -0.044482 -0.077582 -0.050559 0.106032 0.140595 -0.128907 -0.004902 0.055968 0.092548 0.019665 -0.088044 0.132661 -0.008767 0.126019 -0.121020 0.111708 0.096103 -0.041030 -0.089164 -0.074698 0.119216 0.089541 -0.067565 -0.143906 0.071917 -0.093224 -0.133861 0.123999 0.112885 -0.087570 0.130311 -0.014558 0.057390 0.008128 0.084317 0.061567 -0.074117 0.044320 0.118884 -0.063475 0.127052 0.124387 0.015072 -0.101842 -0.115495 0.026597 -0.069294 0.117013 -0.126107 -0.091558 0.041655 -0.025368 -0.113076 -0.128365
 0.062119 0.035353 -0.072007 -0.065780 0.121291 0.032079 -0.064403 -0.135219 -0.017214 0.034707 -0.021469 0.115364 -0.052223 0.147182 0.119156 -0.152409 -0.085360 0.040392 0.013316 -0.046637 0.026355 0.079028 -0.099182 0.051863 -0.128558 -0.021963 0.037582 0.106568 -0.098493 0.011707 0.118693 0.059592 0.122706 -0.070104 -0.099712 -0.038813 0.051609 0.032204 -0.160192 0.113461 0.036808 0.011450 0.035770 -0.042626 -0.005439 0.121687 -0.028424 0.021359 0.012781 0.119731 0.107343 -0.068261 0.094386 -0.110408 -0.112931 0.049825 0.030237 0.029183 -0.102915 -0.023635 0.034669 0.123930 0.056207 -0.080650 0.099789 0.102266 0.016472 -0.060597 0.099549 -0.131964 -0.091983 0.097672 -0.071405 -0.039385 -0.027834 -0.128029 -0.017442 -0.100774 -0.115518 0.041107 -0.108523 0.093951 0.064983 0.013621 0.042639 -0.060867 -0.022783 0.097622 -0.037382 -0.125977 0.054078 -0.018522 0.004838 0.122845 -0.037975 -0.130419 -0.047971 0.004826 0.031974 -0.041966 -0.042553 0.121902 -0.031306 0.132799 0.000990 -0.032572 0.115084 0.128862 -0.111427 -0.099025 0.099536 0.031072 0.014680 -0.029927 -0.010296 -0.084017 0.111484 -0.077917 -0.057145 0.134181 -0.086306 0.059018 -0.081230 0.135457 -0.008644 0.025217 -0.044918 0.045452 -0.090921 -0.047333 0.030376 0.024086 0.064637 -0.056489 0.109158 -0.106732 -0.026559 0.015486 -0.142627 -0.034274 -0.041002 -0.148799 -0.033820 -0.010840 -0.068210 0.034434 0.090046 0.030634 -0.004328 0.044002 -0.053783 -0.108869 -0.059490 -0.035443 0.091676 -0.082241 -0.031527 -0.140363 0.037342 -0.049104 -0.075983 0.069201 0.117202 0.030079 0.021621 -0.063766 -0.092359 0.024679 -0.087426 -0.103424 -0.173205 0.085070 -0.120686 0.127178 -0.119057 -0.083659 -0.155202 -0.146995 -0.109226 -0.094219
 0.131944 0.134896 -0.003596 0.054010 0.130526 0.027899 0.041335 0.065155 0.060198 0.088651 -0.035161 -0.074339 0.023383 -0.126613 -0.145805 -0.054236 0.094517 0.004319 0.115065 -0.065358 -0.062785 -0.108233 0.034257 0.070168 -0.028475 0.061971 -0.080264 -0.011806 -0.016437 -0.103229 -0.135015 0.008868 0.035287 0.022774 0.141233 -0.131032 0.047650 -0.138162 0.079774 -0.105583 -0.143318 0.018110 0.062514 -0.069898 -0.047289 -0.072859 -0.079914 0.128406 -0.118497 0.097605 0.139110 0.138085 -0.043546 -0.030157 -0.010078 0.073980 0.090903 -0.004203 -0.061396 0.081504 -0.033512 -0.090920 -0.100743 -0.102707 0.145516 0.127972 0.080468 -0.079316 0.095284 -0.035609 -0.016443 -0.142170 -0.132533 -0.060256 -0.148795 0.067474 0.143549 0.003466 0.125300 0.119764 -0.134996 -0.032817 0.102974 0.012125 -0.095249 -0.071315 0.126602 -0.025237 0.096226 0.132204 -0.107445 0.096565 0.141052 0.022254 -0.125002 -0.129120 0.104319 0.049874 0.028612 -0.148691 0.130956 -0.078389 0.018703 0.009465 0.041646 0.035744 -0.084204 0.086500 -0.000837 -0.102029 -0.072092 -0.071269 -0.001852 0.094826 -0.071104 -0.034207 -0.112208 0.132072 0.056120 0.041919 -0.095902 -0.008480 -0.060475 0.126151 -0.120325 0.044672 -0.129960 -0.124575 0.089216 0.145141 -0.032390 0.042827 -0.141642 0.114634 -0.061963 -0.088312 -0.097106 -0.088488 -0.041760 -0.123895 -0.103617 -0.113715 -0.028286 -0.060350 -0.126234 -0.031053 0.091922 0.032068 0.059459 -0.128176 -0.102118 -0.006408 -0.054050 -0.120136 0.072025 -0.011072 -0.120045 0.097553 -0.092684 -0.022590 -0.089988 0.084187 -0.059961 0.096578 0.079898 0.098765 -0.125754 0.109125 0.049557 0.142297 -0.072415 -0.042591 -0.119850 -0.011995 -0.006908 0.025986 0.090692 0.058088 -0.011600 0.042823
 -0.070398 -0.052379 -0.001579 -0.105278 0.016646 0.130226 0.099629 -0.107537 0.125365 0.087816 -0.039175 -0.062707 0.131709 0.081205 0.036670 -0.118234 -0.128577 0.015784 -0.052077 0.016816 0.023213 -0.026756 -0.102041 0.054188 -0.045758 -0.125711 -0.010808 0.052880 0.070503 0.107969 0.132887 -0.141043 -0.120708 -0.095393 0.095067 0.083109 -0.020021 -0.120084 -0.083037 -0.032517 -0.047669 -0.003413 0.128410 0.102519 -0.135477 0.069682 0.151811 -0.012288 -0.064636 -0.102708 -0.080828 -0.022448 -0.127044 -0.054017 0.142195 -0.114112 -0.138784 -0.026530 0.107794 0.125178 0.062758 0.073571 0.121792 0.030371 -0.061736 0.109443 -0.077498 0.115307 0.045898 -0.110753 0.121825 -0.038097 0.133253 -0.104140 0.101852 -0.061574 0.109460 -0.063711 0.058979 -0.040601 0.134376 0.116011 0.024056 -0.080002 -0.109256 0.052477 0.049315 -0.056928 -0.024455 -0.019709 0.145177 0.079036 -0.034805 -0.122282 -0.092720 0.042973 -0.027258 -0.061029 0.120541 0.069423 -0.071816 -0.100858 0.007401 0.031849 0.108637 -0.095294 0.051706 -0.018012 -0.128770 0.042105 0.030799 0.058045 0.156276 -0.043310 -0.091341 -0.103712 0.072566 -0.028201 -0.017827 -0.041740 -0.111223 -0.095867 0.002240 0.128485 -0.064070 -0.094445 0.044519 0.113483 -0.064995 -0.034839 0.020904 -0.061643 0.071380 -0.010914 0.107574 -0.048662 -0.065291 0.064940 0.040567 -0.095912 -0.079907 -0.040024 0.053857 -0.065064 -0.067723 -0.004761 0.098270 -0.014908 0.061352 -0.065654 0.040082 0.120241 0.084845 0.047636 -0.035393 0.101579 -0.085797 0.025055 0.107926 -0.014176 -0.039047 0.036739 -0.037652 -0.110683 -0.128212 -0.080531 -0.070184 0.081300 0.120534 0.052645 0.033466 0.051077 0.085682 0.131867 0.142253 -0.117750 -0.024613 -0.129876 -0.080703 0.128590
 0.043531 0.134008 -0.077676 0.090791 -0.022356 -0.005117 -0.079146 0.032108 0.111055 -0.028260 -0.034239 -0.145420 0.121002 0.119601 -0.058378 -0.056086 0.126761 0.135500 -0.052612 -0.065444 0.074020 0.083337 0.121291 -0.011933 0.017271 0.020984 -0.131507 -0.088015 -0.054902 0.095789 0.022247 0.115407 -0.037795 0.110949 0.038257 0.043791 -0.005469 0.012731 0.129879 -0.061664 -0.089595 -0.078357 0.037746 -0.031131 -0.058661 -0.130966 0.051826 -0.010352 0.077882 0.126458 0.064458 0.042204 -0.081103 0.093344 -0.121592 0.078792 -0.016086 0.000477 -0.077000 0.075062 -0.114518 0.009826 -0.028270 0.069941 -0.046678 0.060978 -0.154329 0.063362 0.027033 0.065198 0.049077 -0.087291 -0.088553 0.085650 -0.036526 -0.133777 0.110767 -0.113754 -0.158854 -0.067717 0.009373 -0.106426 -0.005806 0.023672 0.082424 0.130805 0.074834 0.100218 0.018781 -0.013011 0.051063 0.062638 0.005455 -0.034056 -0.100803 -0.137182 -0.025487 0.016523 -0.073290 0.027981 0.020930 0.127229 0.055303 0.075812 0.127198 0.121085 0.088362 -0.132390 -0.103941 -0.038459 -0.041372 0.097561 -0.011989 -0.100493 0.129561 0.030708 0.012665 0.060460 0.024905 -0.031025 0.071640 -0.040153 -0.077854 0.028839 -0.025349 -0.084814 -0.141553 -0.021909 -0.140232 0.034922 -0.105785 -0.064245 -0.115832 -0.082003 0.132709 -0.147272 0.039079 -0.026900 0.000472 -0.084337 0.078202 -0.079799 0.123778 0.006453 0.134576 -0.009893 -0.022355 -0.064891 0.138637 0.101073 -0.156170 -0.075211 0.021058 0.121680 0.016275 -0.126303 0.119914 -0.091381 0.017908 0.025619 0.093782 0.028639 -0.037089 0.080394 0.066197 -0.031813 0.052487 -0.068488 -0.101228 0.143762 -0.029461 -0.157319 0.070656 -0.096195 0.094876 -0.034255 -0.103308 0.056577 -0.134511 -0.121783
 0.045257 -0.084672 0.047955 -0.139767 -0.020625 0.009673 0.103031 0.043174 -0.001340 -0.066201 0.050889 -0.135386 -0.115066 -0.030715 0.074750 0.123297 0.025981 -0.126018 -0.094921 0.076580 -0.009966 -0.080093 0.122745 0.109638 0.081654 0.113331 -0.078540 -0.083363 0.092470 -0.135731 0.069201 -0.139561 -0.089418 -0.021872 -0.149798 0.072246 -0.027276 -0.072416 0.097544 -0.141215 0.018497 -0.021786 -0.004983 0.034595 -0.022978 -0.115075 0.079733 -0.069349 0.060508 0.021048 0.067581 0.123905 0.004625 0.036972 -0.029650 -0.002274 -0.097683 -0.042608 0.047798 -0.097959 0.031872 0.143542 -0.055441 -0.048493 0.098905 -0.056845 0.120253 -0.109597 -0.119624 0.077334 -0.078810 0.098100 0.032432 0.065411 -0.028968 -0.144872 -0.111798 0.099734 -0.001713 0.059303 0.087259 -0.006649 0.118040 0.049020 0.078804 -0.142845 -0.068082 0.056033 -0.002738 0.034181 0.139643 0.149008 -0.081962 0.102543 -0.088405 0.020430 -0.011851 0.116359 0.099644 -0.075761 -0.092672 -0.022006 -0.106701 0.031242 -0.047246 -0.039772 -0.150245 0.009685 -0.025846 -0.054508 0.020512 0.109178 -0.154916 0.008647 -0.019912 0.083775 -0.098590 0.051761 -0.023318 0.144301 -0.039540 0.067495 0.045747 0.027505 -0.121919 0.111626 -0.007038 0.104462 -0.021302 0.124916 -0.119622 -0.136208 -0.111483 -0.117059 -0.059483 -0.011963 0.031822 0.086753 0.112492 -0.006701 0.110424 -0.110503 -0.010044 0.097773 0.000043 -0.083124 0.108955 0.087628 0.050988 0.117412 -0.071422 -0.014607 0.019041 -0.085407 -0.147672 0.142512 -0.015151 0.062062 -0.123288 0.073926 0.048827 0.061073 -0.088912 0.141200 0.140721 0.129047 -0.115778 0.000946 -0.120894 0.030857 -0.133376 -0.058823 -0.077515 -0.011020 0.149692 0.003452 0.082645 0.075129 0.153259 0.125436
 0.093362 0.004497 -0.098431 0.057247 -0.156003 0.094477 -0.027530 -0.118585 0.069832 -0.137642 -0.117797 -0.094645 -0.055242 0.092116 0.043420 0.046083 0.048410 0.146962 0.091421 -0.097286 -0.058193 -0.125711 -0.065939 0.084089 -0.134786 -0.025967 -0.024219 -0.014137 -0.066087 0.033656 0.110164 0.136187 -0.052020 -0.025064 0.112724 0.018993 0.024850 0.005915 -0.138641 0.068716 0.096487 0.113478 0.075733 -0.129923 0.119810 0.086488 -0.055012 0.023540 -0.046771 -0.094733 0.060927 -0.135074 -0.136953 -0.114899 0.006654 0.147952 -0.127302 0.055979 0.094474 -0.017286 -0.125112 -0.076334 0.115799 -0.037411 -0.000550 0.126046 0.041376 0.091318 -0.082469 0.126102 -0.032954 0.031184 0.081294 0.063046 0.034844 0.088636 0.004828 0.110171 0.062881 -0.078660 0.099788 -0.080188 -0.056873 0.062371 -0.022760 -0.075608 0.013144 0.111583 -0.026572 -0.092930 -0.155104 -0.058649 -0.088264 -0.051759 -0.037172 -0.111012 0.123648 0.062088 0.114722 -0.082724 0.014512 0.006672 -0.013042 -0.054287 0.020127 -0.032487 -0.083407 -0.113481 -0.098896 0.004062 0.113609 -0.146284 0.087584 0.114858 0.088386 0.106211 -0.019466 0.003573 0.027115 -0.049230 0.105202 -0.045761 -0.049381 0.104506 0.059180 -0.129384 0.026017 -0.097153 -0.052722 -0.078691 -0.127608 0.096275 -0.075031 -0.061877 -0.096927 -0.096211 0.133674 0.029479 -0.088073 0.157215 0.124709 -0.139582 0.062778 0.091079 -0.137699 0.128182 -0.088988 0.110426 -0.100224 -0.068139 -0.126652 0.029557 0.115197 0.020851 -0.049965 -0.069724 -0.042487 -0.128515 -0.115278 0.035788 0.051737 0.145618 0.024707 0.052019 -0.055325 -0.040764 -0.019366 -0.126958 0.079187 0.004212 0.075223 -0.077813 0.030828 0.087819 -0.022376 0.054987 -0.115612 -0.049010 0.017441 0.016162
 0.059703 -0.117299 -0.117445 0.086370 0.048645 -0.053798 -0.154323 0.011457 -0.155073 -0.105716 -0.034992 0.044170 0.050040 -0.009309 0.075670 0.072868 0.099094 0.045771 0.034462 -0.111921 0.100331 0.051684 0.022239 0.145718 0.082074 0.124697 -0.132747 0.097497 -0.097196 0.014784 0.128964 0.051901 -0.011937 -0.148534 -0.009822 -0.000733 -0.041873 0.056211 0.110308 0.021459 0.101638 -0.003830 -0.009644 0.059813 -0.020944 0.085671 -0.142766 -0.043842 -0.058744 0.115599 0.045679 -0.051911 -0.129412 -0.081686 -0.092317 0.110073 0.133865 0.130640 0.033997 0.151543 -0.105724 0.060133 -0.143969 -0.053688 0.015372 -0.101239 -0.064470 0.049887 0.129242 0.065976 0.103566 -0.107990 0.111861 0.115132 0.053320 -0.082319 -0.020883 -0.111749 0.096930 0.106703 -0.002922 -0.008878 0.073114 -0.023165 0.032518 -0.020562 0.086200 0.037300 0.079039 0.050210 0.074811 0.049179 0.094386 -0.041365 -0.006382 -0.060435 0.125009 0.038146 -0.146575 0.041126 0.028990 0.092450 -0.022900 0.149200 -0.031264 -0.055385 0.125530 0.070158 0.010925 0.091559 -0.077865 0.051184 0.018464 0.031806 -0.124092 0.080147 -0.099478 0.087272 -0.034885 -0.029218 -0.053769 0.118819 -0.153284 0.026450 0.085137 0.107653 -0.000781 0.005467 0.078765 -0.005367 0.034439 -0.134300 -0.089055 -0.084122 -0.056889 -0.140413 0.087113 -0.077538 -0.046947 -0.095614 -0.007080 -0.104303 -0.052164 -0.053578 0.019206 0.015889 -0.138327 -0.151016 -0.113698 0.029621 -0.100065 0.092049 -0.078379 0.050342 -0.107544 0.120610 0.077951 0.157853 0.012982 -0.149210 -0.098596 -0.002757 0.025970 -0.007401 0.049992 -0.008938 -0.123308 0.019760 0.065688 0.094613 -0.147661 0.071203 -0.052253 -0.000095 0.077622 -0.076978 -0.054801 0.072366 -0.135231 -0.086308
 -0.151955 -0.049723 0.082781 0.036826 -0.073134 0.007462 -0.062545 0.084405 -0.157680 -0.064106 0.043908 0.088652 -0.148057 0.042314 0.034962 -0.139600 -0.093041 -0.145801 -0.007606 0.054237 -0.106997 0.141586 -0.023499 -0.075614 -0.001576 0.079154 0.112245 -0.099043 -0.015830 0.094336 0.135846 0.135035 -0.088903 -0.100778 0.067368 -0.148269 -0.043989 0.119652 0.095757 0.135369 0.034423 -0.051871 -0.113771 0.073956 0.065114 -0.070844 0.030439 0.029875 0.021995 0.064188 -0.119838 -0.124767 -0.093809 0.125841 -0.149169 0.064218 -0.078056 -0.021131 0.089002 -0.130737 -0.085308 -0.123089 -0.061659 -0.003274 0.111910 0.058487 0.003060 -0.074049 0.052360 -0.017751 0.091509 0.037705 -0.073420 -0.097146 -0.091847 -0.080690 -0.008870 0.064844 0.069218 -0.040243 0.011496 0.143117 0.051942 -0.013503 -0.061367 0.036258 -0.167554 0.047038 0.153247 -0.081084 -0.158867 0.158380 0.054424 0.105682 -0.134041 0.068966 0.042559 -0.091065 -0.048854 0.104860 -0.076782 -0.145122 -0.030810 0.126214 0.118627 -0.097033 0.023221 -0.060811 0.061828 0.149283 0.062743 -0.054411 -0.011717 0.031311 -0.151419 -0.135436 0.100917 0.140859 0.107155 -0.063741 0.068117 0.069494 -0.115838 0.119746 -0.115097 0.118077 -0.107625 -0.089636 0.003155 0.026191 0.002343 -0.145867 0.002109 -0.102542 0.089867 -0.083521 0.076262 0.005604 -0.095844 0.150596 -0.005702 -0.107918 -0.101993 0.092660 0.075589 -0.138234 0.110521 -0.052174 -0.142108 0.133910 0.038140 -0.005424 -0.093743 -0.047067 0.018333 0.135955 0.055842 0.002988 0.015840 -0.124309 -0.088310 -0.024917 0.133640 -0.011006 0.126838 0.005119 -0.032316 0.081697 -0.036192 -0.068513 -0.049847 0.028401 0.055816 0.026811 0.098976 0.077245 0.093242 -0.080911 0.068068 -0.011450
 -0.040403 -0.012284 0.015250 0.103755 -0.116789 -0.050683 0.060794 0.085664 0.111023 0.091792 -0.028278 -0.039261 -0.141769 -0.110951 0.029175 0.060217 -0.014420 -0.034134 -0.070553 0.128432 0.067436 0.058667 0.004301 -0.033043 -0.045144 0.040068 0.012356 0.068711 0.038149 0.094923 0.000550 -0.102754 -0.143016 0.107909 0.088417 -0.111107 0.084157 -0.092077 0.032106 -0.021678 0.061483 0.002172 -0.155999 -0.074173 0.096391 0.047250 -0.014631 -0.078119 0.018981 -0.116563 -0.128840 0.024543 0.097702 0.143686 -0.076278 0.155737 -0.126302 -0.018462 -0.074629 -0.081940 0.059713 -0.107464 -0.121984 0.094259 0.003571 0.043486 0.116389 0.033325 0.008918 -0.020223 -0.044489 0.064802 0.008342 -0.053575 0.121998 -0.012654 0.018966 -0.091316 0.023870 0.033431 0.041183 -0.020771 -0.056080 -0.061293 -0.120038 -0.097123 -0.004155 0.005142 -0.132274 0.156004 -0.085072 0.082826 -0.134028 -0.152415 -0.120872 0.106723 0.080795 -0.048021 -0.039822 0.054884 0.054710 -0.108541 -0.127878 -0.075478 -0.084472 -0.069375 -0.060373 0.130681 0.113472 0.041554 -0.126715 -0.150464 0.017664 0.093841 0.079303 -0.023512 0.048446 -0.028974 -0.083464 0.051309 -0.156191 0.139403 0.100432 -0.028898 -0.057212 0.080032 -0.038684 0.103255 -0.098352 -0.057793 -0.001345 0.156987 0.129272 0.106397 -0.028083 -0.134042 -0.159874 0.165644 -0.038947 -0.006811 0.011815 0.073695 0.000360 -0.056504 -0.062809 -0.008562 0.097515 0.028932 -0.043891 -0.033529 0.047849 0.042812 -0.047030 0.056263 -0.035829 -0.106442 0.015095 0.001134 0.009605 -0.085989 -0.103137 -0.005253 0.071823 -0.129962 0.087551 -0.071955 0.037405 -0.006153 -0.134948 0.041510 -0.000750 0.125756 -0.032959 0.029773 0.096106 -0.119166 -0.045717 -0.000093 0.123310 -0.109535
 -0.005880 -0.075608 0.101868 0.077218 0.078694 -0.082086 0.069513 0.001824 -0.074571 0.096592 -0.140495 -0.008026 0.037586 0.056254 -0.089077 -0.104855 -0.096593 -0.058982 -0.094122 -0.112383 0.028524 -0.110880 0.025303 -0.108832 0.010439 -0.017723 0.085757 0.122794 0.059187 -0.105691 -0.072459 -0.099378 -0.146026 -0.017120 -0.073933 0.023270 0.081003 -0.030649 -0.113045 -0.140157 -0.076800 -0.046674 0.096857 0.144518 -0.104351 -0.065844 -0.070565 -0.040769 -0.086838 -0.046982 -0.041220 -0.118725 0.049843 0.028493 0.004574 -0.077696 -0.044787 -0.139169 -0.015602 -0.108662 0.002080 -0.070336 0.040566 0.118053 -0.114831 -0.039874 -0.013887 0.136150 -0.055654 0.090465 -0.006287 0.099489 -0.011727 0.140113 -0.010756 0.114767 0.022859 0.010930 -0.132000 0.063781 0.102969 0.047149 0.086757 0.108479 -0.081357 -0.079184 0.065601 -0.111969 0.118895 -0.147423 0.091610 -0.018462 0.063295 -0.073681 -0.068492 0.115342 0.034736 0.117310 0.099756 -0.039843 0.118647 0.115430 0.004938 0.098503 -0.055266 -0.068303 0.059207 -0.014833 0.014860 -0.132737 0.014921 0.041510 0.082213 0.096416 -0.058005 -0.139899 -0.050642 0.095061 -0.029868 0.097391 -0.136358 -0.022098 -0.059032 -0.146123 -0.048573 -0.135985 0.146974 0.109247 -0.095659 -0.095249 0.065758 -0.012623 -0.107227 -0.082421 0.097331 0.142216 -0.083845 0.076512 -0.139459 0.126819 0.138101 0.109964 -0.144020 -0.143022 0.025338 0.100751 -0.082433 0.133495 0.022823 0.007972 0.092022 0.026182 -0.146248 -0.001652 0.060504 0.043991 0.057050 -0.100487 0.033756 0.100444 0.143582 -0.112179 0.116545 -0.030306 0.137987 -0.030964 -0.115074 0.036978 -0.090520 -0.136470 0.047890 -0.065718 0.032810 0.046152 -0.046341 0.083553 -0.107882 0.061719 -0.132344 -0.124023
 0.061326 -0.001224 0.092532 0.062728 0.019510 -0.124109 -0.069810 0.025439 -0.011218 0.002386 -0.026350 0.114863 0.011928 -0.123302 0.048418 0.044711 -0.077231 0.130900 -0.086676 0.082251 0.116176 -0.099739 0.048048 0.116577 -0.076559 0.032091 0.122671 -0.126375 0.090572 -0.145278 -0.032679 0.049925 0.040945 0.093936 -0.091822 0.121959 0.147805 0.055183 -0.076350 0.144961 -0.111569 0.011176 -0.079444 -0.171069 -0.117575 -0.122648 0.131517 0.089646 0.028462 -0.058376 0.104319 -0.005779 0.037255 -0.132895 0.124407 -0.026848 0.018569 -0.078927 -0.131265 -0.117238 0.074529 -0.084778 -0.092723 0.112905 -0.044677 0.141781 -0.033582 0.090315 -0.007009 -0.085832 -0.092692 0.065699 -0.116036 0.100898 -0.010179 0.131105 -0.129749 0.117427 0.171801 0.009159 0.147034 0.016251 -0.030599 -0.133763 0.058904 0.089731 0.051825 -0.072024 0.130359 -0.068840 -0.106492 0.079606 -0.000528 -0.107047 0.011058 -0.076343 0.065430 -0.136981 0.037729 0.009882 -0.031589 0.032416 0.051788 -0.138576 0.113957 -0.004093 0.128425 -0.008639 0.050345 0.092288 0.081785 0.077579 -0.076192 0.037391 -0.054436 -0.088483 0.008537 0.123501 0.040764 0.150105 0.025180 -0.133375 0.143665 0.052367 0.014181 -0.074129 0.145896 -0.036815 0.130647 0.056226 -0.017557 -0.007861 0.059290 -0.123507 -0.028965 0.087190 -0.008644 0.104131 0.084440 -0.021270 -0.105348 -0.074117 0.137420 -0.005834 0.037578 -0.050413 -0.067565 -0.023487 -0.088080 0.118640 0.036126 0.068545 -0.099957 0.124069 -0.075959 -0.006109 0.060521 0.079353 -0.011909 0.096830 0.062745 0.100881 0.113097 -0.087746 0.129537 0.030793 -0.074159 -0.106429 0.012688 -0.142508 -0.047105 -0.107144 -0.100228 -0.123040 0.153265 -0.018025 0.167969 0.093585 -0.134257 -0.100504
 -0.043891 0.096282 0.036669 -0.093774 0.067964 0.013629 0.136778 0.144032 -0.119594 -0.084536 -0.081706 -0.065840 -0.113861 0.129323 -0.081212 0.054979 0.071614 0.062694 0.097808 0.080206 0.130233 0.004256 -0.083642 0.044616 0.089603 0.032626 -0.156533 0.093258 0.037736 0.064579 -0.139378 -0.027053 -0.035612 0.031697 -0.127216 -0.028372 0.047297 -0.040356 -0.005207 -0.088963 0.151261 -0.057545 -0.040429 -0.019193 -0.078352 0.056566 -0.025609 -0.088096 -0.010082 -0.138561 -0.005104 0.022361 -0.071157 0.018077 0.038984 -0.095784 0.046257 0.005690 -0.064891 -0.016267 0.123261 -0.086308 0.076749 0.023149 -0.116451 -0.088734 0.053529 0.072339 -0.011228 0.031316 0.003768 -0.068429 -0.041980 -0.063764 0.036239 -0.046210 -0.049932 0.097579 0.070586 -0.061388 -0.145520 -0.132076 -0.109584 0.004737 0.122369 -0.011051 -0.106499 -0.060436 -0.081057 0.017318 -0.030661 -0.008401 -0.091383 -0.017781 0.102416 -0.133589 0.012030 0.006992 0.064333 -0.084013 0.096455 -0.045681 0.089198 -0.066786 0.092526 -0.078042 -0.053401 -0.133457 -0.120837 0.133322 0.138406 0.081918 -0.131875 -0.106269 -0.131745 0.154688 0.125156 0.102967 0.051305 0.108279 -0.127675 0.127673 0.077570 -0.048181 0.096052 -0.112879 -0.026653 -0.129085 0.114031 -0.062345 -0.028760 0.014630 -0.017537 -0.016082 -0.062376 -0.041805 -0.000307 0.124934 -0.091686 -0.000076 -0.110266 -0.036248 -0.022282 -0.082811 0.104563 0.133508 -0.011465 0.074688 -0.119522 0.011750 -0.000138 -0.103952 0.038489 -0.024838 0.124693 -0.002975 -0.045936 0.014778 -0.148750 0.115790 -0.040252 0.040797 0.069271 -0.056585 0.126571 -0.034609 -0.091238 -0.009997 -0.110959 -0.020038 0.022334 0.024191 -0.064673 0.063718 0.083584 0.028807 -0.088389 -0.086110 0.150709 0.099946
 0.062262 0.083431 0.008459 -0.109962 -0.139159 0.012128 0.020771 -0.135961 0.064123 -0.133716 0.062514 0.042262 0.087619 -0.035316 -0.068841 0.051725 -0.032220 -0.090171 -0.090156 0.110946 -0.066420 -0.006495 0.059389 -0.123931 0.089125 0.053340 0.057452 0.013208 0.097022 0.007848 -0.108288 -0.064501 -0.106546 0.087221 -0.011142 0.005110 0.132340 -0.115175 0.012519 -0.127369 0.134989 -0.065239 0.003810 -0.125644 -0.086385 0.088515 0.131887 -0.064630 -0.134727 0.001387 -0.093904 -0.077019 0.011408 -0.075141 -0.101680 0.110040 0.121282 0.010051 -0.103958 0.142754 -0.134665 -0.018939 0.077475 -0.063791 -0.114426 -0.146088 -0.023784 -0.111620 0.072316 0.037297 -0.115529 -0.035281 -0.033334 -0.073069 -0.089286 -0.053578 0.040933 -0.119633 0.093096 0.013939 0.017559 0.076872 -0.065269 -0.042865 -0.084437 0.058501 -0.143347 0.112018 0.088616 -0.010726 0.057119 -0.053063 0.014040 0.143826 0.119572 0.035898 0.078358 -0.054593 -0.029565 0.011334 -0.065274 0.054917 0.021325 0.134934 -0.053415 -0.057172 0.094496 0.014265 -0.101450 -0.016948 -0.030823 0.012857 0.060147 0.095881 -0.058386 0.028430 -0.007666 -0.144210 0.033011 0.113416 -0.018326 0.024340 0.022243 0.005331 -0.003557 0.047223 0.038970 -0.112859 -0.042443 0.102861 -0.053425 0.115536 0.043384 -0.097823 -0.020751 0.022369 -0.054053 -0.025893 -0.145611 0.119927 -0.083575 0.138559 -0.124523 -0.144508 0.083002 -0.104830 0.110546 -0.113871 0.144681 -0.037051 -0.068090 0.065992 0.107132 -0.063104 0.045454 0.051913 -0.142996 -0.041592 0.054113 0.008654 -0.108179 -0.078724 0.128093 0.051986 -0.114630 -0.073733 -0.083111 0.059428 -0.019753 0.030570 0.029610 0.025681 -0.088890 -0.077609 -0.088200 0.074019 0.047559 0.018928 -0.117029 0.079260
 -0.132262 0.151185 0.132554 0.117811 -0.099530 -0.046220 -0.092976 0.158044 -0.007670 0.041706 0.106196 -0.055305 0.121493 -0.119788 -0.073105 -0.016711 -0.076830 -0.084690 0.103450 -0.077955 -0.058269 -0.056010 -0.000623 -0.094899 0.070182 0.055472 -0.117677 -0.083744 -0.115812 0.131079 -0.002474 0.011001 -0.125556 -0.122675 -0.049636 0.067129 -0.114799 0.068650 -0.083938 0.070080 -0.026825 0.012206 -0.038866 -0.049311 0.118921 0.086937 -0.043421 -0.074119 0.005073 -0.123346 0.091756 -0.026755 0.018084 -0.088420 0.132388 -0.107781 0.001795 0.060996 0.125582 -0.135644 0.020216 -0.052765 0.038271 -0.062941 -0.069899 -0.113365 -0.027499 0.124296 -0.075841 -0.104362 0.079711 -0.108012 0.057654 0.050677 -0.073977 -0.035923 0.071350 0.152763 0.050625 0.139717 0.132843 0.103040 0.119280 0.103849 0.112836 -0.051312 0.126216 -0.061678 -0.021653 0.075582 0.005385 -0.052201 -0.051672 -0.060073 0.068096 0.135021 -0.009412 -0.065074 0.137994 -0.083428 0.013923 0.148963 -0.010297 0.138819 -0.158737 0.105539 -0.099191 -0.055753 -0.119461 -0.112411 0.065131 0.116441 -0.005911 0.119697 -0.141281 0.083714 0.074563 -0.048801 0.007055 0.021091 0.136285 -0.125786 -0.158121 -0.007437 0.070154 0.074259 0.124889 -0.039280 -0.130657 -0.064019 -0.089593 0.004719 -0.055997 -0.057976 -0.036276 -0.097024 -0.076001 -0.127064 -0.101771 0.011316 0.132524 0.101860 0.014363 0.148170 0.018220 0.117780 -0.052749 0.031544 0.116806 0.114176 -0.103065 0.043298 -0.023930 0.112482 0.058788 -0.049980 -0.149065 0.111808 0.013399 0.130448 -0.061396 0.104016 -0.091977 -0.103906 0.012919 0.125942 -0.114487 0.039664 0.010736 -0.119872 -0.078121 -0.129860 -0.008191 -0.000801 0.079446 -0.098170 0.078083 0.117745 -0.036952 -0.100544
 0.076102 0.060122 0.066909 0.119022 0.123153 0.014451 0.008162 0.027912 0.015208 -0.022242 0.057312 -0.143853 -0.084252 0.026582 -0.078033 -0.056181 -0.126506 0.080303 -0.019606 -0.041083 -0.001290 -0.113130 0.067657 0.070264 0.025270 -0.046021 -0.100930 0.123865 -0.024173 0.011812 -0.090213 0.095929 0.001871 -0.112044 -0.032871 0.129206 -0.053530 0.083232 -0.062085 0.050921 -0.031277 0.147096 -0.011673 0.065687 0.009611 -0.100950 -0.102635 0.030338 -0.080674 0.131514 -0.081782 -0.013782 -0.126897 0.035927 -0.075931 0.036790 0.040417 -0.134928 0.067625 -0.114852 -0.099775 0.113846 -0.097201 -0.055415 0.002680 0.031653 0.116785 0.118751 0.008306 0.012791 -0.102379 -0.057490 0.022747 0.035680 -0.050026 0.061179 -0.045851 -0.060386 -0.019657 0.027706 -0.115418 -0.002492 0.051293 0.050905 -0.039733 0.063344 0.045073 0.038240 0.142510 -0.026202 0.011816 0.108970 -0.002747 -0.029021 -0.125298 0.125572 0.037304 -0.090060 -0.149024 -0.119214 0.051528 -0.076018 0.069432 0.097562 0.130752 -0.089419 0.094787 -0.065913 -0.069129 0.045985 0.128687 0.133375 -0.015216 0.098252 -0.121881 -0.091121 0.024953 0.052745 0.084830 0.113922 0.008977 -0.146095 -0.030383 -0.095774 0.121843 -0.063910 0.066213 -0.032944 -0.111346 -0.102416 0.123100 -0.102233 -0.022002 -0.067793 0.013337 -0.092105 -0.117998 0.068993 0.001884 -0.051693 -0.001419 0.095196 -0.031285 -0.134448 0.007786 0.066616 -0.009305 -0.004545 -0.033093 -0.056477 -0.106731 -0.068405 0.076834 -0.127341 -0.067845 0.097201 -0.111455 0.076447 0.145363 0.091393 -0.103548 -0.096610 0.017119 0.032433 -0.026814 -0.027713 0.145143 -0.147542 -0.083725 0.082486 -0.077920 -0.008665 -0.121697 -0.079627 0.116112 0.102451 -0.002907 0.016346 -0.115323 0.011023
 -0.118488 -0.035390 -0.038359 -0.004863 0.092396 -0.107991 0.141182 -0.005894 0.084573 -0.044563 0.062255 -0.046033 -0.023908 0.054751 0.087890 0.117210 -0.091998 0.046245 0.110002 -0.152990 0.136781 -0.174062 0.094077 -0.096896 0.156477 -0.115380 -0.023412 0.108077 0.097190 0.039282 -0.054315 -0.104713 0.098965 -0.105038 0.017415 0.128840 0.048135 -0.072307 0.019084 -0.167227 -0.054735 0.038283 0.153501 -0.142296 0.043327 -0.137615 -0.148692 -0.033794 -0.123158 0.014671 0.024022 -0.080902 -0.083852 -0.068708 0.157369 0.037357 -0.008994 0.098795 0.133191 -0.055790 0.156859 -0.162450 -0.084539 -0.093430 -0.101941 0.095061 0.085786 -0.142170 0.060083 -0.136403 -0.145419 0.141255 -0.033136 -0.116798 0.082055 -0.029201 -0.108055 -0.011284 0.162064 0.004695 -0.020313 0.068277 0.116129 0.039482 0.151647 -0.173307 0.092431 0.006228 0.021966 0.089522 0.140399 -0.105458 0.044147 -0.114977 -0.025403 -0.123767 -0.086017 0.013594 0.015157 -0.030533 0.001140 -0.064201 -0.034160 -0.120010 0.087608 -0.063235 0.025396 0.059648 -0.103300 -0.054724 0.121090 -0.088141 0.025963 -0.134755 0.051475 -0.004675 -0.020229 -0.128957 0.017270 -0.097599 -0.101907 -0.150029 0.149981 -0.090717 0.001962 0.148763 -0.029851 0.033742 0.107186 -0.164071 0.006810 0.114562 0.138414 -0.108672 0.055820 -0.011692 -0.047457 -0.085677 -0.113417 -0.048346 0.026567 -0.098473 -0.127057 -0.041092 0.036495 0.115832 -0.008532 0.011835 0.039300 -0.045498 -0.050881 -0.113499 0.083877 -0.040122 -0.031438 -0.114707 0.139828 -0.118272 0.148208 0.077654 -0.013550 -0.104266 0.154600 -0.111677 -0.015776 -0.078220 -0.127885 0.034879 0.076814 -0.175039 0.037678 0.036066 -0.036226 0.039201 -0.003954 0.080329 0.008598 -0.149181 -0.073772 0.064298
 -0.127620 0.081083 0.038568 0.118645 -0.158531 -0.154384 -0.008962 -0.121399 0.161484 -0.014051 -0.144717 0.050337 0.062257 -0.133420 0.078567 0.108009 -0.062638 0.112469 0.134812 -0.000640 -0.014819 0.137175 -0.017419 -0.158686 -0.109408 -0.102281 0.036337 -0.039659 -0.115645 -0.174909 -0.110931 -0.115423 0.075474 0.089995 0.016397 0.002953 -0.112284 0.010773 -0.073445 -0.062922 -0.150118 -0.059043 -0.072645 -0.100062 0.081418 0.102891 0.052241 0.003843 -0.027823 0.005777 0.154385 -0.026743 -0.005948 -0.066488 0.050924 -0.131295 0.111866 0.022955 -0.060265 0.050154 0.066645 -0.073679 0.137962 -0.059124 -0.103755 -0.013336 0.018126 0.090665 -0.058515 0.007625 -0.036052 -0.131281 -0.102707 0.110721 -0.072500 -0.036117 0.066041 0.069767 0.044337 0.042218 -0.076033 0.182539 0.043690 0.095591 0.126546 -0.083633 -0.055404 0.021684 0.086508 -0.169775 0.078194 -0.106827 0.072457 0.078417 0.018367 -0.011163 0.012368 -0.031354 0.038708 0.050647 0.079675 -0.164422 -0.005667 0.132167 -0.038895 -0.090070 0.079720 0.070690 -0.032502 -0.065077 -0.000486 0.064005 -0.084662 -0.082888 0.107025 0.069774 0.032572 -0.068996 0.025646 -0.131338 0.026409 0.115290 -0.065462 -0.058099 -0.077751 -0.061920 0.016893 -0.129868 0.021842 0.139026 -0.070997 0.100366 0.137893 0.107336 -0.063372 -0.008295 -0.079751 0.027983 -0.057182 -0.014174 0.077055 0.129966 -0.042541 0.023550 -0.093705 -0.057771 0.088630 -0.084682 0.018449 -0.062420 -0.092248 -0.013714 -0.065335 0.180831 -0.061898 -0.083595 0.057316 0.008238 0.149116 0.146833 -0.137484 -0.070646 0.021634 0.111406 0.137634 0.056293 -0.052996 -0.179142 -0.123786 -0.038789 -0.099448 0.040134 -0.075548 -0.127822 -0.000265 -0.128997 -0.094882 0.067456 -0.128130 -0.121042
 0.015689 0.143877 -0.007793 -0.098416 -0.082385 -0.121433 -0.113492 -0.064273 0.110772 -0.042579 -0.124467 -0.047626 -0.002473 0.106741 0.088327 0.026541 -0.084858 -0.141695 0.135003 0.043849 -0.103236 -0.096337 -0.020890 0.043268 -0.148867 -0.110492 0.049488 -0.080251 0.121425 0.069960 0.036564 0.086254 0.111261 0.003593 -0.097673 -0.039393 0.093002 0.039099 -0.007181 0.087190 0.076432 0.044763 -0.026773 -0.081615 -0.121235 0.016120 0.061352 0.039788 -0.041485 -0.067973 -0.071366 -0.046681 -0.100654 -0.119956 0.019515 0.057587 0.109018 0.028966 -0.023553 0.115670 0.141563 -0.047071 0.042990 0.146958 -0.017156 0.141361 -0.136645 0.070600 0.011048 -0.080483 -0.083923 0.140738 0.144397 0.020386 0.122207 -0.105507 0.135004 -0.146042 -0.012674 0.120868 0.081226 -0.006365 -0.035390 -0.099420 -0.142868 0.065590 -0.000446 -0.127131 0.010837 0.038549 -0.005533 -0.105330 -0.051732 -0.144488 -0.082758 0.019187 0.141391 0.112043 -0.117715 0.140746 -0.115667 -0.063315 -0.048603 -0.080625 0.080250 0.038350 0.103263 -0.139536 0.140219 -0.011210 0.125484 -0.077717 0.093527 0.133592 -0.020216 -0.002361 0.079247 0.067842 -0.085536 -0.042349 -0.079407 -0.013320 0.049282 0.057518 0.031333 -0.118782 0.046638 -0.129109 -0.089676 0.048545 -0.146589 -0.006920 -0.125967 -0.091861 -0.106531 -0.120004 0.053417 0.062571 -0.053191 -0.081639 0.041308 -0.075201 0.095288 0.059616 0.109010 -0.056428 -0.115879 0.067860 0.025122 -0.020672 -0.023174 0.022178 -0.063309 0.073734 0.113093 -0.116231 -0.082755 -0.123453 0.107005 -0.102556 -0.071243 -0.082573 -0.137211 0.049510 -0.076549 0.056480 0.027283 -0.010086 -0.119761 0.075198 -0.018641 -0.001178 0.003312 0.056969 -0.104497 0.061234 0.053438 -0.075723 0.041350 0.120412
 0.125154 0.131649 -0.148575 -0.147848 0.021114 -0.039391 -0.039950 -0.080627 0.097719 -0.061036 0.067971 0.047041 -0.087268 0.133977 0.034887 -0.030264 0.031185 0.001497 0.075254 0.009538 0.032352 -0.011796 0.013912 0.079320 0.023852 0.059447 0.094377 -0.099319 -0.097046 0.160000 -0.063296 0.048124 0.060207 0.076026 -0.079361 -0.057966 -0.124223 0.141747 -0.125201 -0.130547 -0.117178 0.070388 -0.043240 0.073098 -0.114028 -0.097151 0.041024 0.088798 -0.034361 0.112784 -0.017025 0.094224 0.042819 0.116527 -0.081768 -0.134573 0.051496 -0.078963 -0.002819 -0.000997 0.113970 -0.100919 0.084722 0.049557 -0.002668 -0.024169 -0.149676 0.114647 0.070199 0.043455 0.061190 -0.042593 0.109910 0.086158 -0.094483 -0.144502 -0.030898 0.102922 -0.056461 0.042610 -0.022244 0.086395 0.087085 0.032194 0.045152 0.091457 0.023468 -0.058023 0.083703 0.030616 -0.112001 0.030770 -0.121515 0.116309 0.134095 0.145551 0.008998 0.126783 -0.009553 0.125638 0.100483 -0.034534 0.080000 0.100930 -0.086010 0.069801 0.087227 -0.014713 0.119317 0.014996 0.057896 -0.048172 0.090359 -0.081150 -0.115529 -0.040261 0.048589 0.035457 -0.073583 -0.057604 0.116739 -0.143218 -0.083608 -0.053242 0.086334 0.011798 -0.142941 0.112736 -0.030749 0.106037 0.034152 -0.137341 0.115058 0.021593 -0.106215 0.004773 -0.020018 0.061198 -0.044741 -0.069094 -0.029852 -0.129105 -0.063712 0.005202 0.128835 -0.005644 -0.074363 -0.016227 -0.086340 0.068895 -0.042192 0.143950 0.069170 -0.119092 -0.123890 -0.020801 0.021154 0.016050 -0.100694 0.106351 0.104732 0.122582 0.012800 -0.002883 -0.032355 0.057175 0.092835 0.083342 -0.125539 0.098425 0.083813 0.078704 -0.062963 -0.056305 -0.101128 -0.075665 0.046634 0.120120 -0.121922 -0.076345
