3
90
30
2
 -0.007922 -0.127558 0.088581 -0.094586 -0.068545 0.091623 0.082539 -0.029550 0.057895 0.034965 0.116949 0.122316 -0.139561 0.050712 0.006411 0.146301 0.079140 -0.146165 0.081283 -0.151028 0.061564 0.083736 -0.078475 0.067888 -0.033763 -0.073183 -0.012775 -0.136086 0.105535 -0.146129 0.021721 -0.054916 -0.144456 0.115993 -0.105509 0.143781 0.083139 -0.074633 0.075489 0.064528 0.068289 -0.018292 -0.147805 0.112420 0.089760 0.117626 -0.059257 0.115092 -0.061870 0.100911 -0.092702 -0.091941 -0.064463 -0.078620 0.123407 0.136501 -0.086076 0.065962 0.037856 -0.127151 -0.068018 0.083565 -0.084433 -0.148002 -0.104136 -0.131598 -0.051944 -0.141374 0.069586 0.031112 0.001167 0.012998 0.115580 -0.044128 -0.099698 -0.079409 -0.104878 0.018266 -0.131979 -0.139392 0.062146 -0.062480 0.080325 -0.012097 0.147443 0.092507 -0.099381 0.101462 0.064649 -0.094357
 -0.093412 0.181846 0.035652 -0.118923 -0.195241 -0.201029 -0.007469 -0.063278 0.168213 -0.108612 0.184200 -0.062678 -0.068103 -0.243036 0.125551 -0.196511 -0.060021 0.152307 -0.209566 -0.097856 0.182114 0.196413 0.124144 0.167818 -0.147342 -0.024020 0.052984 -0.074596 -0.067121 -0.186397
 -0.050853 0.402169
